[[[0.07043952370146879, 0.10236726295425094, 0.07855782076377647, 0.060340429538013114, 0.13899809488167364, -0.09575333078624935, -0.03728784865937872, -0.017771520480757832, 0.05405639976694286, -0.014258197158019603, -0.00697792814444136, 0.0962137008835866, 0.007423101814526611, 0.041658124983856445, 0.015749317459293595, -0.010858190982967723, 0.03375175631969912, 0.04342471229180901, 0.021592513644021285, -0.13784884980519677, -0.044834079978907905, 0.06624151415832848, 0.012811739407875626, -0.013983047377791994, -0.011926172518325196, 0.01915966349515382, -0.006619529975023162, -0.03400477802835921, -0.008269791543277737, -0.010026666082108619, 0.0018068349997921425, 0.05739445226081015, -0.039961900430430235, -0.06233071457904987, 0.009163812735557617, 0.030952177180717196, 0.013622487054238925, 0.06431749039962568, 0.1526238100114794, -0.02254509632149904, 0.057739037473134004, -0.12170096118336017, -0.06980319839792444, -0.05549926467494042, 0.02099327385849741, -0.06762437983463564, 0.02239839585948454, -0.09855369777093115, -0.06409314765040998, -0.06194302231279181], [-0.044351936343695206, 0.0031269121600601235, -0.07233736135132385, -0.08101639477470537, -0.03246579784018277, -0.0689249016214163, 0.030655528431231628, -0.0867061820994895, 0.0006593671219503722, -0.061777510991254996, -0.03334791407157613, 0.02361717124277767, -0.04162745116526005, -0.03278875536324865, -0.020363584303296406, 0.014354847755991013, -0.061086284229093145, 0.08760162495200256, -0.03227297988485454, -0.04912669527061975, 0.033422468384944094, 0.013619935275243144, 0.02724644706492165, -0.058049343050254214, 0.00648288735148378, -0.022462304316990218, 0.011012193921653264, -0.08490919397945107, -0.11777051361280486, -0.1014275442056385, -0.04636364058980302, 0.06549609423060451, 0.005132357356153907, -0.03127038080071719, 0.11824608428931686, 0.05233189042861472, 0.06445655813876248, 0.0017249055504503946, 0.13044222866573849, 0.06374837319451292, 0.059282007148828156, 0.09868957434091975, 0.03953684494706473, -0.07396631869359434, 0.09390533883985276, 0.03802606900500235, 0.05668515911783627, 0.010768657428958512, 0.0916507402749566, -0.014228160668957183], [0.02668598784601634, 0.011639567915487242, -0.057306365200103765, -0.006609645376736293, -0.08266493848132495, 0.008350239707158681, 0.042213614985202055, -0.17051378059579206, -0.04814287320219047, -0.03418788795658406, 0.03741967949865881, 0.038006263778740196, -0.029882373667960625, 0.046683784136196727, 0.026967293360898162, 0.02083401183020051, 0.09579614217060145, 0.030526354568635776, 0.028616537319794733, -0.036607951906388526, 0.004571657426292315, 0.0034077319601862714, -0.008721975577609911, 0.053816144189736945, 0.030574114331321428, -0.022955232426516835, 0.04279465921980937, 0.01839521538753664, -0.08901998619199275, -0.0861992920298534, -0.07870158120760613, 0.031015741546501503, -0.05509680133386749, 0.011404152589422395, -0.04631823526383579, -0.005594966620916089, 0.028913961644576207, -0.03829373998427312, 0.09699020407129222, -0.05597073245938078, 0.07811330382277522, 0.0415245622895743, 0.07327071741278203, 0.003767653475585488, 0.24562629219139803, 0.004753992918522669, 0.08432582666656985, 0.0010180785682607136, 0.023802243635978913, -0.011756402435339246], [0.017038629247209225, 0.1077236464639047, -0.052718227479961535, -0.06493394907156862, 0.05443407099596258, 0.006563819725781191, -0.020418935987681394, -0.007141031870755428, 0.03332078130850048, 0.0014601696668696778, -0.0876059311302562, 0.09216189973569656, -0.01823713272788306, -0.05382302560342864, 0.02359637845267464, 0.015995044154958848, -0.00643667723298878, 0.04858038834920744, -0.006826546074006744, 0.014354916638966852, 0.022721388403289335, 0.062480708697892434, 0.029555756065537554, -0.031095116254302155, 0.04210947771099262, 0.053731516987937385, -0.15734378437794233, -0.08232146436008757, 0.0610306347446952, -0.03773271042934823, -0.017558560853875613, -0.024108295119004818, -0.025747880763849863, 0.001896820619194245, -0.025256436539950036, -0.10019040773841377, 0.019829185526504634, 0.06452330062939322, 0.03725049970025962, 0.0967756779796147, 0.05162830807865849, -0.10462194003078945, -0.08117214761618453, -0.07443298475776165, -0.08402078476120549, -0.07226176805830888, 0.10207030771006542, -0.060771951606374636, 0.07808667195960892, 0.039837066743035325], [-0.04200798940263476, 0.0030696152647274825, -0.0778074490459382, -0.05632197319182298, -0.044565376574381116, -0.02474159079462166, 0.03578923227478123, -0.038873338346086625, 0.028627253693760644, 0.0009051420878274656, -0.05280651666679854, 0.0647047781766549, -0.0466030165207423, -0.10258654679895489, -0.0073427271704719155, 0.013512194960006892, 0.032660996135795116, 0.08098160319775695, 0.018018991028074912, 0.03215698141539646, -0.023609086185243024, 0.022186760904069094, 0.05056163143058801, -0.04271745695896617, 0.09243887912303916, -0.006689523537093963, -0.1299964547904506, -0.08915224395772772, -0.01720448246105142, -0.07917270528297746, -0.045775291360002156, -0.022498079119785023, 0.018929861449570526, 0.06819360304269426, -0.02599364383478516, -0.06283729409197482, 0.12787394505167063, -0.011336921486970315, 0.039159086000789725, 0.0841760795976671, 0.06263945440283201, 0.05143893294320403, -0.04611798861335901, -0.046414639088478905, -0.07770109756233864, -0.03562165695362224, 0.12283469574293439, -0.004894834796554111, 0.07261485185841889, -0.021222996875901932], [0.011829748379252578, 0.04512489189783402, -0.04855679608708333, -0.06919555032227007, -0.054508368931660924, 0.013260616599363452, 0.010608558740934283, -0.10030195125787597, -0.08878931921823056, -0.010729574334701569, -0.0926706377635048, 0.03469663313877291, -0.07843518258111401, -0.11719537012240115, 0.009749814462006028, -0.0017995609417045123, 0.11774543815139624, 0.05660993464350396, -0.05435255638287998, 0.0533839717773061, 0.002921493993231185, -0.03860944757348468, 0.0775897599326667, -0.0075316036420850895, 0.15329924960039634, -0.04825430868580601, -0.09653116297055139, -0.019688419139182, -0.028614671568540893, -0.008422399386991063, -0.050612625583971456, 0.013292205017572813, -0.017952674513958128, 0.12257619118353062, -0.10907991248691351, -0.0988164158559178, 0.02568266621612148, 0.01953765116184381, -0.018503003838516784, 0.06861639691990634, 0.1037082493663617, 0.010023371336777198, 0.02570526240462935, 0.01420275574169034, 0.02606789395125355, -0.02612272115531269, 0.1516490387625463, 0.017582272375573627, 0.04607700027987966, 0.06173733803658961], [-0.003431430038394617, 0.08941674203993642, -0.0037499395859449496, -0.021409279515777098, 0.122050786698308, -0.010521341060424218, -0.0628504211337465, 0.0731377600274702, 0.09771096059823911, -0.01784718135633887, -0.02317204978633235, 0.06514406381494606, -0.07115442420209951, 0.03132011249512778, 0.05570969539092973, -0.0332296465292936, -0.05480809406629153, 0.004561811890102044, 0.017161230467688183, -0.06335600800507932, -0.014859734600920367, 0.00011029648009097087, -0.03080090487982881, -0.07025493076812814, -0.062205768402350065, 0.020180012150969737, -0.016550459253346195, 0.05082365467165485, 0.052012761416633586, 0.05009292538714706, 0.07302753603436689, -0.043659962036542335, 0.005888916782817975, 0.012428142481453415, -0.14303556638355924, 0.046733263347129, 0.0049585903269784674, 0.051400071591106586, -0.020540933198821994, 0.08927276251788036, 0.03331581005443592, -0.12518357754675602, -0.05809694134915197, -0.064913019704758, -0.05969786630607999, -0.10413189609851953, -0.08944850504062417, 0.0033966291574584473, -0.015592714749921677, -0.017787025409295915], [-0.04074329564693994, -0.055508987184142086, -0.03205534392273403, -0.05780302617050433, -0.02854601246633996, -0.004834931498040256, -0.004366412639016669, 0.04765747670395925, -0.004619861405856334, 0.00986280263571145, -0.024694632703186396, 0.03416464095499175, -0.03717871527510326, 0.01297862081270867, 0.005963161382076325, 0.013025486428576368, -0.05463118530893283, 0.0014945767564269056, -0.023069905875461653, -0.04762178906056125, 0.02645994257066239, -0.0461314091025818, 0.033153049897192005, -0.09983283629512275, 0.027069393546219168, 0.03221360953754337, 0.001564322987066288, -0.045051863698774126, 0.0016124570759818346, -0.008775714317294485, -0.018675270262692858, 0.005496160117997532, -0.019543431536540617, 0.039813976706568964, -0.046660202913742344, -0.036591744902155554, 0.07656689423361314, -0.03542721965164779, 0.009909211279401626, 0.025915994549039034, -0.0038548074613430853, 0.06946461616159258, -0.0005611241476270608, -0.03634084112669699, -0.043421992993156994, -0.0482734818137131, -0.01033580436282812, 0.0711610558162688, 0.08387969906229245, 0.03602278586051868], [-0.00792801978703543, 0.019694112218391773, -0.009588904079673489, -0.020573231042055846, -0.08755052816781118, 0.01901424262566121, 0.05723314153117934, 0.005944243074933709, -0.06136626135090426, -0.0797595063476961, -0.048093700496659786, 0.05181545367254097, -0.07907287238000461, -0.0014556702399640795, 0.09298087046756429, -0.0017117361660957508, 0.012951902576991569, -0.01057260212217113, 0.006433086573438492, 0.04607942313907788, 0.04013147643327815, -0.003243574056648788, -0.06964324369892133, -0.045721563299703526, 0.04889328164798582, -0.00327358726011697, 0.014472232486275514, -0.02897107916025785, 0.002298620194767014, -0.0031376903749930226, -0.0214017164268328, -0.04637523028232715, 0.0607696448181651, 0.07763495332602031, -0.18108026436344693, -0.007923120443845801, 0.08137099028039838, -0.022824614779400596, -0.05817696056875448, 0.030925280960774775, 0.024924020164100957, -0.005602687006678969, 0.02446911496281698, 0.057251031305707016, 0.09193003300775163, -0.0869552295961497, 0.01743936750708037, 0.011810972673174106, -0.010843859574048561, 0.06788586719624404], [0.009310592653982302, 0.05709160568580379, 0.055559586845824314, -0.07807071032893305, 0.06500984201159565, 0.040930695619115304, 0.024796314893309922, -0.031006488396068288, 0.11569667414368567, 0.053745235109466195, -0.1320730331713884, -0.05964318644809134, -0.012466149090082992, 0.040586568659260955, 0.017256444983712222, 0.012217206346089443, -0.06181507728436476, -0.02362303886585329, -0.009703562119811108, -0.021703878674071128, 0.019270097443713875, 0.030663013569837732, 0.04566560370797235, 0.04402368158308709, 0.03350512392261835, 0.05233927360279337, 0.04136902601473423, -0.07335855395933535, 0.007934742996757104, 0.022225706479087035, 0.07013818764205854, 0.056302161145558506, -0.04253906857493548, 0.02260112097122319, -0.02784357384171517, 0.03202108264923103, -0.029841457361433482, 0.07648339105292547, 0.04497536353049303, -0.013847006261963387, -0.07866127972476071, -0.08996007310952463, 0.01456954598573771, 0.0034567240614146503, 0.0032041300034887877, -0.058186190106631355, -0.08893249103948775, -0.033354925215041166, -0.08014174914647954, -0.0597414080995849], [0.015676016432666213, 0.03322126300965892, -0.011511144029008897, -0.10217388619210777, -0.024070968117740968, -0.008514688698155864, 0.058795790978223565, -0.045302689604271064, 0.024113247614560664, 0.09577383695082221, -0.09781245509640539, 0.0002746777472031598, -0.08916628162300065, -0.051886969849574666, -0.02785353787326834, -0.042342241638112746, -0.010859417475193318, 0.030469133272802762, -0.0016519419762357664, 0.04475505546535067, 0.0688023382860822, -0.017141570992360373, 0.007543351712732175, -0.02634152194033564, 0.04970506680445518, -0.009253744538915256, 0.04056832363784917, 0.0012745490543860309, -0.1460323485052851, 0.0059512546642169605, -0.015184613358244963, 0.03389540379275508, 0.09865661586959201, 0.05793215392220585, -0.04034125901583029, 0.06036168929983521, -0.026637502713641608, 0.021307361250705568, 0.019998052549862352, -0.012585905140293131, -0.0824275151230448, 0.022553394104341713, 0.011094000208142284, 0.011163483965681252, -0.06192356246349412, -0.060555785899462755, 0.005233801769776203, -0.03977109019323639, 0.045702451874175286, -0.04045104002022852], [-0.0038123684853281067, 0.07496803550552321, 0.020094348083977517, -0.07072036147498086, -0.07465431608743557, 0.0258138295863496, 0.020728447740154934, -0.03439822147900793, -0.036882287358168994, 0.015514449348201745, -0.05135496179358022, -0.03229778836400086, -0.01744249370041193, -0.05305021298029686, 0.016476254791517233, -0.042637738238356114, 0.022728336406451752, -0.028905733791407956, -2.2823298677211783e-05, 0.00044540755947730236, 0.08517313599677312, -0.04779350585423258, 0.013152401377445564, 0.07390172151944177, 0.07876571226819046, 0.006135684039872909, -0.008953968381013228, -0.020490819577122097, -0.0793826643384983, 0.05811699292247227, -0.03512595806396149, 0.0026077123942580644, 0.02490151494871716, 0.06583579762590158, -0.125581371046289, 0.02481590473149546, -0.08659988636354021, 0.03094239531500795, -0.03255835076650654, -0.08230244042036833, -0.010719241298138501, 0.014408937449505851, 0.018561920305351275, -0.03272590670270005, 0.04454744131708332, -0.020857333652292052, 0.017589021554799057, 0.03710446689741935, -0.04590286874971803, -0.00897378971885977], [-6.45887989579763e-05, 0.01482805578176478, 0.04537706842151325, -0.01671665593323903, -0.05424039504734555, 0.014525633431810866, -0.04088304384693745, 0.014737908892684289, 0.10532076175514254, 0.02879173061932562, -0.047216654990655284, -0.13489903158816005, 0.013155524822078686, 0.011659919199417314, -0.03716569505616847, -0.0011739970696776087, -0.028509108319370306, -0.004978512312027633, 0.0608679701243779, -0.06551133152036095, 0.09044435130582519, 0.03696339335656336, -0.027968817595490678, 0.1386088538317384, -0.11008659795867681, -0.0561717969932777, -8.309248051499942e-05, -0.004244928452656151, 0.01389112351020374, -0.03648141244484849, 0.06930423124860817, -0.009579481402606532, -0.02983787019976472, -0.07286977607261354, -0.012260607195910836, 0.08981440810487976, -0.11874798249917592, 0.03145200526963315, 0.11522377794690479, 0.056753181405473696, 0.14983621609743802, -0.019774050821525696, -0.02510919669911527, 0.012479771551880903, -0.062371915720275964, 0.00712015753429951, -0.06966287381396838, -0.1462245042211509, 0.007144581684153946, -0.007498238059495092], [0.020030170187731015, -0.061882770962159626, -0.010653034009346952, -0.02668141214406245, -0.07713435988608063, 0.09256541588767174, -0.013080425110399307, -0.02372215795242772, 0.0564735488249107, 0.012471958023768395, -0.05348095108836093, -0.11996363255177771, -0.024541802367657403, 0.004071307959881409, -0.10172971319735205, -0.012465112899900347, -0.07669021508759971, 0.002033867850212397, -0.022528527686493115, 0.023690414687010417, 0.05208316420557306, -0.0037348050884877236, -0.03154265700387641, 0.06674036159606872, -0.06889113633941428, -0.025059731854628186, 0.014372320706204467, -0.0019697532971616996, -0.0241335448027746, -0.02865937076999327, 0.04670191089829345, 0.015487570735527234, 0.005915251012571404, -0.0020702554267897407, 0.03783676021382979, -0.03400855723669648, -0.055528825585830194, -0.036680162691366404, 0.086571016461205, 0.1101297443276163, 0.1372303551767544, 0.09598928624612883, -0.1086489988771041, -0.012430004826476663, -0.04488515306284073, -0.000736712213998724, -0.047010274954196234, -0.07659167826543078, 0.12528852498196813, -0.010846655355065401], [-0.027040048562910025, -0.011745377215309811, -0.00706178293947429, 0.05365159156096611, -0.05618752481005185, 0.12933492680969708, -0.02807565093633611, 0.02711576432447374, 0.03086218195540936, -0.00246652963511418, -0.026605500093195986, -0.06825919096157008, -0.021455984282452215, 0.0031960774308568453, -0.006556647625800526, -0.02686369933683848, -0.05620878938045687, -0.0712643286309266, 0.022055539251117102, -0.009781811374346064, 0.04619420534824325, 0.025580939856554793, -0.01874926854170215, 0.1338246180962572, -0.10538259539529303, -0.037181910746721204, -0.01316217341586276, 0.030770619645188388, -0.02568591399537158, 0.006791312985281673, -0.005163864265158102, -0.04140245588855536, -0.019640099848494894, -0.04309498222247502, 0.02016189512062088, -0.06823717021860562, -0.15482426885836922, -0.022198443012648117, 0.042467638849725695, 0.00814478714117243, 0.16369870458542166, -0.012651028968297113, -0.011292509617297535, 0.023377526433676764, 0.040479173766481996, 0.01758606687190486, 0.014220078990592105, -0.01177513536716524, 0.011653442248741113, 0.0005783188255363641], [0.06279942650554846, -0.022977449976026302, 0.13921479640988088, 0.024418515444764293, 0.04032860068322892, 0.024632997452171474, 0.0465646487970649, 0.015602246821444461, 0.06467621549363203, 0.022074688227601738, 0.022086041973616154, 0.031958631576455045, 0.05043134196526185, -0.0019242121928804612, 0.019813402072984765, 0.0009832196536872975, -0.04034194408600242, 0.07637484786154873, 0.0449592203109887, -0.00236428832960127, -0.003531463978264051, 0.005313096832127694, -0.013430623222676295, -0.006190210065961781, -0.01991228231991276, -0.05594347644286572, -0.04600336301826743, 0.023916613042006384, -0.0450565589308983, 0.0011700919939126252, 0.05589332447426023, -0.018116754994480636, -0.05361866064267159, -0.06635460242238755, 0.02193572028275137, -0.027388168613560453, 0.006096956227247792, 0.037118588429000815, -0.052618727864596634, -0.030128807287944512, -0.018419921129649026, -0.11993034167625626, -0.027785789954487456, 0.008348585671883697, -0.07080916039227392, -0.02374522602624657, -0.0288743088087155, -0.09488348723776267, -0.037360993252216514, -0.0761016955422419], [0.04567310484975993, 0.05860952606417102, 0.006504517870563935, -0.0588074757329716, 0.004113068045847553, 0.03677091571292725, 0.057941272510858656, -0.01805618327436205, -0.03994324960900332, 0.042532099569300805, 0.010915913853476063, -0.001279433344810405, 0.04946748946116187, -0.016438733230944996, -0.03350186286537174, 0.06442388302908349, -0.03660824318656421, 0.09967097316609366, -0.050641264735279565, 0.02884194896871588, 0.020846262824612168, 0.021435714102340242, -0.017233017739293047, -0.03547010096055286, 0.015148544546761811, -0.008082343750981644, 0.004303573118667105, 0.044154231118813655, -0.035848356626084814, -0.040911309855493926, 0.02649909346693893, 0.02034365820358366, -0.04248773167311177, 0.0005668314620730369, 0.033892132668089006, -0.040841166957601316, -0.01028056136276326, -0.010974903534434751, -0.010860396718707352, 0.07927049969403406, -0.012217036846052663, -0.012426461674412703, 0.04169316659569215, 0.013307729017578495, -0.036000266579002, -0.04973997875683326, 0.04661085329166799, -0.030772808871091666, 0.06894280313124479, -0.018316564783368117], [-0.06931253867544408, 0.05345645269474514, 0.051172074918837504, -0.006191079248508364, -0.05399973019331831, -8.846774660088594e-05, -0.030104072079275145, -0.0064635175923464785, -0.0628950001146572, 0.016857566303095053, 0.09212650928503727, -0.008796332868868521, 0.07523656448886258, 0.020779225133665574, 0.0064062625462902876, -0.03560549533422199, 0.013878898582461614, 0.028998700193590528, -0.11649845224984254, 0.04877280597866144, 0.03673776668516016, 0.0003264524316189274, -0.042884144431101535, 0.007837114680339315, 0.06122655519157029, -0.004430201566286615, -0.0346769891285129, -0.014625509600129002, -0.042861257221957376, -0.04054247840600682, 0.014168165928907439, -0.0462906854243039, -0.06403059092843791, 0.006870252108129371, -0.09228657052912412, -0.1275657182658619, -0.020691050851821283, -0.02657529704076661, -0.08099671593749522, -0.006459920331569393, 0.02352238424910513, -0.07302038035947916, 0.05026736009971651, -0.02443851211744449, 0.009659357815811466, 0.04177309107769188, 0.06645437054116064, -0.03225939213787059, 0.09059654241327604, 0.000773727535426119], [-0.0725285868595056, -0.052911203556187454, 0.06411140988545007, 0.031014974612273028, 0.034777054529287234, 0.05430972463521241, -0.0478402678157805, 0.04366082434494538, 0.12930098638319118, 0.10669752238011872, 0.03213900270029148, -0.09057854519233645, 0.039467115596495524, 0.014927350488476309, -0.005963539864102452, -0.0501951133790264, -0.04311925090725189, -0.050630978919032975, 0.011330408353399476, -0.05229098256951773, 0.01892031270957855, 0.0485032458088602, 0.06371945105031451, 0.024049832243712196, -0.07820510599635924, 0.007908508424389947, -0.028469409412989238, -0.018410115145942665, 0.06800164447366737, -0.015000214506010795, 0.09620110531297364, -0.01770701652094148, -0.09401371243885147, -0.08097200232195843, -0.0012597755181646892, 0.038445414131358845, 0.05465155982712208, 0.05222488368349231, -0.018053223868201823, -0.04571621442227988, 0.12143438937559148, -0.07989305366438208, -0.040247848806571576, 0.1259287812539267, -0.041573359267218404, 0.05631039543214137, -0.02024894548538415, -0.033032552420929936, -0.08979531678158272, 0.01428600400611456], [-0.06802102863954758, -0.014443591697843653, 0.016787161329085722, 0.0026531724025616005, 0.031612145710801696, 0.03665783073807892, 0.012698414688208867, 0.016058660543686567, 0.11579855052849931, -0.004189443856940386, -0.006807209317031035, -0.01711836283562336, 0.012848684720741419, 0.03782064527489576, -0.0478566606923999, -0.04270641457413579, -0.020698190869811704, -0.032423826070340264, 0.004716247774192751, -0.04119894848263746, 0.061935269798905145, 0.037309656888832504, 0.06228588168935794, 0.0434517666979085, -0.012463833963199793, -0.08789320046934469, 0.00768462052439188, -0.027771833929032007, -0.021615296741274614, -0.09107015903203923, 0.06031292586139777, 0.022521021526120184, -0.11585761188754713, 0.007891256287523879, 0.04881428206369872, 0.04573923910365621, 0.07592506140066502, -0.03201375458586036, 0.03454592615577124, 0.0030464746158361602, 0.08750328756303012, 0.016891363943302786, -0.027833240930423053, 0.03439255966220301, -0.029959872441674355, 0.032103821812395114, 0.0009053585641142924, -0.023486016502209328, -0.0048174185423814605, 0.03382795521683378], [-0.010271373083973377, 0.03182707129288318, 0.02629894568212425, 0.04298110908575388, -0.019761147915270318, 0.03234877208499369, 0.004538425920974282, 0.002698265846372173, 0.028319080092942536, 0.020445676773772514, 0.0188217623679767, -0.022468799665316962, 0.03403790758019535, 0.04047121261428356, -0.004536658338155804, -0.08663701059280562, -0.007356581814391741, -0.11324646410322306, -0.028763367468903078, -0.0697039043316425, 0.08820191463080217, 0.037336258618506445, 0.010563730276295787, 0.0196885851641197, -0.01605275670599947, -0.052765175371269686, -0.026939141751155915, 0.003259609488908623, 0.028516304029060704, -0.043294696420107054, -0.008823985831618112, 0.00956747783423839, -0.15298875447966867, -0.0494294402314568, -0.00913141825632022, 0.03346141205127568, 0.035851926967877916, -0.016071505990275643, -0.05741017257250065, -0.061470344983439715, 0.17634284307143042, -0.06188139335505971, 0.002704645536492813, 0.10028208056005598, 0.08451123822688314, 0.05760391472325053, 0.0777557135390754, -0.023642923761514518, -0.04461567507125467, 0.06333879253514686], [-0.05545572068723508, -0.018823137284383454, 0.0008783671997757625, -0.0014023181518879506, 0.09487794270290933, -0.04128058204471013, -0.04778383939904502, 0.09651297942052663, 0.02377682772268056, 0.03726476473630045, 0.02701600604739969, -0.04435827332929813, 0.0001609481857888653, 0.00766743860057247, 0.05223936277033375, -0.030181602060378825, -0.05361526190892973, 0.049634190266418174, 0.0023814718652197856, -0.022599562048040433, -0.05225472447585189, -0.0665389679771895, -0.027168530191756652, 0.03293835527006974, 0.02268102904948113, -0.0007670820725237911, -0.048751495015093974, 0.009932302218243795, 0.009252896013630036, -0.0268285160989408, -0.05321732497112897, -0.08314562807083994, 0.05537443895212631, -0.023766265427640095, 0.0893164757145122, 0.033393282071615606, 0.04601883130075412, -0.027461855558495066, 0.07624908126913099, -0.02362155468705091, 0.027013149609544942, 0.01173024695339123, -0.04981396899627263, -0.01496398593369489, -0.01798897129168769, 0.0696733716399422, -0.05170525724596412, 0.009518586239140677, -0.08821349412864854, -0.04562697283977591], [-0.05866063712201213, 0.014817219872387249, -0.03923577617290874, -0.02361592981541547, -0.059916390166497385, -0.010560593280775276, 0.03550363881850793, 0.05913475700849413, 0.034643932722324716, 0.02555565601107054, -0.012101939727493603, 0.0001921749131990391, -0.004364990987598599, -0.04383200247938386, 0.060183582605247726, 0.06417276962539252, -0.054202683135830404, 0.03764589657553931, -0.02427677795185893, 0.0027046362382584337, 0.006005984162807041, 0.03573474273091218, -0.05180443865201004, 0.026684323118620734, 0.06968823126068893, -0.06197159581815659, -0.0033307822048776296, 0.03007261219607633, -0.05182074639796061, -0.10346227948522435, -0.06474181777631649, -0.05360101242114975, 0.09675978232827596, 0.024603052242887082, 0.14394167922643764, -0.008212063443379347, 0.07795377570866083, -0.034068463937685534, 0.08465909416599114, 0.05240327934106899, -0.026852941233468118, 0.09078631576364722, 0.05108611147343295, -0.0817604470103823, -0.0565914890403441, 0.0303502776311444, -0.07157882693419544, 0.038745145866727886, 0.04401151188270696, -0.03285291490456262], [-0.007216047572778058, -0.014495985786500026, 0.004162978280324194, 0.03660631759574126, -0.043393353542980656, 0.08116151701522548, 0.03197604466637595, 0.04077107306080894, -0.00435952011437193, 0.0027423854904434896, 0.004625569177030673, -0.013916852280227312, 0.05285461525737605, 0.013799522939048861, 0.07237947266451285, -0.021658932387128686, 0.006957196733405651, 0.004971057324319876, -0.10154347389934391, -0.021622269066123218, -0.014340944892483536, -0.03770266162263232, -0.04054404498415177, 0.08601186366670012, 0.08355073799696232, -0.022035876910363853, -0.013351460916991855, 0.06858710699909042, -0.008445664713492488, 0.015186894540256304, -0.054969654301569935, -0.08328833976930575, 0.03675417243990586, 0.00013617823493840926, 0.007137556736088989, -0.02457285601238744, -0.006818446066822224, -0.0076628769449817126, -0.007892648227978995, 0.004272178434784785, 0.06840400107466042, 0.07737943123023076, 0.023153747144715936, -0.041446719442629947, 0.02860854683555491, 0.07366325898621719, -0.020214244328170476, 0.03655877193902942, -0.08357365256015589, 0.025646901025503602], [0.012224994834536429, 0.008030715673288166, -0.014257534343060005, -0.0012099604175924417, 0.004880253598167039, -0.05081572896252105, 0.049156799975702874, 0.018905432590424345, 0.057291002699301034, -0.008477723799224188, -0.047556144824570885, 0.03715152874321624, 0.07574199320114065, 0.03853326652308501, -0.04951881007323852, -0.01829788013808108, -0.012871007847515126, 0.015603968520036652, 0.00665012751770788, -0.034079468183891556, 0.05070632700358808, -6.965780913999108e-05, 0.030141977504112995, -0.021974502128950253, -0.16140880607195232, 0.015270031556264108, 0.03117553552605172, -0.02606810951388182, -0.01838042859679937, -0.008437705109857063, 0.05618901685326541, 0.11583940586737348, -0.015095163196381602, 0.1216207726351309, 0.016488194310766653, -0.04143456266618556, 0.09418632519630757, 0.037059681111791705, 0.04975363929292956, -0.04785925591417159, 0.050938216536967645, -0.013954950218895753, -0.07719970260874418, -0.016944327840168052, -0.026463729286699815, -0.014080913595215547, -0.0299910467983699, -0.007932123642103602, -0.03155665757423066, -0.11264704697084243], [0.0031502458604828975, 0.05944596120418835, -0.09954419056040428, 0.03568308087466796, -0.03627599653764955, 0.0006395422064919781, -0.03640667438375354, 0.060803031387921154, -0.013140025543164775, -0.06133065795366008, -0.07731271849881206, -0.0073706660800273854, 0.05074052597908714, 0.08137849452023582, -0.0871794689614556, 0.06612757000610409, -0.05482278197813465, 0.05586682503401826, -0.027643701318932946, 0.061138688952174176, -0.0007242225848136802, 0.04661500123233423, 0.039022812551809304, -0.059417401734436236, -0.12061712977274568, -0.019817340490813223, 0.047030686420328774, -0.056640723245482145, -0.10509560972156287, -0.025890936564075227, 0.04143170036930374, 0.126806184878245, -0.003925937242970638, 0.08788980539559599, 0.06530198870566482, -0.06139393325319242, -0.002708780527031381, -0.02281109759288612, 0.036307256408850866, 0.12324856015136809, -0.03642961629234907, 0.08227951963569353, -0.06817846157214291, -0.09133123043050582, -0.013617096432415722, -0.06308814883803182, -0.03587503336327479, 0.004211194071423464, 0.10963547533719614, -0.08680280435609847], [0.0010848046386189119, 0.06422040954296233, -0.029879006530994904, 0.0210837941967063, -0.038963551382782534, 0.033260187041931406, -0.006055878235485747, 0.0014462322101223993, -0.03292150671580076, -0.01098324357687998, -0.042116083256679544, 0.000771000752905491, 0.059001324386525056, 0.005073158744613088, -0.07569261273144619, 0.027453015317121757, -0.022801954249937906, -0.03563470796587978, -0.04044699145779563, -0.04713513486661281, 0.019517555845856856, -0.02221583217168015, -0.05082364178501072, 0.004160040857851356, -0.1481867003502726, 0.03417900017668219, 0.11233739789920057, -0.012392440592460786, 0.04326846610574415, -0.02142965010707585, -0.01568507684082863, 0.0855450582342647, -0.06256492161133023, 0.08710056017315165, -0.012731871292338331, -0.0690797372234316, -0.10509213202535893, 0.007954909989893516, -0.0784779091638671, 0.0867095551615545, -0.006976477874477815, -0.004511745384068324, -0.01737982658051581, -0.035711197516035464, 0.030579639224496757, -0.017689118128432487, 0.02602273858799782, -0.03941899783350396, 0.07327315653989051, 0.0497369439930412], [0.07207700986852744, 0.03503876457487204, 0.06146323683317879, 0.03411649542476779, 0.08455716485963005, -0.09330478585056201, -0.03556456107101998, 0.055733601876866865, -0.008746443602141435, -0.0391950430479315, -0.009580408541642323, 0.002736366527131394, -0.0063405186806654145, 0.05031955949602818, -0.057400129788615264, -0.07993673784745561, -0.10825583753465613, -0.010828766880272228, 0.08665769584586328, -0.014026762699144543, 0.03682730795620399, 0.015370163417806119, 0.002860637180543278, 0.05686355194958481, -0.0011260187063153817, 0.00037128174677231873, -0.12208904342951327, 0.018552216621567866, 0.020156658775357144, 0.0954242528691002, 0.021759236084719892, 0.0202849642211036, 0.048129860185457375, 0.05494104631386705, 0.005738468560160421, 0.07773331052718119, 0.04752459996018121, -0.010965500617212982, 0.04660149634817166, 0.036192326996484815, -0.0025250080012887157, 0.03129007552079794, -0.028152420614884613, 0.021745241751456274, -0.04007346858610665, -0.05716624529440694, -0.0396885661071801, -0.01783311932011304, -0.05021426837552357, -0.07068379273295468], [0.05731196665432974, -0.026892178936427102, -0.05925517106248823, 0.059342287605476815, 0.003637302709960233, -0.016902933771702225, 0.011610038009228338, 0.08866380451543707, 0.048523153532338305, -0.05100151964528655, -0.023244366165881044, -0.060221112203029774, 0.014796181723719043, 0.011683572961283488, -0.09114327158748639, -0.05263951576217986, -0.05461905107187266, -0.028126939530009692, -0.04114077797230963, -0.030691408839083004, 0.025427086021919516, -0.0325428363830734, 0.02294864884966221, -0.007761671881118561, 0.032147920471487776, -0.033048087385559095, -0.00914491773061441, 0.046153669357575436, -0.042245120482663025, 0.05412362309361478, 0.00971603269656229, -0.03191416104093868, -0.05743265999463886, 0.01885506619213723, 0.09374989909326333, 0.025181203527964796, -0.014582764255830669, -0.0873083076722004, 0.02911126206154065, 0.09962149586613694, -0.05353710006966178, 0.09889942165071887, 0.013124707359563908, -0.022530776439615912, -0.055451966542411774, -0.029996587933200827, -0.1112598283963802, 0.08522718459680412, 0.0847123275787794, -0.016605049416132407], [0.0699821504714696, -0.01576486116798268, 0.045316514431768415, 0.00806235189202679, 0.038133417092277674, 0.008477654775595464, -0.08295311107195052, 0.05219485983698519, -0.07702198110784182, -0.053401369674992705, 0.04460365945992574, 0.05742769746555818, 0.02583043257675334, -0.03493798593071055, -0.023981593508146305, -0.043899173226859725, -0.06103476129446628, -0.02388651322871953, -0.011953765346203222, -0.010265001203885828, 0.038922652714418714, -0.013421618923807607, -0.039643001797832804, 0.04060171673890522, 0.0085352218196826, -0.015522971791048723, -0.002007387935454046, 0.04063778149597404, 0.09171451947626617, 0.0691920739080752, -0.05541084742295513, 0.0050037285830196255, -0.08445377661390138, 0.0072757618167170034, 0.03597642740366993, -0.010765588670872165, -0.037633478000213695, -0.07991073408530479, 0.017074038026977472, 0.06344178111518511, -0.03810559130489644, 0.038260877640290986, 0.00211748384400643, -0.007071389714746594, -0.03935135536489387, 0.011476823001578727, 0.009597340088414362, 0.048820358646608455, -0.04598288907180916, 0.01610124855929609], [0.01945661833882751, -0.03544668113177563, 0.07123729483304775, -0.006853708751175865, -0.07477059501046078, -0.07224921655868186, -0.029799340018108925, -0.005942324396904069, 0.03330871053722446, -0.01326980074541415, -0.02665572354833262, -0.020264843766594112, -0.06217927306779875, -0.045742620026434144, 0.1245412128038933, 0.018369431733242902, -0.058604691503848255, 0.0033544014836685357, 0.07831616103176617, -0.0529124449002446, 0.05022261992840941, 0.019970405790970182, 0.007705014012341554, 0.07622570938213935, 0.046439138836498355, 0.04958158930092188, -0.050094123716358505, 0.0932142505537577, -0.013665281316093843, 0.021321781770299048, -0.05601708414009207, 0.09040841764704473, -0.03522877464866659, 0.05574628429087504, 0.007602148227893467, 0.044770828796134934, -0.022294673914574164, 0.03431521106258108, 0.06544773491179644, -0.03837757901096776, 0.004741293805287777, -0.11834487255983997, 0.010434949749717818, 0.012159189027771267, -0.048847661862878235, -0.03174581783153701, -0.015959745489887347, -0.018796086953351762, -0.0229473292936438, -0.06220422222127342], [0.014545327361858743, -0.057935074025947324, 0.01499011924837628, 0.033494413394646164, -0.08768331007385356, 0.027445355743297813, -0.009913433113007332, -0.005856735876650263, -0.041112725049379496, -0.015437379418245394, 0.013343250828369317, -0.05351212650969453, -0.0118625570169522, 0.015936371042251332, 0.029659852859674412, 0.06577386906032828, -0.08350447914098319, 0.05900694187865468, 0.020197747952785877, -0.004697370198727947, 0.006291559081253804, 0.056963735018084626, 0.012218713111487037, -0.0353209931851498, 0.10723095469478115, -0.0023508351936544886, -0.008720817990625216, 0.05062454108779809, -0.04786013396084018, -0.04759373424835417, -0.009963972201259868, 0.10703712338155905, 0.006386006552259787, -0.013767912625031754, 0.06743377078036995, -0.0003327715132315154, -0.030443915795696063, 0.08130651260527297, 0.035297872264175266, 0.08345405768222405, -0.1121844711785088, -0.05313003878500304, 0.007791768063087235, 0.026290412020541738, -0.05575788110735605, -0.06190907573185521, 0.003503602534302087, 0.05007975201602268, 0.03581632450446076, -0.03292658810498446], [0.00953167600414279, -0.051961689907584464, 0.04612740543258181, 0.018809029552384494, -0.08745058363733357, 0.03666529395827969, 0.003129556955269558, 0.014247007119781321, -0.07253245310684714, -0.054421398000571275, 0.034072906365238916, 0.06557525255567567, 0.017323484464802225, -0.06207749505248345, 0.06788754073773948, 0.006452723397730002, -0.03522386263221978, 0.0176645091014199, 0.011922382562831834, -0.029615359840098037, 0.004528758042496007, 0.008338526504582727, -0.013806280373516982, 0.06164543114195976, 0.04845217716846711, 0.008753787574266852, 0.012797756028016706, 0.07281340179891095, 0.02651493508671217, 0.019071758420457552, -0.0958953499073878, 0.04942487497050386, 0.0015940904755946082, 0.029838956140505996, -0.014877279162124073, -0.045115683419551085, -0.09708759049011215, -0.004111963292057646, -0.07345420651023728, -0.002231768339714262, -0.010399979468519784, -0.08070373867707759, 0.0009703411451311536, 0.011548566509096378, 0.013766781352657433, -0.004021833522407324, 0.03538829723798551, 0.025949250457883242, 0.012945891667096749, 0.04235591037723308], [0.03835822980361374, -0.033914707321263095, 0.04532124640064225, -0.043372334586759584, -0.030943945184637115, -0.04587436361582209, 0.07914118840987341, -0.012888274190284956, 0.10589542866946246, -0.014943924582491639, -0.08659458426767562, -0.020204671295469462, -0.06617907166140533, -0.01717465666609741, 0.062125737466320684, 0.06259941237593385, -0.04825166715022461, -0.017229967794719935, 0.027398660366796397, -0.07118861004428115, -0.01646938776722105, 0.023273145355938985, -0.11376825981215907, 0.02832575821431648, 0.009891998487640816, -0.017150563612869884, -0.10844279687807784, 0.03129755841682949, 0.11910571287631458, -0.042800085833831034, 0.008140875401842839, 0.013107034454497188, 0.01945581307518693, -0.06609783757135997, 0.07766364563483052, 0.06350880760116039, 0.05868155095255567, 0.06506537271084456, 0.03838159629934078, -0.007765323284784595, -0.007430869885825169, -0.10242512077567496, 0.026622011094347295, 0.032629172980893906, 0.043946669074343386, -0.005185949788361064, -0.03695916752218246, 0.01794397785680146, -0.0007788522938122442, 0.10117437074410904], [-0.02750389415817853, -0.024946202199990483, 0.0327085988889269, -0.04114358775940167, -0.0630047428980997, 0.0671027235408302, 0.05997925819709859, -0.0037325406985365688, -0.006052225956855922, -0.005604406139375242, -0.10184934506750457, 0.005877708284732134, -0.04662842315564755, 0.0356580441486513, -0.04437326181087427, 0.05423453340729204, -0.04713007108669067, 0.02688080533333028, -0.04908071786168162, -0.025208468898891688, 0.013684073053521055, -0.031004662588667384, -0.0026801481189183034, -0.04821643198692542, 0.016182804611846322, -0.07125280059337213, -0.04319498033552845, -0.007813184946601699, 0.049400258625558705, -0.10549506375099235, -0.04424216738024215, 0.06866753495260454, 0.09498070770300326, -0.05793070439593034, 0.11919763348718165, -0.00829176013458388, 0.027620516884393757, -0.0009419268183715589, 0.012801242445495664, 0.10537697585792402, -0.055166361510425165, -0.07845991834336094, 0.048922634083881436, -0.05039957264887592, 0.027353361597554273, -0.06686444622652134, -0.08033347232967825, 0.005582240373369348, 0.10647427038684364, 0.1051934463997139], [0.022438849283929446, 0.04286623137934052, 0.09141110919277377, -0.06295161898232514, -0.014071449279514456, 0.05032460202781412, 0.03482162640393806, 0.05739097800361211, 0.03130007715731081, -0.0567494475445231, -0.02699139886523521, 0.030153588037029035, -0.022289578741522716, 0.011556717151244258, 0.00954458102891308, 0.07072965038608546, 0.0289739869362757, -0.01869572339391214, -0.08363674530141361, -0.009013506909188916, 0.04239127772044314, -0.0258258454938219, -0.10276542905844017, 0.039616004473198116, 0.02798863046642361, -0.02115731742461538, -0.004031459996503398, 0.05996541842863447, 0.13432270062928084, -0.09900457908201286, -0.10218009400178586, 0.0375439673210232, -0.017633301578136987, -0.11630673468850912, -0.005329796032990566, -0.07422357549585734, -0.09161786394620476, -0.004013862789984028, -0.06493486375253568, 0.0507271530253136, -0.0024222300257675483, -0.10069197598670174, -0.0008515372495120522, 0.017965027552588587, 0.030741462422263444, -0.036699389308139096, 0.014184744243161301, 0.042534162019393175, -0.0014084793695618744, 0.17179002466839666], [0.04404175065084775, 0.0006944736191346773, 0.11859660409649916, 0.04127338616879375, -0.05830286486163158, -0.07251258906420553, 0.009771838710104867, -0.04803632489529885, 0.048366190748304956, -0.005884731322652102, -0.04347737899887883, -0.06339778239501193, 0.01867380736800309, -0.0024599110743698427, 0.01897421001917196, 0.001255897990504235, -0.007726546156612279, 0.07415201416922224, -0.01742739086014359, -0.008608016611800568, -0.02341502031435473, -0.04160869886276606, 0.041417505378051944, 0.034127611873503175, -0.017202653004337543, -0.06957528710640115, 0.041241727294456465, -0.03964757190192718, 0.029226084297184714, -0.0127553721289643, 0.03521644293021537, -0.06497440420454811, -0.004091951782772007, -0.001203675485457975, -0.0630649066255965, 0.033844778447312256, 0.06281992805360218, -0.014505036503213872, -0.03765966590448128, -0.028856037767460575, 0.05070576248199378, -0.07390644246798656, -0.1299941411622467, 0.022331534815873966, -0.019105994513296053, -0.016259366639756363, -0.02506298161293577, -0.00846610698892136, 0.05026278491404925, 0.01525894438096406], [0.03879386007199579, 0.010578864597302373, 0.0279504467439639, 0.011825808873960302, -0.11415899041573217, -0.023057621497993223, 0.0962384018127733, -0.004530350042228029, 0.016763575421750436, -0.03047969664358694, -0.04012233414564252, -0.03642193602018107, 0.011524781346609135, -0.03145992912922395, -0.003782828645069865, 0.06264999926723365, -0.05941197048594403, 0.07156633181784529, 0.009090816867797774, 0.024922983604182835, 0.02522395947100401, -0.03102627022913508, -0.0009823389846349796, -0.03898129847398713, 0.0144647375036935, -0.09332715440240351, 0.06218163430227202, -0.08367196214785967, -0.02641140661880419, -0.036500992314057734, 0.005999832594935974, -0.010166680146811293, 0.06164436277182792, 0.05475238603661919, -0.003749767038580896, -0.031170935936555098, -0.04567195987401719, -0.021164787152333962, -0.06454508598529095, 0.09121482746540309, -0.06967965194649249, 0.05318578955834996, -0.08268404889840869, -0.01447336800219432, -0.032314943229999435, 0.013299059358690933, 0.04439716315565635, 0.04089639565805858, 0.11431720171693482, 0.041576890886330375], [0.05174824480296509, 0.034706173351802025, 0.0530452369636065, -0.01763113449663465, -0.12986892072790054, 0.012076745780424347, 0.029757606131544982, 0.01942149522378279, -0.05486144837453253, -0.03154053071168913, 0.08952795006282042, -0.06033329094128903, 0.06819750521577207, -0.008238536326759768, 0.036607406632312565, -0.019125067839057725, 0.004168846940301417, -0.058041060057955056, 0.0027415535479885815, 0.0172601911572155, 0.04387832461911674, -0.08909516801223921, -0.021440003632207324, 0.07528103023193963, 0.013586716772964245, 0.02336915240470474, 0.0799292632460789, 0.03212245291438309, 0.11142704798913482, 0.002765893211715532, -0.07246060354911311, -0.06288432169803831, 0.05902081892878831, 0.014030418558603357, -0.04319878798107924, -0.039509679546338605, -0.05747505348309752, -0.14530349725882075, -0.08800282289901223, 0.0391713775294575, 0.05508362461272158, -0.023069477381838656, -0.04646080068809621, -0.005044074060464195, 0.009511651022769881, 0.052363053925596044, 0.0499824386476574, 0.11055063596720209, -0.007520949653890503, 0.042928725164707505], [0.02828362250177134, -0.029497162059358373, -0.044200927700839936, 0.004888336365685192, 0.021415407757818392, -0.09598624679953341, 0.03396409953174597, -0.11414169169045642, 0.10625705354839542, 0.026934150966295083, -0.02512823531307625, 0.05279585485532854, 0.007384861707893854, 0.06949424100775976, 0.04268747253555365, -0.01254695205290148, -0.014159962266143319, 0.0841044688049978, -0.0012235288436294278, -0.006265957119951986, 0.03740892318613387, -0.10747897194206539, -0.006297288929325248, 0.02267612030948211, -0.08304228148918731, -0.035471489684673965, 0.0033804556283667155, 0.01790341617149145, -0.06127524033079722, -0.03205326079318263, 0.03496314644420154, -0.0727688808538621, 0.045865398966397596, -0.057574624857312295, -0.016550786891217605, 0.06842321077317846, 0.09844431115170334, -0.029426555009848178, -0.014963629230228174, -0.015032493668416394, 0.052165601681206424, 0.00485322693130108, 0.03829956767119891, 0.0371115086626263, 0.025008427255128557, -0.04382153049536901, 0.019145518604628944, -0.01572558539545087, -0.007835902856656012, -0.11304281342015428], [-0.02069343968170629, -0.03823949474170293, -0.06102454002428191, -0.0203703038016114, -0.06297388513495424, -0.06905198011811059, 0.03080283127426784, -0.059933892737977154, 0.08517447440734563, 0.042000361371378955, -0.048798697641347435, -0.006061591234793928, 0.03752570774146837, 0.026067836487991145, -0.06415553305181232, 0.047809134428302126, 0.002016362932366661, 0.08695795583868096, -0.09906926080703729, 0.04681307943168183, -0.054475873395396564, -0.05217036012326611, -0.037395174841929536, -0.0010518112201437562, -0.01449398189421073, -0.10144368309350738, 0.009106846906494917, 0.0022818568746190756, -0.09132971278819947, -0.005401971881604363, 0.055389043459130045, -0.07319458779851039, 0.01250819843661714, -0.005058185781867054, 0.10061144992081246, 0.03421086853990154, 0.05049407325210016, -0.010289366969896463, 0.021117024342120958, 0.080818795284315, -0.05738977800175972, 0.12805906794358887, -0.0029635383761255083, 0.05943813398265426, -0.023787698479808817, 0.04470798131332644, -0.012307566767514768, 0.0727814826948675, 0.034058155567051746, -0.020129481850448407], [0.007832474063429084, 0.02293344848922152, -0.05366698477602016, 0.01613758709783462, -0.07818629736406449, -0.055157721120804776, 0.01219092600327744, -0.008380409133461875, 0.023662228076516467, 0.014964443415686538, 0.08427102640656288, 0.05075613522012792, 0.10152539926692854, -0.03499890550525266, -0.08333833747391131, -0.030504024101164005, -0.022304244350596265, 0.021206897729427958, -0.054084034919192135, 0.015539413228848964, 0.03255879321667666, -0.09088649933021843, -0.043753777704019316, 0.025403597378524854, -0.010608710278828419, 0.022277516768195303, 0.004485230537774348, 0.03245430724779291, 0.044141214378497336, 0.05391870450194413, -0.003524646235558541, -0.10333929214862113, -0.033116628770443246, -0.04469771921627351, -0.045744343026585615, -0.0410701058755469, 0.033419243593220196, -0.06871515531881266, -0.023347877142695247, 0.03126014435419334, 0.1005814501516821, 0.06423264761195033, 0.03666846411395869, 0.0818440646003142, 0.06520574057803863, -0.0003145784882138907, 0.051839063107783204, 0.011779614872373483, -0.003437248305068233, 0.034480517873497436], [0.08955926149831309, 0.03138126178224512, 0.05833953813569653, -0.04411396336343467, 0.07362973165985226, 0.033893090706961344, 0.01180760415598144, 0.02390229330277958, 0.04139225499461376, -0.01680565490114572, 0.09082121959298324, 0.0073305203676941886, 0.051370493054719635, -0.0742489227146845, -0.07957320494808447, -0.03066404375773025, 0.024075014003556938, 0.015342344280836294, -0.0031053462376196914, -0.010540459495329934, 0.006234686546943207, -0.02869990219243758, 0.028330746359385414, -0.04892450224771778, -0.0419076403605734, -0.08381695326449455, 0.01726195589410643, -0.00869853747885092, -0.023257503960538498, -0.02899467564359914, 0.015053983452814062, 0.04991555991995724, 0.0858112900884728, -0.07693346042245611, 0.012790015756551355, 0.039205645086995373, 0.047145061855807434, 0.07291879672312924, 0.005579110523740386, -0.04568284388301881, -0.04885949877990276, -0.06354834653505438, -0.06593927964365577, -0.1025167626641463, -0.08788200511039809, -0.019953268341796466, 0.010886552962622888, 0.024323168514267763, -0.009565683712300495, -0.01805369566498212], [0.025796944683732434, 0.023376574270256415, -0.07038196618373117, -0.025062576685250238, -0.03351124273556231, 0.001020008254242049, -0.003053315268479996, 0.030677624258205652, 0.036444431563552086, -0.01072872416060643, -0.029455367254581286, -0.06780265182087984, 0.05315327720480284, -0.026924283931830894, -0.07731728986182979, -0.025084762719450142, -0.002394246363281168, -0.018560611925108467, -0.010804785405671664, 0.05771793852566698, -0.010692020385205142, 0.0625658260298454, 0.06858566777929788, -0.08492660995994461, 0.029265031674452463, -0.09850661369471807, 0.08507986922498033, -0.037083305002951907, -0.06976755618638986, -0.018246943386985525, -0.038958340058128024, 0.04615056400878335, -0.0190701796093847, -0.05395796937661174, 0.014550536977406138, 0.0065690993486653675, 0.010026744207072773, -0.010520150336403303, -0.02414386290914541, 0.027200144041905985, -0.07853015895031655, 0.06063868323967163, -0.01840848654395201, -0.094045611348985, -0.08027724132748498, 0.09414204734566552, -0.0017760415805924434, 0.09405587984769062, 0.04042083659451915, 0.018111905210023396], [0.07509875763956655, 0.011280795476304457, 0.04718359055462294, -0.0749047928484438, -0.013330038439030788, 0.07267595330503002, 0.04185449007535234, 0.06581502552055359, 0.01567448651784867, 0.004730481878670649, 0.05432770415192432, 0.01735097206025668, 0.12006719322818903, -0.06152496906178673, -0.0907204523280618, -0.12106461679062856, 0.06158989014124521, -0.09385550351111593, -0.04697435617642765, -0.018276252397657212, 0.022723974634562653, -0.023163778480496246, 0.043842392775351145, -0.007317540010193993, -0.040976484926971396, -0.04379282180208624, 0.08070984269423905, -0.006219791455202552, -0.018732193815131953, -0.04093018506712491, -0.02228765082224201, 0.012164782593211687, -0.03710792519291539, 0.006631837840838095, -0.11172678317338203, -0.06599022834803292, -0.01213190496787374, -0.027049463104785867, -0.07444838001565725, 0.022831133749054242, -0.03818016775358618, 0.01164568773429034, 0.02367234922689293, -0.011661869653966456, -0.0427562341413624, 0.09427270248172626, 0.06678429965625453, 0.029172474562257945, 0.008506340469203, 0.019198547350788964], [0.04735808563901058, 0.12485893533965393, 0.029025699769043005, 0.07060321824213846, -0.020088604631651952, -0.0447814880739674, -0.0563748825810686, -0.012961906366875463, -0.0034611747847432153, -0.012469793276992984, 0.08286718318624098, 0.0053202375924944955, -0.10278811836932353, 0.016226343720851247, -0.005503830911112415, -0.017618163585944806, -0.03123062397923738, -0.007450654339321037, 0.08553531433306794, -0.012862067607320773, -0.02443457169735085, 0.010366686176076386, 0.019278503289553182, 0.0046238532240098, 0.06666018075989369, -0.01935353075335368, 0.01622688008206543, 0.025651434839551776, -0.011513920301053129, -0.07407381898094942, 0.09528120358513911, 0.008828311893408413, -0.02097799415124072, 0.03761449353781396, -0.03587634177606047, 0.02511958290796917, 0.03583552727150618, -0.006279780381106209, -0.05648836308654503, -0.056842111961528184, -0.10102244757390898, -0.012913339743017165, -0.04165224371642688, -0.007315082693582451, 0.053205208725453666, -0.038511841843518684, 0.027450554590762895, -0.06332063449685456, -0.01035095870430967, -0.04840535602841643], [0.018003470602401164, 0.041529572364621264, 0.002371924798973976, 0.023796312368125863, 0.002478022116748718, 0.017186710517042854, -0.03410832187544353, -0.002218070966164484, 0.02507264065471141, -0.02965139520180815, 0.028376750120262237, -0.0519875638850606, -0.05157642645726589, -0.013836416805438456, -0.005962655662683099, 0.010033472060403635, -0.03583798964494137, 0.02895050221136507, 0.0635609416577834, 0.042769544576897155, -0.007587764134709437, 0.00899517196968066, -0.004730672349511766, -0.04270652498918455, 0.07521173346570276, -0.044216319417163044, 0.09022608808278297, -0.0516963380046874, -0.04424466856622387, -0.09259067443265213, 0.10049921431392024, 0.034166279230920714, 0.031180699287362668, 0.012902368516280092, -0.008995560828544394, -0.07534167611019876, 0.01309978095398722, -0.05701133676324292, -0.07088881295814375, 0.01374378966856386, -0.09885323290485779, 0.0664168155275795, -0.0585015953352122, 0.0050630846394334, -0.010273246350286645, 0.06089224928110589, 0.02312611094255831, 0.03589642842826578, 0.1381531278561404, -0.02816380067017486], [0.08978546682077554, 0.0699528487669367, 0.025091944863860693, -0.010747457636746791, -0.06565137882056958, 0.10496571502995272, -0.05639836046438805, 0.030257096529094866, -0.04406541857681983, -0.056703040600559786, 0.02451597192533965, -0.011515008566328087, 0.017748042480474784, -0.036996565783096326, -0.043192446934306246, -0.1284175613993578, -0.017071063031585246, -0.04116884045672705, -0.011019108134985247, 0.03184117242719919, 0.04770344007552901, 0.0019171023630754317, -0.06060129038541311, -0.013495027512880724, 0.04917157687153342, -0.008948479695802283, 0.04187999346266297, 0.0018637592826381928, 0.0365498712033228, -0.03649444983572174, 0.03576029065592866, 0.00925385400110298, 0.0009634004608574039, 0.09012817788334283, -0.12588878920235622, -0.10885798005778426, -0.05169638488014204, -0.08861595255605212, -0.11899052153199878, 0.014088497555010382, -0.03667910032635509, 0.004978227359176016, 0.01768082259339495, 0.022660275566621098, 0.06108894669458192, 0.07239617703617729, 0.032467206550460315, 0.008429246636648182, 0.01837337006436579, 0.0036939266503687087], [-0.011019080731835726, -0.004749732946282416, 0.019800902733469756, -0.0016299354133912551, 0.00892332234498528, -0.050053934838601995, -0.06873085430706184, 0.11032328233010809, 0.07457350151452255, 0.031582150600157816, -0.02101145616743134, 0.0017955201555476719, -0.0034789426122233853, -0.038645498681714206, 0.06337301531932311, 0.07324130165628244, 0.06851728229539526, 0.031510848145472656, 0.07630093381628991, -0.03112394918138441, -0.028123817747951158, -0.03534838732062042, -0.06381504916793555, 0.00616821257326756, 0.03406563727814564, -0.007976668802173174, -0.04826644547822756, 0.07179596812135042, 0.008238417823087287, -0.010330308255489975, 0.010732689149072838, -0.02543992395601324, 0.028096375517658524, -0.07500902711327086, 0.052136310160974364, 0.05828857206659127, 0.013644477355714562, -0.03125535724920968, 0.07785916405927454, -0.025028576105624905, -0.061563272788509746, -0.09565482489611056, -0.007993804814017786, 0.027775186907708863, -0.08485896484772465, -0.06120616982820321, -0.004284779759633458, 0.018061920656293157, -0.038731438854957174, 0.05637597402369942], [0.011038633952398883, 0.014327954182133501, -0.0046922775016240825, -0.0582786597864287, -0.05631823259228444, -0.02445417210339593, 0.03859219807983869, 0.049335233703289086, 0.04214552695180033, 0.026048867079105958, -0.040048674417589886, -0.003248724313212016, 0.02264517916536289, -0.04676350185107036, 0.028883509109602044, -0.025474307529455585, -0.046540991417972445, 0.06620928016798158, -0.007921605925679068, 0.05022364180237054, -0.05746709994720335, -0.03970194820958417, -0.04161199955872939, -0.04375144287542625, -0.024034945379749168, -0.0030964169037501436, 0.003679764298105177, 0.017459635560353747, -0.007732789238644351, -0.07110638335669829, 0.05173410492808017, 0.05666024956447074, 0.03318327832801835, -0.12649446260107103, 0.0366351512001196, 0.04462659448658503, -0.0021897681394774013, -0.007432702565509394, 0.06001738607546594, 0.026506300903984047, -0.08624817176420731, -0.00542734749554067, 0.05413485065103955, 0.020214977485656812, -0.0892311549308889, 0.03559563175896473, -0.008200213417718627, 0.09634538764435034, 0.057271458039247145, 0.00723616352042997], [-0.03179160525208659, -0.016365470566357534, 0.04652312154627311, -0.0363554002908214, -0.055181731390710656, 0.058472085267253095, 0.012594271964226786, 0.041041699924027, -0.03843061365510251, 0.0469246848891199, 0.07597376078255694, -0.004418414864257662, 0.026373498835355176, 0.003861133047249681, 0.0060238715433864635, -0.08938258142078256, -0.02994696007766486, -0.04715540823701276, -0.041209708377315746, -0.05721323007941272, -0.00513364217597709, -0.02608000679936699, -0.006046640261965904, 0.04116443481391762, 0.03958448025208359, 0.08450598124095743, 0.03269986897384769, 0.06453982207008956, 0.06384523825283232, -0.01169379705740619, -0.016263241461587353, -0.019622751543086337, 0.0018922181331132897, -0.11956851861955527, -0.053818971018801814, 0.03527160176183161, -0.08015713936003727, -0.0384080033548556, -0.04931624471999069, -0.04017077544789581, 0.004031913138420013, -0.07955098158831984, 0.0173241364612628, 0.037975286108166514, 0.05971300809824766, -0.0005023749554011573, 0.04002353609819247, 0.06467102901979663, -0.025403577508819275, 0.08225238320219759], [0.0022723790525435135, -0.049379684276444416, 0.05955816476886704, -0.003784483657419862, 0.036496592396339664, -0.06928703835160276, -0.07376561716770269, -0.055305827001681254, 0.08229997526738703, 0.012144893418073992, 0.016358111902332724, -0.005807029685146702, -0.017768962286377945, 0.004119553705001038, 0.008015535159150681, 0.007652575787092181, 0.07112029494316734, -0.00936228574846982, 0.011385668661742034, 0.005913840339943765, 0.04855955590798055, 0.005619983683531126, -0.059282092655947374, -0.054007118174991674, -0.024920737397597054, 0.050808389900411324, -0.06544312967587666, 0.03921625640651162, -0.017744113573731693, 0.05738095126009755, -0.05294221343979274, -0.11184262976398002, 0.017296762442802933, 0.03547191341973012, 0.1127334928507482, 0.08194911008729863, -0.027038511607002803, 0.05255140861864724, -0.016907253150792372, 0.04205344133959458, 0.01778012612070754, -0.11471472548196861, -0.004570236968631134, -0.03943588030698647, -0.034121295789878485, -0.11115550314117019, -0.021989117674180686, 0.01887006428217522, -0.03965193310172513, 0.00967309284016694], [-0.006841159978732952, -0.05755184005509138, 0.007252951159776168, -0.04451563502749337, -0.03936746330028668, -0.06450452447297397, -0.0726418215754629, -0.03772750313124778, 0.02422628479982824, -0.043141510830613614, -0.014106135956280241, -0.016838849864870376, -0.06112070066801263, 0.08052366621208593, -0.011797169395316087, 0.032274176565854004, 0.01935347350492338, 0.009561077397205976, -0.05016075661772974, 0.056046266472490544, 0.06945641455064526, 0.03598357354523878, -0.018313075662736503, -0.01163734218588269, 0.06895505505681998, 0.006155422764090052, -0.0208569979289955, 0.012076380948281812, -0.011860930699306962, 0.06204336802270614, -0.010054262517678193, -0.07148058673954963, -0.03709756126060058, 0.03924319812392589, 0.1491595684633406, 0.020902740584759834, -0.017466254853086675, -0.00970312239508972, 0.007217153022560543, 0.03948735761417697, 0.01193287030049576, 0.05250345347014811, 0.013132985421172961, -0.035861647767222816, -0.06804910481846815, -0.05645767860126972, -0.0068622277767844825, 0.014148481874324284, 0.004624205199177147, -0.005055810544620136], [0.017493121356905995, -0.04483939030283927, 0.06994317318048342, 0.02157368987956809, -0.08258398796450776, -0.017652224510185666, -0.05263993602547264, -0.02630181126883564, 0.05549832517113264, 0.02513322235875984, 0.05744460763574976, -0.013754492763737818, 0.02568963865177576, 0.04559336148992683, -0.0078086527447156035, -0.014343536020991705, 0.05135305548673932, -0.11476253036965436, -0.019213929140886193, 0.04052065225287399, 0.03911354789189029, -0.021423797788555493, -0.046779808892857565, 0.01485739437782928, 0.09252169871601865, 0.03910591801445439, -0.020267337505571262, -0.008945830988333537, 0.005340902091957286, 0.07660704079187211, -0.02979969416854841, -0.08024018769399903, -0.10414761229512395, 0.008747326281974338, 0.035128507059609515, 0.008278281136291452, -0.11097230286862585, -0.05781728151691113, -0.10370706105557123, 0.06235734279683824, 0.05775229263961866, -0.02086425195305102, -0.08795809000153643, 0.042741620774600794, 0.07003706687589442, -0.06864674726685634, 0.0389481697042745, 0.05970795041140577, 0.0725519913632817, 0.08737341039286489], [-0.02138560660945203, -0.08433683043705185, -0.08128082982282972, -0.0177394971008172, 0.029662600649052174, -0.04282853813460797, -0.02089907904976673, -0.03834221428402198, 0.02431150810313887, -0.017427925320500304, -0.03073816279448764, 0.03816205063810139, -0.1089391615865129, 0.058750852476752956, -0.018735534652171894, 0.0628285948867172, -0.02077255885095514, 0.03404592553580292, 0.13165696032577107, 0.0027335669800206013, -0.04678044277288811, 0.019688419772973052, -0.010827404654191655, -0.0054373083797563835, -0.1172521510383631, -0.02380161251261313, 0.004918766538913413, -0.07425321078493907, 0.013127453406699522, 0.062458819801198544, 0.023734049329833706, 0.04793486620321384, 0.08841749341079823, 0.05699554119067557, 0.0436696217020734, 0.052573541962108034, 0.01851344923471089, -0.003631170824010279, -0.0064465231213882875, -0.0273372039631499, 0.0038515786674552686, -0.08232928985854367, 0.03003647802188813, -0.039896724241700224, 0.07458479726205673, -0.04292740228722278, 0.002539316661054564, -0.005613757407921456, -0.07248401091035973, -0.09791422732403032], [-0.011362386323768068, -0.02955374794936662, -0.09398804403198059, 0.029414119701021244, -0.0396759087658812, -0.03885300590137774, 0.07951078033607951, -0.07662379497796314, -0.00934132059845951, 0.01836616368932495, -0.040771028909870374, -0.02487923630375187, -0.11036798936777678, 0.032591421551825525, -0.06520244121486236, 0.0752840634292727, -0.057309417625495365, 0.07564218116589581, -0.01288369126781272, 0.06794744197210002, 0.03469456250736339, -0.03724151315328749, 0.015128489356745043, -0.027626622082394487, -0.00402202433356355, -0.057705333618379866, -0.04500787397657528, -0.028605044633601348, -0.016714480836160374, 0.032158895701441925, 0.033339239624702616, 0.03786825303649191, 0.07420509304674475, 0.07730431941301233, 0.06056711296894677, 0.007281695452209903, -0.06822526409453063, 0.012461958451998, 0.027694833992671104, 0.047615775813474176, -0.04729031156969005, -0.012649186185362775, 0.09430306209705314, -0.02494682705714557, 0.03728840276540717, -0.004592260653046939, -0.055848851112224936, 0.04616545457344578, -0.007612276702977767, -0.02873392845497923], [0.033038414679574836, -0.05255021247453635, -0.04904293906480746, 0.03651474783767967, -0.04527541816914998, 0.03230395985299827, -0.06254207269737522, -0.05382925969780574, -0.03242746670597845, 0.041213458573463105, 0.002502156232159008, 0.038533111622700254, -0.08294716062183483, -0.020625772549516953, -0.0406437734870732, 0.011439453251346963, -0.004166925763550996, 0.01664236319603806, 0.021023189042978143, 0.023058842538980474, 0.027285644663723345, -0.005604492466068672, -0.024711865945843816, 0.00560902236639568, 0.00317712668663333, 0.02262656570430648, -0.035347993585624425, -0.01788459488328567, 0.061894069233602834, 0.07244468784841183, -0.011103576639111493, 0.03368688262587376, -0.005206943208035189, 0.08475395868972775, 0.030048622402033216, -0.07766960727660695, -0.07260934509605045, -0.11437759857881358, -0.1150559690964402, -0.03992919041020323, 0.05065161670644449, -0.06828143284762875, 0.05159221329744135, 0.008785611129669338, 0.11850346367511351, 0.047423298281298744, 0.07165221062042569, 0.07139351103997262, -0.0236363937823812, -0.014437737955701802], [0.05030179743194848, 0.023025633891837732, 0.029201081226060233, -0.00045191459204963294, 0.024973706433659235, -0.0919967040199821, 0.043804096648587934, -0.02318407652273323, 0.04065734090576593, -0.035333436871367745, 0.0022298067348228124, 0.06897933303827367, -0.09086987890726847, 0.0334591788228133, 0.031791155240275655, 0.011781320975202698, -0.019393648032234163, 0.021886426894677773, 0.06608401162547713, -0.012482307066057415, -0.0016387886387073376, 0.010191480933725426, 0.017626221174763815, -0.0008011417187836124, -0.09854600276386163, -0.10176283079664426, -0.0018140246146637797, 0.015866373278163006, -0.013443846922424146, 0.006059757858155301, -0.08504838285536902, -0.07486990335646612, 0.08959810773858683, 0.00010434282365594238, 0.08323405155060233, 0.042460814613134286, 0.03543536618451619, 0.02773676633894364, 0.015669356235078178, -0.002066443864705748, -0.009550620167639672, 0.028644995157802323, -0.009398237457488905, -0.005689919148724343, 0.024792082291280538, 0.028370730700873564, 0.04514239941408593, -0.026894546171418888, -0.03700033697413366, -0.07676274646588703], [0.012122314119038148, -0.0032211259225911355, -0.050953404360595485, 0.002202069368474325, -0.09576920649484605, -0.10108305107457621, 0.08829248012823793, -0.08005924253349875, 0.0007732145199915012, -0.035896272757969014, -0.026654815899469796, -0.024266651989178017, -0.09555656215303988, 0.07248763790494142, -0.03766308126309423, 0.01758054364717807, -0.002126533680210483, 0.03966076930217679, -0.020586343639330658, 0.08356445640488944, 0.014264072388871035, -0.010897671909307018, 0.068791042505967, -0.02759167306632751, -0.05917246094633917, -0.1068236933739036, -0.03418337959106194, -0.01950016333869002, -0.06692068654735679, 0.03383492281539861, -0.021493710850326246, -0.02383635927127999, 0.06580916459356774, -0.0072728499650259355, 0.05417942475997955, 0.0139422305626664, 0.06379393992472696, 0.015247078052113113, -0.04792910313963309, 0.06295945315861054, -0.057739822607570206, 0.042507993966937774, 0.007637982490387738, -0.02475027459407167, -0.02741459658171632, -0.0023190987322380483, -0.04969063950586371, 0.03924717615540751, -0.0001895215538897315, -0.005893444117500215], [0.025265872202500803, 0.032774989787064265, -0.0010512328246626611, 0.048948088508161534, -0.08929510313792041, 0.013275916030411936, -0.013106404452330151, -0.019084034449436606, -0.006579420991002263, 0.009755769110592012, 0.00340527428420082, 0.02050016942793521, -0.04673175366371872, 0.0420514651395405, -0.006209943711847084, -0.040454761379612014, 0.047852389469603594, -0.02767058941973052, -0.07769663945879146, 0.028504348751164803, -0.013524935135407964, -0.014547811510443548, 0.01812816671997063, 0.029906370076643138, -0.05113975448060371, 0.0568585083617766, -0.0003307848322808104, 0.04851049688986052, -0.022697060517156094, 0.024065829656906432, -0.05507091429415601, -0.05932482697376558, -0.059486093939860145, -0.029370687109265076, 0.007085748386254635, -0.029786947517825166, 0.027459173503750003, -0.027116824343900513, -0.08820066571141133, -0.00048539009112971883, -0.010853969356961032, -0.027837971423243773, -0.013802915911745687, 0.012729841453948069, 0.06097755507975532, 0.06194781983012646, 0.03970069519906478, 0.0851843555995174, -0.01149007464888715, -0.013846927587719429], [0.060426953348264534, 0.07284515753979376, 0.06326497789277256, 0.022169341883532843, 0.03944734828234815, -0.08296702771553353, -0.02960392444799274, -0.06491395681319122, 0.0626740255257403, 0.02595452196982398, 0.040339942939425256, 0.007584977189940001, 0.03194934813859232, 0.02126597425796071, -0.005288273971934247, -0.05697435420935765, 0.011989173165889126, 0.01768855655635115, 0.053089981105067234, -0.03924451925315308, -0.080600171272024, 0.0619144331793734, -0.04979678011246104, -0.02255157281780101, -0.04577134635164788, -0.042207055522162716, -0.053567621844766204, 0.034849991203708436, -0.010279595210355152, 0.040301931584027985, -0.05761089847890358, 0.03235758702614887, 0.04823384534071539, 0.0319587920276232, -0.015065229721849175, 0.07526643832319391, 0.04836364461413582, 0.0014391012010500834, 0.019187943115588427, 0.07482475846435234, -0.07683354139496623, 0.030590064522403437, -0.08419790230304962, -0.029983733609167586, -0.09745266548500248, -0.010916512570994857, -0.059828222379358684, 0.041375073070318395, -0.032250908667290926, -0.06009311084206075], [0.014944494972851175, 0.06972351922417819, -0.0016645524845641238, 0.05048207148725437, -0.03438931664469205, -0.08799435545996359, 0.016869374131245726, -0.05248238722740993, 0.00697440536206553, -0.02452428596986877, 0.054577558033521115, -0.04731156223402552, 0.004071992830399459, 0.022122515339736516, -0.0652782973791293, -0.01324228974229816, 0.004145605028842658, 0.007827840744975334, -0.0014715551605210776, -0.02900000244962547, -0.03895020341948822, 0.08705957517900254, -0.04340837029250218, -0.06362060386824148, -0.05381070751009956, -0.01368453868474251, -0.0288012653275548, 0.001638050591258788, -0.020882130255846804, -0.009061032674602254, -0.08137705927309002, -0.018486561839691502, 0.1339618682344453, 0.02079428031177395, 0.0375905552956435, -0.03724652976209424, 0.08559628768579984, 0.06448479412168126, 0.05151485875429315, 0.06993784464088328, -0.09672634071389866, 0.013404152423388898, -0.06366031806797535, -0.06187314717276919, -0.14031995866495278, -0.04581576378587848, 0.01775741110795613, 0.08253742104121899, 0.05358235015282061, -0.010114351199290916], [0.06494434632378962, 0.07589426339891837, 0.06589294724915051, -0.004826652696385199, -0.03912027200987225, 0.03876699801597795, -0.05564244336764386, -0.0499634183848093, -0.021469190711953932, 0.014809390452095878, 0.0853676950534626, -0.03161567418006352, 0.05336908443511025, 0.041350931571513413, 0.014762934574484679, -0.07634898336189154, -0.012576507913969274, -0.06064794744615652, 0.03589190872942208, 0.051033153309131093, 0.004190794991324567, 0.08928855791113537, -0.05366412962018689, 0.02582741870780901, -0.03757241092747205, 0.02636516303545047, -0.05843404124213357, 0.007809861916284637, 0.03604990512674473, 0.03596900956400208, -0.13039416497810902, -0.023106625543718836, -0.039499297793476905, 0.03955308609747141, -0.10778478495639911, -0.06711998124105217, 0.008925578500722956, -0.056914031004071323, 0.038599285913849916, 0.023057170323815802, -0.034546678946047626, -0.04316353208437236, -0.04813957346338269, -0.025043735328396058, -0.03703262220606038, -0.054221312072283145, 0.02897036266513529, 0.08789698565926685, -0.003081418625265472, 0.010047944930757276], [0.013053298998437537, 0.04068727277202794, 0.0819181847337774, -0.004132649499650505, 0.08661071560913809, -0.02868911783869021, -0.012363007819719812, -0.0699024845051425, 0.019856804946491877, 0.05147968930923396, -0.02437153701263035, 0.06771857886948542, -0.08829199036701607, 0.06759190352424374, -0.030969679106572764, -0.0007589684781412059, -0.025930270495856406, 0.06231927489369998, 0.018416546417354598, -0.013460889520245505, -0.02319694714695252, -0.014233362613878184, 0.06345208838644006, 0.0067160579550213165, -0.05604447798911304, -0.029888724262204222, 0.025254359856754758, -0.00043760652249437426, 0.03550834010106876, -0.002058073614309899, -0.03859811157872436, 0.04316236250343373, 0.0670375309424249, -0.06756172552720811, 0.037908238600058326, 0.030824330634323695, 0.043247406162380715, 0.09067647234961015, -0.02339995019321036, 0.050022878368183206, -0.023718602725754337, -0.0555692659611393, 0.029264153691126997, -0.006724545162350163, -0.09663448355593778, -0.01897143589781572, -0.06498399258030126, -0.042932344106026595, -0.017262562324458514, -0.06252272983643498], [-0.038256751004232904, 0.05320096081495528, -0.019724767237091365, -0.07241962848867518, -0.011826677562803513, 0.02346463281025295, 0.056233873340578736, -0.03866605424048745, -0.022953263419379352, -0.012932310895367904, -0.04453527827249247, -0.025640851528384415, 0.017606640224595443, 0.002300390609996887, -0.08776049733170577, 0.044803609904780724, -0.059146538734560924, 0.040838058156099734, -0.06015536965537341, 0.007856516108423401, 0.06216087506311086, -0.01852499434803049, 0.07150648563049902, -0.08257883855614298, -0.024664539370668412, 0.010563822524069795, 0.03908180605673717, -0.016933653821379884, 0.018183466492184844, 0.03723985652008873, 0.05934442155152328, 0.02684420450145746, 0.033094164905357486, 0.008275433304258598, 0.01798739078604329, -0.021044149190115057, 0.023335538146716586, 0.028856201896612955, -0.022308786650786, -0.03982424942205957, -0.0268492960710585, 0.00385288050710789, 0.0243182828889887, -0.045748206545782474, -0.09340540783371405, 0.03558654023309691, -0.060345412436907254, 0.03325069087017556, 0.020049605235779446, 0.01976998487302843], [0.019854761904145975, 0.06857480118013694, 0.034851712707203664, 0.0743241495328554, -0.0025573838057918554, 0.08225830471765579, -0.002384743050888226, -0.055854757505741245, 0.007383945506111682, 0.07524360888405694, -0.08164453328543911, 0.009729691771033605, 0.01377685754501606, 0.006315489063818799, -0.04261844634915594, -0.0281882931866406, -0.03041541275347512, -0.020563163012587034, -0.05455902831461826, -0.03981224288239395, 0.029914535620474053, -0.031379317419167836, 0.06215461926968019, 0.01333125165127334, 0.019150833906273566, 0.06929989731385146, -0.03392124507496597, 0.07120534048917941, 0.12143061709082201, 0.04937012832714693, -0.04407333692732948, 0.025912081226292735, 0.0033863669874716266, 0.029005557685631473, -0.11989883315131762, -0.03571203115652609, -0.07674196967114538, -0.02545711705585594, -0.12067168450880965, -0.03263152190329374, -0.015336296964960361, -0.004985116568586277, -0.008537704857256963, 0.025920237313790603, 0.02264257527025301, -0.0352446537204583, -0.030907805128273142, 0.07096267348214814, 0.03997173793407856, -0.00175061719359255], [0.06943205760277145, 0.01990145979477806, -0.016431734382028114, 0.03168195030819579, 0.12427642546787027, 0.0007381663830094623, 0.0650629456600951, -0.023844550537163414, 0.06354646816063603, 0.04356883873917489, -0.06292709998332444, -0.010404290897090851, -0.06327889621172957, -0.05748884338522259, 0.023389307735009572, -0.05595904316859766, -0.07203569405148512, -0.055297736261737875, 0.028956438655109336, -0.005564335190011994, 0.007787379190925292, 0.014932750898998672, 0.013925609759764292, 0.10242635015109679, -0.033530421833309426, 0.03573762261739495, 0.0038365061674619457, -0.08878355900388502, -0.007305928385024882, 0.01108488165076741, 0.049284630511695765, 0.008702995946834947, -0.06880102037696251, -0.07921254469285385, 0.12230737253235589, 0.08865252794683397, 0.09618609841457929, 0.05269447364642982, -0.007287432462398227, 0.018515679659000934, -0.008192807764700247, -0.10971848168264, -0.0564802470821758, -0.1383519461345364, 0.033042204386148334, -0.041631487176058114, -0.07839584795390853, -0.022210499951480858, -0.0314280256712084, 0.00015871196678760103], [0.11622670700439963, 0.043526207717782046, -0.009327870465846867, 0.026681439209381774, 0.04580549275154138, 0.05651488003868665, 0.09394220118352636, -0.04004117843431707, -0.04024588169202625, 0.015041856659935734, -0.014672371234186403, -0.08483819092463535, 0.03830419349641515, -0.07104185008443051, -0.0430053059539035, 0.016765812064840634, -0.05276286077250768, 0.0289119048829135, -0.08243816109058667, 0.010885412763970214, -0.030082098914430398, 0.04562143218971408, 0.012615163537143374, 0.026854320373545168, -0.030396930901412274, 0.008197403605338932, 0.0010152337468972948, -0.026886115369007986, -0.018922236348589305, 0.017562897631321617, 0.03959276798002313, 0.032905793492950496, -0.03466156841722249, -0.020747783155973292, 0.08412276250454714, 0.010806449151891119, 0.0332312974864848, 0.022847612619117698, -0.048105754443201816, -0.0576509432767292, -0.03817485910506406, 0.001706786601106464, -0.04642730662650155, -0.10796754392984549, -0.0755793980263746, 0.042153341852559326, -0.0788177350384409, 0.038983989213793986, -0.0034821102038253863, 0.011204941989042342], [-0.000406502247757517, 0.061811447493723366, -0.00028775412085113724, 0.04490679582940928, 0.007761113807956203, 0.10242451858605577, 0.04300110091638928, -0.044744418023704706, 0.03853949002395768, 0.02939188884131958, 0.014107540781278544, -0.0640549980343851, 0.046533324124573124, -0.0931561736868696, 0.04170411970888979, -0.0072615787395091495, 0.0003677113182750445, -0.07221219028398444, -0.03065344430377207, 0.008017992512870293, -0.011739248300980854, 0.026139083809902174, 0.006257043259955423, 0.06594968575865667, 0.05051432357483934, 0.11557576871515116, 0.04340224800749265, -0.0011475260723558685, 0.012417098864896064, 0.0958738598201693, -0.0013937207017990225, -0.032562578915205094, -0.13034472330190408, 0.01600358737565814, 0.005167556932842153, -0.02556027459535658, -0.023341158415313628, -0.06283114456518332, -0.11265024665510186, -0.03750316973429421, -0.0077404477694766076, -0.05860071101562666, -0.0698593422591307, -0.09111272541077275, 0.04947135780717163, -0.03570366533630799, -0.026211148778309948, 0.14967288261336356, -0.0008660905375949852, 0.09533343235178453], [0.022477395738473648, 0.02986821862640921, 0.0062430306177575536, -0.002297782860435807, 0.008490844458928296, 0.047618221660176055, -0.055130950667822566, 0.01912796142454771, 0.022904501367651244, 0.055740593166223554, -0.04153802785538488, 0.02898938893364404, -0.1315554210462935, 0.07264259484946478, 0.017515835584223892, 0.02608585145213068, 0.013932130863287416, 0.11926309088805567, -0.005267521781553931, 0.05272009977126278, -0.029117802435603902, 0.04542111010855591, -0.006812870889777377, 0.06229594673053807, 0.0423750075843196, -0.07324359114163347, -0.028165630731680158, -0.04171724574058144, -0.017757886069522732, -0.0913621809235032, 0.04021153183302004, -0.005782384438284213, 0.033276629943456794, -0.007128957258211727, 0.02797318746266013, -0.033786436970902056, 0.048324742381327286, 0.047638935641836896, 0.007158216099902106, 0.01419554550432483, -0.04260259363555775, -0.017510248746409145, -0.04030344411568468, -0.04576763956703963, -0.040770303136663584, -0.046948605507760845, -0.06627703922003757, -8.373847887957378e-05, -0.05558907510860373, -0.009519801814811449], [-0.010013977527619927, 0.05986721352931977, -0.06445556865888105, 0.08395130253568808, -0.0385586648044108, 0.05111853676944689, 0.07065954207061648, -0.01789579759369984, -0.03258983131058473, 0.016670555217635673, 0.02810718122464145, -0.027928667737527755, -0.07167126620625902, 0.09418038975346862, -0.03849140446296628, 0.09910232352595033, 0.025342669516017997, 0.0590516367680251, -0.04653844822504082, 0.0037309873677393466, 0.024011679679166422, 0.005050517263928388, -0.011154246080263483, 0.05746163712308141, 0.0027470409629706564, -0.029687536374266625, -0.027824665828773167, -0.011102283030969884, -0.03485933954696898, -0.032186900601541196, 0.049332538091583805, 0.05384598920183024, -0.04590826616570823, 0.012783958570756693, 0.11828465146862986, -0.08346485723727162, -0.005540449025847834, -0.01686279694127891, 0.09257103737447213, -0.012429649956210721, -0.016533334576015312, -0.010103347126173858, -0.07874069161654865, -0.025461576055622936, -0.03621838022626819, -0.02214509225771927, 0.006556067653926338, 0.0968268575037044, 0.00439978222061347, -0.006041162481602413], [-0.05498340940909462, 0.05174293424102031, 0.006171032804866212, 0.022225628098356032, -0.05235071347220454, 0.0990705807459976, -0.010614875726997798, -0.011341507923863035, -0.07322361390254967, 0.04738579904470498, 0.09223827092883093, 0.07086205636681063, 0.006672161039104965, 0.07863634903446172, -0.03921711987523014, 0.009497055405716005, 0.0037251827387305273, -0.0633934386506084, -0.06333560316628778, 0.017640602834152957, -0.0007156388489919837, -0.07525601702933228, -0.05445826249618785, 0.08661788402308189, 0.11349644190883687, 0.0252056433369723, -0.03417048599263489, 0.07933462009142257, -0.019062224676954478, -0.0016880104769611455, -0.00828043529214542, 0.03438961834998252, -0.06382764534950067, -0.01229878810433034, -0.037526479662086554, -0.07172700416540503, -0.060151156977832826, -0.07198543844681568, -0.06638488780105689, -0.03422218065386823, 0.023226385297661974, -0.08360461521980078, -0.09803632139052171, 0.01326041617515213, 0.049185112994418176, 0.022597357015183835, 0.05716735946163249, 0.03543795639215991, -0.013044524779072688, 0.10781469976813854], [0.0013652056881969165, 0.023967813031239498, 0.03398156839537728, 0.06374366395827627, -0.0035796219588256815, -0.05497086190445506, 0.027568331200315915, 0.003073270061826481, 0.0673293727293893, 0.009656910794243186, 0.10048856373629751, 0.11269124932116807, 0.010660507707314826, -0.1051098874499023, 0.03521697312708191, 0.03667128795600745, 0.0014624254284176742, 0.018793053511721995, 0.06062524133369866, 0.07161757135429452, -0.05639958060258952, -0.010748564800132625, -0.016563260223813995, 0.04126930677020127, -0.030296705327765044, -0.035616503431861124, 0.07673349984075858, -0.011372193316842145, 0.008816868819294173, 0.0277614088541091, -0.03347663649508278, -0.06428352107021044, -0.033381636941342364, -0.04181304083635277, 0.11591280340307245, 0.06517722543843993, 0.06834684012348394, 0.09790835541709325, 0.014713003295073648, -0.09637115199038841, -0.04037266350080691, -0.07710012411463066, -0.03182794549765804, -0.011051570485190352, -0.0520593128468093, -0.0903420265871781, -0.08978737520916374, -0.07828831121778494, -0.05781195669511258, 0.04806164489545022], [0.0030268648838802487, -0.022180354197254372, 0.01802654499503694, 0.07247875939797495, -0.07827163901330998, -0.01587928957490732, 0.12003389519740083, -0.002627451623525021, 0.07081797617486833, -0.026717210489475195, 0.10225930132180687, 0.05847980995394746, 0.013160685567437177, -0.11211910474621177, 0.01333273455496392, -0.011159701341190183, -0.030393388549474418, 0.01509991230614428, 0.02425779354330894, 0.08954489511045707, -0.029945752117771993, -0.11195855942427273, 0.015498068209409457, -0.016604674143356174, -0.043916408756756085, -0.0015984645834083361, 0.044552522051869665, -0.1145077468382986, -0.11001562492192694, -0.04088366606601876, 0.046250356097423735, 0.040076540536893114, -0.012821366818300636, -0.0035160709018151126, 0.08200362429476758, 0.010970578084298122, -0.010414265227815401, 0.00580015594219664, 0.012361188076352779, -0.0867085528234743, -0.01782169445468896, 0.033189434860481086, -0.012309027903271088, -0.030731686118602157, -0.005103886656406772, -0.03084967592640483, -0.0558548951616525, -0.040373044949701446, -0.010055397268225243, 0.05372835782398686], [-0.045454683644297986, 0.055052197280623556, 0.014863886776937141, 0.04041840210870078, -0.11079613110786565, 0.053688364695623006, 0.03087985587824467, 0.03465494909574469, -0.05609179680787501, 0.0624771218670275, 0.14702028112106555, 0.0795195337771552, 0.015270353668094396, -0.06651748246126953, 0.13010870985583012, -0.04488335740463002, 0.0038990500390903354, -0.02873057164457645, 0.07804824087810666, 0.06806551532422835, -0.029255336564320233, -0.15048752525790093, 0.01034389109181796, 0.014577814053015723, -0.032585081998734826, 0.07289791898102621, 0.03732822904939347, 0.005482670039724529, 0.024104441295196413, 0.07289585590755014, -0.026594425333835537, -0.059592277694854943, 0.012162255250352472, -0.0258509370757489, -0.03683780135690283, -0.07152239294884756, -0.07389858123371798, 0.00814250625195246, -0.029723197630852325, -0.13871471104830016, -0.0045025154740501476, -0.06655989775816848, -0.0604768267430891, -0.05022222630779674, 0.026727766887329463, -0.00528970336692566, -0.01749436758145384, -0.023352163150861457, 0.049771909352915956, 0.10928673825306374], [0.0983727177710612, -0.06752922962304492, -0.06187300662831128, 0.057306103949492725, 0.033953434834517536, -0.0317892715142788, -0.0346631135632282, 0.03408035688814418, 0.09146838996268335, 0.042403501313212175, -0.01859210026772667, 0.019475941087815085, -0.006376773212623031, -0.0027329469879311865, 0.02741141535668783, -0.07414709725869585, -0.01365977965094481, 0.025280098858941797, 0.022171941539345392, -0.05146469778359081, 0.018136496361220136, -0.007112714583959197, -0.016026151407555353, 0.049340494249923775, 0.01677713142753312, 0.01554592666936297, 0.10045365373296904, -0.01780072959339245, 0.040980916634578805, -0.024627438207896136, -0.019149828759418133, 0.01301799769114116, -0.09441134006802242, 0.04419340362220131, -0.018211485567845253, 0.01857150077245437, 0.0008197211821790591, 0.07733267336828235, -0.00588439171870763, -0.018058276707596375, -0.001707432767441256, -0.07444304791733532, 0.052137411510895404, 0.009736444545134046, -0.001196450379653511, -0.03454599696988072, 0.01587788749418541, -0.11140562254824073, -0.14796870194438205, -0.04672345073672876], [0.08887169169097457, -0.12298242518607166, -0.09578803193346894, -0.012022447640924736, -0.10713445101290354, -0.01936161933059717, 0.024387002733603877, 0.03733096263557601, 0.05553336228637618, 0.051130133407826135, 0.11193840432976707, -0.10042656254495251, 0.008046758473712352, 0.011755315425934046, 0.016565536555241508, -0.04616454611245667, -0.04989079679009244, 0.0425373446795657, -0.03493298548990619, -0.10410973625223031, 0.03536902132077999, -0.013075875607274514, 0.05927253749873857, 0.03246802269232339, -0.016248798010877342, -0.026332381480956138, 0.09258706165315887, -0.11762403250857356, 0.06814528791558042, -0.021241927935636205, -0.054773107970274515, -0.032465820436323324, -0.07297691228460129, 0.0019197511635045727, -0.015452457881686024, 0.08012243490639642, -0.010417243728971907, 0.04513002172156287, 0.06140042712599011, -0.038157996322218175, 0.02489492197268761, 0.06745817069447667, 0.03865411752137027, 0.02370075123329154, -0.05160435171454432, 0.025298625797012836, 0.04138123907794168, 0.045822458321012526, -0.04115297235318512, -0.07272288638196578], [0.004061062228117891, 0.00234101755545059, 0.0012082832786907355, -0.07590731054931357, -0.07947142111951772, -0.008776710051609385, 0.024646690949326037, 0.07983246883474678, -0.0010477531078718332, 0.13370224132581526, 0.0822017328571453, -0.005025866272229933, 0.0704797973189859, -0.029214240398847645, 0.030379014449611313, -0.045237427767406684, 0.02915072324128477, -0.04616518424149682, 0.050016670138484286, -0.10845406505562954, 0.042807445424821344, 0.004967449798612408, -0.039379448831379164, 0.061770437064889626, -0.05883042071051501, 0.03944427726555302, -0.008962144068529337, -0.03561360849951359, 0.12338959876493738, 0.010281499961046419, -0.06792191555980824, -0.020886020556019753, -0.07532247323522566, 0.028582986630278494, -0.12279351385965895, 0.009997011846585304, -0.0941060662432773, -0.021781678973280878, -0.036650096707674926, -0.05677258875475251, 0.08314379585892, -0.024159737925152865, 0.01841623981525792, 0.08784828048566615, 0.024563255978893493, 0.036319125284232874, 0.07559805905305646, -0.026397893534471584, -0.03381116143398994, 0.02373116721311788], [-0.02010102080285071, -0.07237490184565645, 0.07818290799019867, 0.016105768236940522, 0.05327149582119966, 0.014440551341241316, -0.05044737300888379, 0.11288572178369599, -0.005925739341279516, 0.06641218409850266, 0.008245579157817547, 0.031214673810249526, -0.041427781130125345, -0.05869497016072702, 0.05456042092432689, -0.02345885702084291, 0.022857281710819955, -0.011246652880799901, -0.07392155050785425, -0.010769065531416877, 0.00761643115965706, 0.015669815836687567, -0.07448602773460947, -0.007267794893836142, 0.019577581188273963, -0.029697953698213417, -0.0031989789336583636, 0.0024333765809767256, -0.032397288766694225, -0.004607610651828235, -0.04065248694635939, -0.050241806188971366, -0.08198860640114398, 0.0005414588348317298, 0.03999952245334943, 0.09245833916170607, 0.08776135203341087, 0.05813903827750594, -0.005779004372031686, -0.045079410274289175, 0.02202120060111496, 0.03461447601070203, 0.05184597188505218, -0.006343910361001086, -0.05692872858238304, -0.05447223446025138, -0.012771151693644789, -0.06719311194428505, -0.05350834701817663, -0.060683341716937206], [-0.00045003491474181613, -0.09016208352662797, -0.0016052182881692106, -0.010425022468425506, -0.07552025949740204, -0.028291011582664543, 0.013956987275722935, 0.04782364780940141, -0.05541656272035634, 0.006102721400109811, 0.041660294357466564, -0.023367822830166647, 0.030276986029384192, 0.006745347395436591, -0.06114088682939679, 0.057097852144836744, 0.055598372122618214, -0.018358051827466512, -0.06147417920211421, 0.046381044984908665, 0.029682021670570824, -0.01493358655783542, 0.0697451363033017, 0.02879276997759935, 0.03258108983568654, -0.03848436782613895, -0.0038636636506323443, -0.05556376125479798, -0.016041077160276685, -0.041134610707609855, 0.01624225735540939, 0.038397449045598324, -0.10380538307126404, -0.05877325985110016, 0.10374466736970754, 0.09515285667450957, 0.04917835974948345, -0.04273678338872941, -0.014319379694959998, -0.01792117499304648, -0.10155574611231416, 0.1288823976923178, 0.07807215637729686, -0.047403200027909306, -0.03580003225018378, 0.06385846445671112, 0.08089731018129064, -0.011106755658265844, 0.05207478473337295, -0.09914673812770375], [-0.027868172500103806, 0.0013607318200984833, 0.017665826272965163, 0.0061249303041618665, -0.09764138914094776, 0.027962627830569787, 0.0472373867049683, 0.08601238677660225, -0.025246986667608527, -0.003205251262095344, 0.041974375172958635, 0.00119187533413173, 0.023935428700862637, -0.0903274894040999, -0.020312125822271026, 0.0537765150432744, 0.060004599651344664, -0.05021552639701879, -0.052905411742216496, 0.01930587733939932, -0.045191110489803066, -0.040116250033640916, 0.01425868933053945, 0.0037944171537247755, 0.0643580373820207, 0.11826630929821796, -0.03958992631543898, 0.01528535944425869, 0.03628142652649616, -0.03546527725742091, -0.0351100071528891, -0.0002964244491404813, -0.012852398812443202, -0.004264268994425235, -0.0781141590357952, 0.031778386202973616, -0.02324654082958644, -0.03803390643708698, -0.08787574390483588, -0.005482967003096038, 0.02607336880688194, 0.07234941329160977, 0.061857626950286494, -0.01091714245028932, -0.02163836008226971, 0.024179330279757653, 0.10480028625147372, -0.003123266140551331, 0.03732035650619236, 0.011151056095820183], [-0.03233914252091828, -0.10185221285248487, 0.06713614922265795, 0.08082502345115851, 0.024143832897445414, -0.03744846350361035, -0.11045726364074575, 0.07974632486832255, 0.031747408305252765, -0.002660432493936187, -0.012698709537650607, 0.018777936968352497, 0.06741533785620715, -5.696697867888981e-05, 0.03323529840530308, 0.01089217991501403, -0.03792407113685501, -0.0452385618606436, 0.02450648111374008, 0.016740073103375046, -0.06895372134945128, 0.07291679870320095, -0.05576809275178023, 0.06633843913533087, -0.00805826507353512, 0.054440068857565, -0.014929449630802954, 0.054239274742992595, -0.044776673537240345, -0.047923662628578154, -0.023369188950736117, -0.06344416350526184, -0.09561344883140836, -0.05612871320418605, -0.12061179752635146, 0.054877800497070785, 0.0042308019433231064, 0.04533457559293812, 0.048637002673520814, 7.278235719898848e-06, -0.007804677988868245, -0.05264066085836653, -0.08198973245568736, 0.03331293674062117, 0.029155837219612204, 0.006586555000255257, -0.01341910653729461, -0.05311361896306747, -0.011300094179734018, -0.07231135516603455], [-0.060603830475110886, -0.11994771947679922, -0.05737132343965982, 0.04436837305190075, -0.09375205362283194, -0.07101782159972325, -0.0429875875216124, 0.13808938631253165, -0.007918851526304312, -0.0747125690305722, 0.00649925750985548, 0.04769105649843735, 0.0051377934649913465, 0.05456388804727751, -0.010370265829812618, 0.011536174556830857, -0.04577940314954958, -0.06691873407810256, 0.0628859518348386, -0.005297438361310894, -0.09696326522893918, 0.04542977627114304, 0.08061538512397394, 0.022899455910317418, 0.0832650910686981, 0.017641501024754338, -0.011730361524718631, -0.0026264561927768553, -0.056914897034372934, -0.012834390130331393, 0.05807078126517192, 0.01800649856247489, -0.025771429834306022, 0.03066919978325592, 0.0005887153626344988, 0.002833756918101728, -0.03353105403437315, -0.009639511651515702, -0.03939413065985543, 0.07341509234544401, -0.03286930644497283, 0.07870511363135771, -0.07528145340968079, 0.007340152750019459, -0.023223449072973537, 0.02190933744808226, -0.0034934373455238147, -0.015301605018619808, -0.038068721687180986, 0.01880068641207864], [-0.04091254301624184, -0.023965794650967376, -0.01950922818323014, 0.00762907325563402, -0.08581966042578829, -0.07088710710562585, 0.0298366090237938, 0.041133054922825596, 0.051345795399495416, -0.040844300313800624, -0.0013370143760177758, 0.030619852922719824, 0.018144861021939983, 0.003531663137959263, 0.008812736657602568, -0.04066431603701623, 0.024109363539167337, -0.04172286936522554, 0.02635048559121596, -0.035804946480431046, -0.03821755145000028, 0.036387658574974696, 0.0785096458118042, 0.020079594563013423, 0.08729535484672055, 0.06994499755122878, -0.006326143159782266, 0.0820628253519926, 0.010731494688861386, 0.013254098068859318, -0.007468412764091139, -0.01027468510734176, 0.038308313883280584, 0.013979020405252058, -0.0974785196502983, -0.050548010891332026, -0.04057671616584857, -0.0315970709345937, -0.06621931188075585, 0.04904404429831165, -0.0026629129885437455, 0.04081969714092115, -0.1182223102085892, 0.049006939248185784, 0.06733860763257236, 0.015466030537294827, 0.04014296716069095, -0.04601456487379519, 0.001041598882621808, 0.08593890408802013], [0.02170977298284202, -0.020169510210234866, 0.0808899640524971, -0.0379622242601081, 0.14350921960397262, -0.02662507389481563, -0.1017766269635377, 0.1263776244088841, 0.017052535285574575, -0.11016101742205855, -0.0032256445160748454, 0.09373140622712002, -0.033824543422322495, 0.03143753593573343, 0.03921006590780958, -0.06225305939991549, -0.06363755000779882, 0.012766335306971296, 0.03560623737563079, -0.031870576256070454, 0.04508710195167581, -0.07789054214268705, -0.03952916623756008, -0.009079956343016102, -0.035998982525349776, -0.03565870054933517, -0.08404407644462777, 0.09522095239599794, 0.01902876714274696, -0.033059149323698134, -0.04266427951781508, -0.04773741673721494, 0.018730133182951844, 0.05908587546082221, 0.0014242967044002825, -0.04609821760220055, 0.034034485310428214, 0.03821118487025821, -0.04986948306521794, -0.022599855198357922, 0.057204983278667014, 0.04239601393886703, -0.04806587185625341, 0.06345175210485296, -0.07630097822063041, 0.015913211746035456, -0.06878858648063245, -0.03273795540842347, -0.03614735424034449, -0.02145139353291955], [0.008023577737153226, -0.032558015364601976, 0.003973861572902784, -0.051907224132680604, 0.0212549362258968, -0.08007166850636975, 0.00894619680899074, 0.0720495076381528, -0.01183960952851953, -0.06186066720048121, -0.011061370971623482, 0.06087845737464516, -0.0010254847502743202, 0.03967280156567102, -0.06214522234158241, -0.003163258108985211, -0.0328631000700107, 0.057046944975670644, 0.043298876917990704, -0.036456527612279827, 0.08091161213064924, -0.08071102288400912, 0.044052728718481426, -0.055721386209096335, -0.034610790140471845, -0.028036876949071716, -0.07700205689648042, -0.01609750735946803, -0.0016380773225895013, -0.017169366324192338, -0.05535382961309567, 0.0370009965496432, -0.004244746040971437, 0.09936118465843961, 0.08724668629878102, -0.07825927537928455, -0.021593599371136158, -0.02093465352552685, 0.009437742014964933, 0.09560109719935533, -0.015809164372190532, 0.055097475687649444, 0.030908640394769486, -0.028801433707990737, -0.08614312366348921, 0.12850188622779182, -0.022637380155972883, 0.04621506601268263, 0.027331094070974962, -0.027549944832035097], [0.010540045076430608, 0.012201842861557875, 0.09356387973749, -0.06891079093134037, -0.029739786386227013, -0.04147601474815784, -0.02005255335345054, 0.011641463674166831, 0.03838769394580797, -0.07699048237568566, -0.025443068085794336, 0.06449851379579422, 0.03741321201064471, 0.020889574138577418, -0.027197694016945752, -0.015044593637042154, 0.017762164941768903, -0.0477087483238359, -0.05495380428411141, -0.014715530320868612, 0.07689809300117095, -0.09628113343119692, 0.024566138974978183, -0.05164472762721813, 0.008263903806057063, 0.019233645213239735, -0.05290903964637876, 0.10498983778657166, 0.0739502062597368, 0.03938557608178887, -0.06993623836756675, 0.010900964381082592, 0.04199851906447139, 0.09966459820660539, 0.04623499048487632, -0.07712977475652152, -0.027339935481334076, -0.0868605478402418, -0.08254522582138038, 0.02697327526681671, 0.041310568444113425, 0.03100845304019001, 0.04295227379579363, -0.0404777913502845, 0.026585699828696133, 0.059752172494601206, 0.022702023082069162, -0.008734490936327196, 0.058560782579374714, 0.07349687212628866], [0.053336329001109545, -0.05693328113405094, 0.05474123524641556, -0.0031733114640332136, 0.17086848979516034, 0.019835922684304907, -0.1257201691290143, 0.08184230837719086, 0.10153333075594938, 0.1093003556128098, -0.05231302457393175, 0.0814713358276285, 0.02863155483442839, -0.04734310492678807, 0.07416222429500034, 0.03155946480613245, -0.024705365919268352, -0.048773155944372065, -0.03618517477001841, 0.03844029010023338, 0.010315205780680715, -0.005861021995232309, -0.019786152396626656, 0.009638062925657878, -0.06636753702036412, 0.052278918282436755, 0.05118318982057386, 0.0779748483733647, -0.004605083125381506, 0.0009623098801853712, 0.07345350095482116, -0.04598946257024857, 0.02810923342575421, -0.009636086558228186, -0.08898257083355522, 0.0032691839421120604, 0.05637522526274778, -0.0449954939799041, 0.008589745307167686, -0.04251502627172807, -0.04144684730303658, -0.03378325450211974, 0.00712263045124865, 0.022542139712412892, -0.06850349821054452, -0.026373063228366304, 0.046007842413727525, -0.0929019962921391, -0.06077627368921839, -0.04876428121232664], [0.0348141127390227, -0.07388228712217548, 0.003678656122733603, -0.08649245506074463, 0.02262564661975288, -0.041264083433431145, 0.014009571534810347, 0.049465981262719914, -0.04782856401828984, 0.07611043759959156, 0.007014541328693615, 0.06985369231143325, -0.05955067424549619, -0.06349111225198736, -0.010941013086762468, -0.02577700794517457, -0.023043268993999364, -0.027691842798239483, 0.024648089687734766, 0.10955839763264587, 0.0432812666081775, 0.0005441017366020645, 0.04257555903186558, -0.010108052965592843, -0.059440832414031454, 0.020594623695932558, 0.008353812910724446, 0.047541823187494045, -0.01314357183565546, -0.030014796024441466, 0.0767375035527426, 0.02700858884735344, -0.04325437672018391, -0.007082351019592365, 0.03086293017994205, 0.020876359018584617, 0.06451074580408639, 0.013504716338919219, -0.016772008611147398, 0.027523210366682007, -0.07399000751517364, 0.03986791709245195, -0.02053157411195042, 0.0657486896115089, -0.03553716816440061, 0.03721458369944969, 0.03807784448720277, -0.04577374427122801, -0.03693053726921455, -0.029055214127237727], [0.04820886559418355, 0.01102528970368341, 0.09547997626898676, -0.042425166924349854, -0.02962609512598975, -0.053864578083301695, -0.006738692855662819, -0.04017188525267204, 0.05460207186382309, 0.04784742779882916, -0.004655078444738851, 0.04019266488518273, 0.006713828331062647, -0.08822890109714493, -0.0354913006284941, -0.017543442752127696, -0.015889022612492292, -0.09740539633260983, 0.020653627124842665, -0.00417386921129288, -0.05762896397576901, -0.05367697489420603, 0.0522964668488217, -0.014645876801561219, -0.08874055359757592, 0.05215293386835233, 0.009115029852385825, 0.08038593804047832, 0.03166527254175702, 0.04529900974675682, 0.05813655751757264, 0.01950771339881825, 0.0014306074314855985, 0.01543745757301394, -0.05264578242597759, -0.06962119539783425, -0.04252375504473344, -0.12899345810293525, -0.08907569662654738, -0.010563434921973714, 0.021630794737558783, 0.031367549708747326, -0.008070432797462281, -0.01736615655654614, 0.09039852994374371, -0.019851623814866996, 0.12430321494347531, -0.014324345956303641, -0.01367514224388831, -0.003657166892720997], [-0.0027012595692893025, 0.010696222500598197, 0.01817978898697855, 0.0948141259338626, 0.12166946412457763, 0.08981311215729641, -0.07470048244798481, 0.013960686783774838, 0.08151925789002727, -0.047608050066703725, 0.011223968341330444, -0.055597335972740795, -0.04240583496901543, 0.0683991342879527, 0.05052577002241593, -0.052970558792316345, 0.01608582197893038, -0.02167588027653718, -0.08497575667978444, -0.023807520539057492, -0.06063449352630254, -0.026320306415150724, 0.011730931220252361, -0.05532574185570067, 0.09788596883537815, -0.010711855983307145, -0.07869160803294241, 0.0403282324047102, 0.015928624495179396, -0.0698728226137794, 0.10964888085617798, 0.04979976403707684, 0.027387438166360904, 0.015448190836583409, 0.013648741930861243, 0.07821373023867112, -0.004686197372601675, 0.09012818540802034, 0.10404669711255352, -0.043860668215176424, 0.09162547472667089, -0.0452109198741471, -0.07022378838326618, 0.026075187905000855, -0.06382747602962546, 0.009253071095541545, -0.005372945301873178, 0.008447642211120097, -0.051816521467562306, -0.06724348600486629], [-0.03517894356343097, -0.045367404252094984, -0.0826456225037073, 