[[[[[-0.29471025797374323, -0.10915405655631828, 0.7600661206829967, -0.08843540573857281, 0.06116127477302986, 0.008366315353704874], [-0.04920497707426769, 0.05673237382814548, 1.0014680623983143, 0.09455437942919999, 0.02942781233942393, 0.5140605644527942], [0.04005297052747838, -0.014921735484862206, 0.8583681266361515, -0.05485352494108148, 0.025657381984003455, 0.4010650677516576]], [[0.036135357192190146, -0.004226192007105532, -1.2115444934625772, -0.24680272829760797, 0.054385383926567395, -0.24981175159761365], [-0.03231490092027342, -0.0478073187815267, -1.6041422384228687, -0.012870549820928544, 0.06600368135488653, 0.13744708384748455], [-0.15072110964935745, -0.19242392237121883, -1.9382413725439522, 0.36081685117657025, -0.040708265785536615, -0.5036199211653694]], [[0.24957489239058203, 0.1869332949943907, 0.3891517200513881, -0.31544948430053055, -0.06089295069894331, -0.16077311411604248], [0.1266923394586248, 0.28645812025091133, 0.5421686659927768, -0.23510094805454482, -0.0991765730069618, 0.3385794981572251], [-0.08952840437551508, -0.025513091888529727, 0.6633944703935539, 0.7239812501339016, -0.21505856889838923, -0.4118641688526361]], [[0.13326198206125245, 0.06121280716876487, 0.17365011781394907, -0.31888931482931787, -0.0057854254361192495, -0.12661137233602604], [0.1544758728309473, 0.055778176298525266, 0.22212636995578638, -0.3995765665047847, -0.04896589092772599, 0.34103311970325206], [-0.15213033674975573, -0.10654241309907163, 0.32456967854013846, 0.5875373187998687, -0.19540310922616153, -0.3348599643769678]], [[-0.10451887080397942, -0.020632803417952216, -0.09831673596011799, -0.1666493685013197, 0.09057011160585866, -0.05474148595093766], [0.08567268099100513, 0.11150578025013656, -0.2864155643704575, -0.2148214669660417, 0.11059803359255889, 0.22961255461113572], [0.05349478340496197, 0.1118570279483656, -0.05645728809534874, 0.40369924728766393, -0.08340019958251554, -0.10350483687005149]]], [[[0.08757292077215055, 0.07875387333050049, -0.3841383200094277, 0.10934118918166937, 0.24480060262745487, -0.6221210796614418], [0.08155594836157103, 0.1406009601290837, -0.4484246231728379, 0.1660322695356453, 0.34864047396695486, -0.3637530433785567], [0.05312276958155215, -0.03617000086859077, -0.7765053461458049, 0.12170344271925584, 0.3249182435623547, -0.5869391667048772]], [[0.4315200015592007, 0.2580947204938728, 1.1405241330896712, -0.11212295495147637, 0.12431422290045918, -0.038623649130612135], [-0.007386266373264243, 0.01982260443138881, 1.4411872613771894, 0.04282295814887478, 0.14638959422018916, 0.660087205793913], [-0.11877184805053913, -0.42551763606533405, 1.5151903532481534, 0.5888897754365453, 0.08171178089272672, -0.08285255727308684]], [[0.384369572665361, 0.2381412389812134, -0.268417949180536, -0.37339752180697505, -0.07855352305871174, -0.22210865572891214], [0.10609929531325166, -0.025727007242503853, -0.4466938699991804, -0.5455875074793662, -0.13704848661959793, 0.5706092452500389], [-0.1153944285387289, -0.398851926303981, -0.4923477013216845, 0.4905444503395198, -0.2653942864323045, -0.2288100341742299]], [[0.16154209630770022, 0.4546033438911705, -0.3486420430045814, -0.35969923540995086, -0.04714135613787737, -0.06142216904510684], [-0.0015922873048933, 0.04344858837235864, -0.5219439708940284, -0.8224843468307186, -0.10480944425554323, 0.5917573141063779], [-0.254213309399856, -0.37797040526056075, -0.4226208876949318, -0.06492690016118648, -0.27504789811621844, -0.09986724209204625]], [[-0.014506597764351401, 0.21642890590486275, -0.19057837481995968, -0.14787295221656957, 0.008127639780005448, -0.28592309988624137], [0.09707903553974477, -0.1574207717811618, -0.43689008390659145, -0.5553166909997421, 0.0370051770579489, 0.18891834997941695], [-0.14922677842559662, -0.20111885951592837, -0.38714780809569505, -0.12093618104756282, -0.15429699103663155, -0.30999644366855733]]], [[[0.20739116566554025, 0.24342561265377174, -0.15420196414544046, 0.22615986776002536, 0.27283868773021464, -0.05271253521314869], [0.05545875369892033, 0.083312970100365, -0.16288286329468982, 0.21991684708077686, 0.35170176273239195, 0.6585835663363792], [0.05281734948053742, -0.28472667008706587, -0.35448035577832215, -0.05211912034097701, 0.48967479272204956, 0.36712528556792007]], [[0.4533395484952039, 0.341130996378817, -0.36234035451439905, 0.07862788667258214, 0.20119434021508512, -0.39147902862050793], [0.19769582101859826, -0.03269353311633489, -0.39942834466832866, 0.050644400537679435, 0.18194139505907786, 0.32397491398629064], [0.05501324118837901, -0.4042072237483863, -0.2956391954469361, 0.3307682735619451, 0.15894342582979265, -0.5676406263934719]], [[0.3111423574261087, 0.38991732558244635, -0.2092526452664684, -0.1772675292724096, -0.061497184943856274, -0.255225630360954], [0.10971488528898546, 0.043194324385077754, -0.47287089170001584, -0.5841399709155711, -0.1436874233416552, 0.6328869501851178], [-0.22673399696600077, -0.2901549450701307, -0.42524820855834033, 0.023211682559768666, -0.27186250222200625, -0.14429047480270876]], [[0.2878615170976948, 0.2673892126077027, 0.35978549675146576, -0.184628127194455, -0.06626622033218872, -0.3627140733750641], [0.10038947175094068, -0.24824610797033925, 0.4851352472085323, -0.7942673089635642, -0.17416908098051626, 0.13128823112213006], [-0.14987904962269957, -0.3940874373177129, 0.7821093972681928, -0.4276237051308893, -0.2788628397064104, -0.7212203396032635]], [[0.08194572756218813, 0.21291221608019067, 0.7649155501498673, -0.010345088789973306, 0.04612981156976105, -0.07107986884160125], [0.052441888348226974, -0.21333210510049103, 0.7284786238546822, -0.5819481218817376, 0.014809331608706941, 0.43331228418361206], [-0.08288413434250651, -0.2487346680419692, 0.9372715228680109, -0.28216437378250825, -0.11217602283395547, -0.12633498451384317]]], [[[0.13325758060279286, 0.06122928072814143, 0.10580164657306501, 0.20953343096800472, 0.1347777981385286, -0.29116288364674625], [0.05606310340474003, 0.008589272925525788, -0.020238243584826638, 0.06293172546833233, 0.2784658381850611, 0.3655671294103005], [-0.15322762218585786, -0.17785444244787696, -0.0124633903734889, -0.26246892897714924, 0.2880361725620102, 0.0762225460780573]], [[0.05937170895163247, 0.17771136855931402, 0.16399246923666808, 0.174412628788226, 0.22160684081549517, -0.31188272736911266], [0.06532897845254997, 0.04648048579587908, 0.2536749680179257, 0.0015835479284173105, 0.16017101001372777, 0.34809622417820724], [-0.07887871054048008, -0.31223361122442483, 0.38274765685052586, 0.10930132772670603, 0.16443981016183176, -0.5561535093551292]], [[0.12805688612330562, 0.134076756582432, -0.16993117395177154, 0.003388715142008736, -0.07553849918620886, -0.259497801180559], [0.08960948874511347, -0.17952109776131406, -0.2515252478212406, -0.2968643858416917, -0.17921825374567224, 0.3896268209263823], [-0.21746100049041533, -0.3848728450593838, -0.12891341499562745, 0.20060674096233114, -0.2928451129160613, -0.48980475594605]], [[0.09718820349903731, 0.0811894626679985, 0.29862176393490797, 0.10031464369610382, -0.11742446419484351, -0.00798255651942337], [0.1803015025436541, -0.23124572825632606, 0.5029128774872974, -0.45103514574372006, -0.22258954086394328, 0.6915656482860618], [-0.20599667785503042, -0.40889485647465446, 0.7506152422717043, 0.06032298821808414, -0.26088226396120573, -0.17903470004615013]], [[-0.00426356644847159, 0.11035421240405317, -1.213435678169286, 0.0768584712480509, 0.015957887149330528, -0.14533044750883586], [0.13046241151531995, -0.061680263522671246, -1.706333183778774, -0.31366484450153254, 0.06121650976747544, 0.3803011272425764], [-0.07324952088465703, -0.10382898266112285, -1.7813109048599511, -0.011021768217583472, -0.09977966217961716, -0.07675529480149576]]], [[[-0.05437124441499171, -0.1385359682128326, 0.1104216263004232, 0.39295780495575877, -0.006482420860382661, -0.15941309242594806], [0.08164183367272403, 0.07853906631989291, 0.0437816594490921, 0.11798863427370407, 0.10187149539959864, 0.23897174622891318], [0.027007217048344356, 0.007143561580434462, 0.0225014484637172, -0.2718890275392701, 0.10042069134585907, 0.005916243251987955]], [[-0.08238084678090646, 0.0063627340030205, -0.03785286205077626, 0.3383477249761037, 0.025031565227294782, 0.029485712212681352], [0.07609591226685826, 0.08832813518378892, -0.14781924155397386, 0.08507004454035645, 0.1268249803667729, 0.5810201914772426], [-0.08984966755815092, -0.12533790804123968, -0.04992169696360256, -0.043210026516080684, 0.02172904272530791, -0.0056663906503224976]], [[-0.09873654865642577, 0.027681344223987308, 0.09538366389649419, 0.1755328872498148, -0.09670454113814682, -0.18977629978742], [0.09899938924074839, 0.023541423870549562, -0.04918741873585458, -0.055994941154766, -0.14776995457958647, 0.42764291188050313], [-0.2606917554756292, -0.0717168847880244, 0.1688654014286633, 0.13983146924777629, -0.2836884478736782, -0.22509726587632284]], [[-0.07205408480024736, 0.042185438073286535, -0.2428338229377716, 0.28120295642250914, -0.10527164445841099, -0.1541990561202003], [0.09741114022821766, 0.09547252630269291, -0.3796457943041769, 0.021905706872802386, -0.18997391773948236, 0.34102824654564245], [-0.07665599932606561, 0.10894117877979702, -0.1300544650111613, 0.2008368112331811, -0.2940582941325548, -0.22510656638505727]], [[-0.11349002481355808, -0.0541817317549958, 0.47099103792056113, 0.22516701572425216, -0.013914863959084617, -0.1824010588404365], [0.1620165852863081, 0.07470043420094315, 0.4413389595503227, -0.052456305179237064, -0.014661160691618316, 0.26025429275221235], [0.09581694019292845, 0.35787630000072773, 0.736209368988285, -0.04721395594534985, -0.1336327722588124, 3.133598181707652e-05]]]], [-0.2764248710480411, 1.2611577445996023, 0.1254483605207624, 0.4627022521052264, -0.3354215308757212, 0.09521495346809594], [[[[0.017664177323889103, 0.1424071445107216, 0.11790441362940791, 0.19281791495664685, 0.1678835065289121, 0.06833175182849206, 0.020838954106346903, -0.09797890087641677, -0.1656658657400621, -0.6828441368431596, -0.36578429588459893, -0.24358265513282612, -0.17564158085181777, 0.4310523788540314, -0.10836196661139555, 0.11177313938737928], [-0.07777393911628408, 0.048774716322766615, 0.0026977443326470056, 0.14807948022723094, -0.2283529656389484, -0.10850939962662474, -0.16984762994017183, 0.040937317320839724, 0.31353900090046566, -0.2515835507889414, -0.09448982051867341, -0.0015816976032015724, -0.05241630356949149, 0.2229086671684618, -0.15319216945307895, 0.2546209427541491], [0.005254285757799943, -0.05154899181356241, -0.11107318063884175, -0.2794703582979395, 0.019824142544513375, 0.03389142141671767, 0.04047815633707439, -0.10619292804274133, -0.017167344022620743, -0.00406006128442308, -0.0183800519559435, 0.008857530456675868, 0.2774837577475465, 0.05638051185857998, -0.024475696399302763, -0.044480120217033146], [-0.14047923609506255, -0.01524696475380928, -0.16409013526219743, -0.1490717735795237, -0.03739199929179955, -0.046866852337422535, 0.07133738765995608, -0.10958051327401798, -0.113568272103983, 0.025726086139107256, -0.2547286607486328, 0.1602533437538884, 0.010849328370362924, -0.20795749466698502, -0.09329682930485712, -0.09587485434421206], [0.18313282956536828, -0.006068256250840152, -0.025112379683684453, 0.044372669016906244, 0.03367777230405818, -0.009056149456945207, 0.016500923064695725, -0.03212744918137927, -0.0547531416099071, -0.13861712770506374, -0.010794142170283539, -0.1788543701905689, -0.03272661002552984, 0.11056268813378418, -0.1949963959881381, -0.0319918759979078], [0.1304774334272632, -0.020816148803962785, 0.0840462736661147, 0.09944126354844335, -0.039108534937000776, -0.052779316308763355, 0.0032160471029079726, -0.2469003341490133, -0.22204634550299396, 0.0800525110082981, -0.00568604599720932, -0.262227716848623, -0.012617152977265626, 0.20200900728791685, -0.17222307594665645, 0.3080967915608326]], [[0.05579521836041079, -0.14742201847315675, 0.12490610828108838, 0.00033057420740059267, 0.1492807030072645, -0.1323101201664691, 0.19228095432468523, -0.21000307159920423, -0.16400888261789678, -0.19649975464002217, -0.31255082344604074, -0.0024769059353143223, -0.3253683491490102, 0.042564523790578374, 0.18040396321068913, 0.02168062010970817], [-0.12776852735425956, -0.18106658397138028, 0.23286863426180024, 0.05779065123912243, 0.03981932970650938, -0.051907451112771945, 0.010524124588044454, 0.04083068151596829, 0.35228582233356015, -0.14133572273630327, 0.25847146031495905, 0.01601357521121322, -0.030596557937726802, 0.082771802276139, 0.08526861270904733, -0.14960272731623675], [0.10231565628318466, 0.04433215709132996, 0.017242288416259275, -0.11621749395501575, 0.03123893307485159, 0.1377409014546086, 0.0002671029358565414, -0.15766786656503162, -0.06476802446782183, -0.0831540889881476, 0.0325738962260139, -0.09969103174911097, -0.08507912194543377, 0.056939062583682545, -0.06864601839270515, -0.14265982641809516], [-0.07187747202722618, 0.048945890452521214, -0.0024992098279111976, -0.1285372482619783, -0.06811450503463018, -0.05371659987550558, -0.19472996404540588, 0.004178049208119033, 0.39742001868003707, 0.0968905875595023, -0.010507363398705444, -0.04933289751623635, -0.05695892155428081, 0.03022098678114094, 0.024674313386459628, 0.10260421232728378], [-0.16197746680285077, -0.14315904482609157, -0.041130301479337404, -0.033001007201301634, -0.01814784638865228, -0.06999663798170302, -0.00667101359087334, -0.04097369315587188, 0.14202876655126717, -0.07328062174042407, -0.008382635293641314, -0.09449537691871476, -0.11344404085139184, -0.12037328489726132, -0.046406764747685375, 0.02299432468318796], [-0.23243395168797587, -0.10115549579846578, 0.2835545946257123, 0.1442092255413947, 0.028083510747213478, -0.018727627086509678, -0.08567598693867812, -0.19160461852547836, -0.04962567639868043, 0.04556825671003635, -0.08321280292195078, -0.013990955291509215, -0.014264483348761013, -0.11662513017816337, -0.2586394905669573, -0.013921540637802978]], [[0.14745472667742643, -0.11539039342255937, 0.0826477235759628, 0.044913633282890525, 0.181678031757106, -0.1472076759450192, -0.14848066033072635, 0.21171622987806996, -0.081602286180159, -0.27838930157877567, -0.18991551429072107, 0.18250886367922137, -0.1572195049847705, -0.4254881799903947, -0.10508167796142949, -0.19765222480863642], [0.07931992316813456, -0.1209447443743036, 0.3125021920854101, 0.10426766184055457, -0.04378932540749007, -0.1895547151221812, -0.033450407499630394, -0.08558558293552904, 0.04889389115059175, 0.02037403059398848, 0.07313894484572629, 0.05659238205676394, -0.0880713950529686, -0.2375581532988289, -0.1445252116519332, -0.15273217096620303], [0.013627660303159449, -0.04750079918952273, -0.07615486652584887, 0.05527552563050483, 0.06045633756139096, 0.4015120218461446, -0.11434110271532485, -0.08744736221396597, -0.0561521039033979, -0.13356462999649035, -0.10300826654077579, -0.25227844924459364, 0.17772652093743418, -0.06228799595608919, -0.02860978580315292, -0.18892901865513348], [0.25054445614950666, -0.035113746437636095, -0.2898155064701696, -0.19546067519936056, -0.2585819260656818, 0.030527788857353907, -0.3009676400729747, -0.10988509023976295, 0.3784729151877547, -0.02765566836404416, -0.18385435705338035, 0.006952616783039241, -0.013920251832925355, 0.3423057944886336, 0.12365107200598054, 0.095230874983099], [0.12418777916971849, 0.010698392554670144, 0.009282665394152522, -0.029060925322773132, -0.07369396910643805, 0.05633702712817948, -0.025863862031910483, -0.018538553669307185, 0.002003512126021836, 0.06820477474210108, -0.03403914917726649, -0.10153410834987282, -0.1784055040475332, -0.17675685247901582, -0.08704654848213572, -0.02529953779417274], [-0.27759909067566096, -0.11764679173804783, 0.10722036377312474, 0.028189362337004496, -0.1869214025008027, 0.02877967947782229, -0.043444876514565134, -0.04225818644962685, 0.06870805930779991, -0.01744908743844581, 0.035539060067899704, -0.0907201980993687, 0.26530887263204644, -0.5859967294581677, -0.04922627483039948, -0.08711041723670579]], [[-0.03888688400465093, 0.0827561011199677, 0.26148956789317374, -0.029592777266118128, 0.11038932938861296, -0.03392229420337698, -0.1304100064838647, 0.3350877990185199, 0.13999293987800207, 0.21529850393743974, -0.1283295324858428, 0.17042503683439808, -0.10264324835607838, -0.4406412592446811, 0.13260276557981932, 0.020049418708333804], [-0.1943479004874564, -0.005317351118905935, 0.3478594033566714, 0.03825461799775851, -0.26574428811029277, -0.25719452865111697, -0.04152358363324318, -0.1677602107143841, -0.03776023938463803, -0.04246259013781902, 0.01607741103596065, -0.05417127270369634, 0.03129775025132479, -0.33741911994997476, 0.11221008742256296, -0.19116954526703275], [-0.02657039463765456, -0.1409293372362939, -0.0676154432349707, 0.03507123114378421, 0.011026722852864362, -0.05365346357755958, -0.13200307084420432, -0.07738394973546739, -0.0030745793849264644, -0.0959958319951211, 0.0019023964527992362, -0.1313833529432448, 0.2942300495050506, -0.07036115917060186, -0.007164412847448672, -0.33817204164359416], [0.16374315915505383, -0.07288117768541466, -0.1997076135020521, -0.026823746578158926, 0.1283808193204529, -0.0984938200421649, -0.03937681817088299, -0.10838919032685669, 0.5586322529622272, 0.08452710742083341, 0.038210554112984886, -0.07619375888334769, -0.2569113581441464, 0.35237123843306084, 0.034429427098934685, -0.13554676711944125], [0.09648361411498695, -0.09047936704462002, 0.07432353559172553, -0.09183928231277133, -0.056070608112423384, -0.026302433736963584, 0.06223257413627807, -0.060036611435921365, -0.06603128846877541, 0.11773453447147703, -0.11214334214793746, -0.0363025675841986, -0.10588067739495126, -0.03854310163019412, -0.05018204090744542, 0.10520302512295895], [0.0851308869231576, 0.07453076438678036, 0.046836707079652325, -0.16033001285440812, -0.001620913623540513, -0.0646156718377021, -0.07408432076564848, 0.08415723370265536, -0.004139381126810786, 0.047007162764369316, -0.07156650534107166, -0.07967091618647969, -0.0030490696935651634, -0.5589748221472564, -0.01510432062163794, -0.23252837209962476]], [[-0.014415691765832704, 0.047617809392369884, -0.06977682319634379, 0.11511540985713588, -0.22831285532874873, 0.05516910366422859, 0.1838441000780469, 0.2858212638148647, 0.4212654824103776, 0.7612781673558192, -0.3267252385989806, 0.20479302565496754, 0.09309856056264466, 0.26676054538900734, 0.007613035157551754, -0.12403300829309281], [-0.16565021896034435, 0.017955078813127398, 0.15535356335120276, 0.06659961830611733, -0.143925462919152, -0.1802439438387259, -0.1594602943972605, -0.31441222903121957, -0.15663871530597323, 0.22491194475038953, -0.17530022859720573, 0.06692319630573389, -0.0114143829835568, 0.10027414551729963, -0.030523815591719194, -0.23304910927178996], [-0.07091435602749009, -0.11710586241875375, -0.05839808638565973, 0.03447778994534266, 0.1683208608703121, -0.181456282297301, -0.3240811039419353, -0.1771129753165709, -0.0673829472808153, 0.014355370905941136, 0.0006808430529590535, 0.010836689734344282, 0.1234919025869631, -0.061289529395712514, -0.033812432044619055, -0.16412145800325764], [-0.01012445327344968, -0.11778618370406727, -0.1475018128324851, -0.030164977355842996, 0.1279204352211991, 0.032625204189300414, -0.031304664716203606, -0.12095916704017327, -0.011527668710228436, 0.03039456363730549, -0.10475994413235128, -0.11135862077308624, -0.09811041801762492, 0.20199371935294905, -0.051338218824422355, 0.18604575007665616], [0.13041324229407367, -0.011325390710542347, -0.02815797877902034, -0.06779542047978415, -0.0470064161145992, 0.03152881104096047, 0.05872242557249378, -0.013123755274584838, -0.16841496416628146, 0.06847285534883547, -0.10772734897944328, 0.010960076585524713, -0.053138293819881735, -0.0002324275618540959, -0.006434973892435144, -0.06829140537266656], [0.023483062432957526, 0.012890403317433043, 0.016729284826922902, -0.004250556159002174, 0.15426589247813385, -0.11636017992597121, -0.03664798678980491, 0.23159430056064578, 0.09882603077037912, -0.23169712681139124, -0.06154290114567192, -0.06927760601162536, -0.06535076796826532, -0.021496445263937576, 0.06336385417401574, -0.2017571825490098]]], [[[0.01372785195175377, -0.07293844433788199, 0.055359018781819154, 0.08748804987200742, 0.23351952389247302, -0.05248029958264149, -0.10002792061797006, -0.2733288046326485, -0.054863393860310104, -0.6442150302271764, 0.0009149678156049116, -0.0888790222740723, 0.08874230176680549, 0.4685293481151328, 0.009312292208632849, 0.07149829228255372], [-0.1071049601813675, -0.06649851700966046, 0.17288772715662568, 0.11909194711868328, -0.09799172367802253, -0.09700112827700738, -0.17127571877375714, 0.2064867898042171, 0.13139544741538287, -0.0642342205559316, 0.025301745775514733, 0.007248865044470494, -0.0010103208437033627, 0.2615207409124397, 0.12592482153652565, 0.17972908030539786], [0.04134600230000935, -0.0640880012969342, -0.033177622520616054, -0.23899577307143594, -0.05650581963098137, 0.3498902551187416, 0.054706273847321366, -0.10257813598132734, -0.12403982290567137, -0.03359226437062399, 0.07291670199465895, 0.14435318726803326, 0.12530644466773555, 0.03899776643520068, 0.12831532177497557, 0.06364492501886201], [-2.1224509851977286e-05, 0.05106129452385469, -0.0471743285143737, -0.16117322250188068, -0.036089720148764624, -0.044699836484358504, -0.062020634290609486, -0.02881555829588316, -0.018128071329389546, -0.024994904887390076, 0.08385132887639254, 0.1456069680524271, -0.003809591877236927, -0.21621276252322472, 0.0235651185196701, -0.007686002872175097], [0.15556099211425023, -0.02687922969459628, -0.009391594623844262, -0.001057827105601362, -0.055579575677713836, -0.113946994063255, 0.0906755335485697, 0.02236700839157654, -0.0390993839378806, -0.07784176601133631, 0.11690064235907546, 0.034192233095768736, -0.04070794641203561, -0.07571336724182877, -0.12322198736541612, -0.15871057431870333], [-0.010156376223018635, -0.030302290143760773, 0.01744456250091493, 0.01603624952248507, -0.0592493868980317, -0.03108478416292973, 0.019519588219699235, -0.26448591790012305, 0.06839005013451965, 0.19292458291260195, -0.011330627797410477, -0.005603149451256366, -0.201136273416651, 0.20621604128275456, -0.13931894484016716, 0.025786686365418702]], [[-0.024136252108423475, 0.039829238597304535, -0.031209140457597234, -0.033482966907492334, -0.09244145890989579, -0.028584454838986906, 0.010440852448742535, -0.5418478286162878, 0.21534101248801907, -0.3036788842638789, 0.0878471425776028, -0.025484852219140597, -0.061916241888252246, -0.13045101776562998, 0.07832543123791877, 0.0012618203553330085], [0.3640857426574516, -0.004553112308524225, -0.015573543853533225, -0.02462368585691839, 0.1357778373150766, -0.18053024865115538, 0.0087816557422903, 0.21953270844269215, -0.2223693332322496, 0.06505059104821982, -0.015316724374479068, 0.11744219068345724, 0.0773675980172992, -0.010850308758960757, 0.07406816632485165, -0.14432331375693766], [0.032863612816820695, -0.0958169505578704, 0.02479349690459084, 0.06620889768314181, 0.009759753487322989, -0.14298294884909193, -0.04145824381618132, -0.05775583006432881, -0.16932702997058022, -0.014204587543546005, 0.019921213656253444, 0.17776514075248265, 0.000799919352982438, 0.043806692657758724, 0.14989316023740998, -0.16200297225475907], [0.7144898129102165, -0.10752948834249455, 0.09521496175546995, 0.003990538729195002, 0.014178865791937851, -0.13776273280855444, -0.13283745849767792, -0.03247432896733129, 0.07047562243702515, -0.11579653507952167, -0.016369371050181356, -0.08420676956795381, -0.03098069200925941, 0.05099790948254296, 0.02795168000835674, -0.199612913858836], [0.08213355953050916, -0.05644071545187525, -0.0950063367110913, -0.015190341975632685, -0.008453765905444327, -0.05857684870002203, 0.07331279518676495, -0.04648213488047391, -0.030132939819456486, 0.04616417250770439, -0.00010366501865818913, -0.054158533036530634, -0.1360054067547611, -0.19623441122655813, -0.09677404031433072, -0.06638512852210625], [-0.5638389933782126, 0.22409944270538504, -0.0648832664067818, -0.0854607804733918, 0.025853360316004884, -0.019370834626058733, -0.022131199218584093, -0.2998366027666369, 0.10370190407931093, 0.16409982601315626, -0.03432163621671465, -0.03646202575416445, -0.030265249421571043, -0.132748230008808, 0.1463565047099304, 0.03018380951856611]], [[-0.2781715613969413, -0.03356102286978602, -0.146628306028502, -0.10062758271530119, -0.050684005129668905, 0.001229211209284314, -0.12171497024063783, -0.3730659545408665, 0.31698295511959634, -0.005072710654986972, 0.08713178553448855, 0.3474822605308202, -0.06341105857409551, -0.668837070841734, 0.038135666132677035, -0.08279331513142046], [0.40820071961741816, 0.09252458368147096, -0.5429350322313099, -0.07613867539169172, 0.2485114730526014, -0.22938444614084624, 0.10193596366131691, 0.10304122534593238, -0.19088556759113626, -0.09695334911156901, -0.015448962920894616, 0.11923389364491324, -0.047844999618000525, -0.32090773281755436, 0.00028987032873727017, -0.10163228928864598], [0.0711415047174092, 0.026366325373079817, 0.006411336611635041, 0.08095357603636119, 0.08222990334705245, 0.08433086097412316, -0.14421585064781572, -0.010497656866728568, 0.14534488829961903, -0.05958042288959862, -0.0334003476411393, 0.03868498772288768, 0.10836863232740261, -0.0374576567429841, 0.06844253198915014, -0.04496685624310727], [-0.008996704232244752, -0.11480568132334752, -0.010032906890950702, 0.14828081940220775, 0.03989861025469123, -0.07155671461264858, -0.09736074286084356, -0.0031063250203760056, -0.25808573513394995, 0.0038637983387665993, 0.07851874141169597, -0.07636971283569591, -0.08472657296707306, 0.31714138695545413, -0.06822164343912807, -0.06759482475028888], [0.08699977668113203, 0.0794884143096634, -0.012943738784489246, -0.11232117801868194, -0.015193703447891272, -0.023848778821968, 0.08013293498498777, -0.0822364509378335, 0.032256236940622275, 0.11588916040637894, -0.034371913027677475, -0.0913818784665375, -0.18148407025115657, -0.1527188484428287, -0.07832976915220724, -0.10639134341385867], [-0.3933472015837219, 0.2491988601598335, -0.22917283532431051, -0.032514752384370633, -0.038124705234008634, -0.13991032494188071, 0.022262715990840655, -0.1258368552832988, 0.05857199771095404, 0.01993639716858302, 0.15317879828840622, -0.039585287836225724, -0.19737822324450477, -0.5841878643111043, 0.012086144517815575, -0.17447173754041373]], [[-0.0668806824317769, -0.011910825900964253, 0.16752290174242773, -0.21195486343794118, 0.2048053283378697, 0.08569545317018089, -0.0557010425806058, 0.0023966960719828193, 0.34756057108701555, 0.3203511203123404, -0.08580229718724003, 0.4281653037126213, -0.10346204314888273, -0.4763860319087119, -0.08579777695147577, -0.043222579715969836], [-0.08852883075017923, -0.008415977950916588, -0.22802575091630647, -0.2218855797868628, 0.11559908309446905, -0.22159019921034448, 0.2736572283330948, -0.028985436874998705, -0.21991143794169968, -0.06638867570516242, -0.1928158062887337, 0.12897840937213542, 0.013112282476858493, -0.4377522449922801, -0.18766100249858725, -0.13351967579771554], [-0.003133976545687068, 0.01220828362291119, -0.00512083048168813, 0.1513932142398884, -0.02800485794524854, 0.004765744208900655, 0.014101650340616454, 0.03504296249860985, -0.08937839347046458, 0.0283390327870285, -0.015689499940529414, -0.13919740901203587, 0.12117511356672456, -0.2065738940092624, -0.13851442558322766, -0.34509094362400916], [-0.18726114392624246, 0.2725033779325912, -0.037809111635284554, 0.14725091716819885, -0.2506901909259676, 0.0788157693307549, -0.0617535986032319, -0.01861276680511097, -0.21214846408393181, 0.015436353159768105, 0.011113851806033314, -0.1667712889762238, -0.15262582256329527, 0.25701169813408986, 0.13479819803446527, -0.1773299341971668], [0.11877250948615203, 0.12068782500728015, 0.001197444258237835, -0.16845176253915478, -0.07998538575961844, -0.01733251894171992, 0.036992429948876304, 0.03923941733871216, -0.0348737768872273, -0.022187001849267727, -0.03643290254205296, -0.14145742282850018, -0.0828075686767668, -0.1913062344181028, -0.06549706317816863, -0.005221314237608726], [-0.02355273694512028, -0.030543576869861117, -0.21863999007691706, -0.2930278534123259, -0.17588165058103997, -0.06813579938308931, 0.14120630130566883, 0.07571120149430732, -0.013227741314653508, -0.07701885401460545, 0.05954974653276119, -0.030536007159158923, -0.0986433197515808, -0.7331997417049798, 0.11389124927450477, -0.30434666848185454]], [[0.22163176200232315, -0.05346123504832813, 0.0984487312017358, -0.04849739007896906, -0.09955207336436102, 0.010034528328542467, 0.15472278057014283, -0.055788610511037603, 0.23258552080344988, 0.6327080278107652, -0.2827747554492675, 0.33928641345757227, -0.18549938194778182, 0.08448250243217625, 0.013276170356611498, -0.3045015022041567], [-0.057703685916950284, 0.07090109175722993, 0.112279330326134, -0.22115145239639203, -0.04249340251174909, -0.052903521689428884, -0.16027139660143833, -0.11375126221070578, -0.16425958673469412, 0.1946963777755215, -0.20542408740795629, 0.08779981183890541, 0.07398821411046401, -0.11250124110128279, 0.12790677381458432, -0.25990455820354685], [-0.16278435659119073, -0.055672537897597074, -0.06507133237177277, 0.09866408996853447, 0.03964741524836805, 0.2829220090926229, -0.04068722675227922, 0.12330728746923007, -0.0808631637404408, 0.07883265762806337, -0.10244843196860956, -0.09962648365577291, -0.04509231595858233, -0.16808513457658938, -0.057060538173868754, -0.31067171203912053], [-0.08042031335397547, 0.0007997986077906014, 0.06330480410469251, 0.06203595604465842, 0.019543721696404424, 0.061881807042281606, 0.0005962813447391718, -0.12328097469583049, -0.24805771190232775, 0.04906749827747938, 0.12043928893343737, 0.18952609935406783, -0.07619924484144433, 0.16037008353546064, -0.06241662184003543, -0.20170852253125585], [0.19830494066280457, 0.009045678897187319, -0.06059684907604567, -0.0949072024149628, 0.0704062007138364, 0.09829618277932864, -0.012014029958101843, 0.0034065970045312945, 0.015777561158895774, 0.08199036329185495, -0.17184001499170942, 0.09208907607616826, -0.09834706646282657, -0.0816855797907873, -0.07331908416909855, -0.025195523031277457], [0.1405208745896964, -0.1352843262489939, 0.14324095919682464, -0.1323069480755097, 0.005526973406890454, 0.0018392517038626553, 0.1567439386980121, 0.09165266236505656, -0.06832805802440771, -0.13576719049396363, -0.03610794799131023, -0.18353787030013402, 0.022395146133105056, -0.12766031346493054, 0.15692446354254974, -0.35059248724055614]]], [[[-0.08607499854153712, -0.11210535499339278, 0.2045434795148157, 0.059087996113236035, -0.10084210260773202, -0.15234808478858358, 0.20570868020533178, -0.26737621704093123, -0.10307964720439526, -0.45935539532623276, 0.15304833396457868, -0.09978446539188433, 0.12972212521773996, 0.13371364606517375, 0.1359761813778552, 0.06841507594590396], [0.13413950302477437, 0.05242183682172826, 0.23279732394298314, 0.05866557040409074, 0.05250829437225332, -0.09083637504207281, -0.2520196085820392, 0.3117281958534946, 0.004697282540065761, -0.02431389372711111, 0.16343524372660315, -0.18174272475376954, 0.059956620701713474, -0.04107263708173851, -0.0919043289967076, 0.09420825613285388], [0.0472043765142729, -0.08026500424263724, 0.0429746724259734, -0.03836709577752324, -0.06517206276064641, 0.027148053485758272, -0.02848583836171831, -0.13244359266668587, 0.027511763669140175, -0.08959396293226868, 0.0033936570563022324, -0.011405375611186088, 0.014272324290787992, -0.057643836767531764, -0.04989569615930963, -0.1406791649956421], [-0.2575420737078668, -0.05903839118870756, -0.04774324896157316, 0.0016341109212652666, 0.05950360387492116, -0.11006314540594156, 0.02137186812907991, -0.033704092147052785, -0.26182850580153394, 0.03909379408003283, 0.27280563961106663, 0.27478455849673095, -0.17219473514866784, -0.08920353499346424, 0.007183651002935496, 0.1479670664324059], [0.047290554414624306, 0.025220757646544963, -0.08730099587801796, -0.023957795724843484, -0.07440863113116519, -0.16144964250424065, -0.050498444514650756, 0.04984785846623979, -0.05681449996167613, -0.10040435956914508, 0.13082773138271858, 0.03177823888168691, -0.09258695566419162, -0.04460915300669428, 0.01304497891793746, -0.11562959013338733], [-0.01656102635896165, -0.02805167761575793, 0.01918296436956104, 0.12748184979722726, -0.15024997442615176, -0.055556301652192615, 0.0963831329164809, -0.22367982380640278, 0.10574230073541237, -0.026341585350009213, 0.11286153064606816, -0.04172498157980456, 0.1423037277120172, 0.1824772853478423, -0.15216462253491508, 0.11494371225148223]], [[-0.014306514379040805, 0.2153697116771356, -0.14272618366847067, -0.1789025417537977, -0.13854852401582451, -0.05367739241006032, -0.06367628463433836, -0.34603766612326714, 0.25909692480962204, -0.15048454453270063, 0.4000151469718394, -0.07223011992698122, 0.038233480382842924, 0.06061848783191086, -0.00021521439523841277, -0.00648934744255538], [0.341575859314648, 0.20406667711769266, -0.32749708172189756, 0.004402342100664329, -0.09716622286033191, 0.012244841237470853, -0.03153389502088938, 0.2834406022966827, -0.2231021890992898, 0.1508252622865133, -0.0198397980752334, 0.21105339029354953, 0.015569638625133386, -0.19278842103467664, -0.07098416774161025, -0.18625950913103653], [0.08722589424032444, -0.08370513243850843, 0.04553433756585369, 0.06745964267578086, 0.09187568964274288, -0.1918019576381035, 0.013681799098978317, -0.07329511418283459, 0.12014027905777096, 0.02599665248416751, -0.008513325141041255, 0.1282505384676084, 0.15578904173607308, 0.03545294278209738, 0.17250467010541295, 0.12957307037352198], [0.7186365408551133, -0.02561272953585401, 0.1631947123217281, 0.21139289157024585, 0.01946003053479562, -0.1290585722994985, 0.02799621704453809, -0.07864870313267026, -0.39679964161847997, 0.04504529032694485, 0.1924347677050064, 0.20372345877031856, -0.10079671322975484, 0.004324113613313227, -0.045899467275886036, 0.056971284370896484], [0.01584465998049056, 0.10712539977784667, -0.015729956347450457, -0.1308096629935431, -0.08545456403346852, -0.03901217852591955, 0.07116944667247802, 0.12337511227863973, -0.09638501740812945, -0.05668070517466003, 0.08424012956436994, 0.046033250737217556, -0.11712748548479732, -0.19264586115156943, -0.010993448406871689, -0.00921736544114828], [-0.38241508265974644, 0.31745394833829843, 0.059479615491919706, -0.0015790829974950476, -0.02570516313938214, -0.08348732047087477, -0.04268026262284691, -0.18759525578298386, 0.10600147443170822, 0.1358877083120113, 0.011259981102866252, 0.016944027914149135, 0.019570851919761455, 0.06513469404818098, 0.040041454624058864, -0.1197718573136592]], [[-0.5403747628879104, 0.00854261324321236, -1.0684385854139717, -0.1824603865973229, 0.008937355360649445, 0.03264195676498556, -0.10811979903010382, -0.16200723197195072, 0.11691305894846413, 0.23756347355653906, 0.35061923023866315, 0.012935241184590059, -0.01853842714518426, -0.20864576308106683, -0.07603899679367639, 0.24429967756687054], [0.2642099877335549, 0.19792239563153516, -1.1118592457980077, -0.17862283447770502, 0.1507915994411009, -0.09736718768501496, 0.23963257333608093, 0.10494723371966116, -0.17880292774826614, 0.05116961299127171, 0.07235275612951492, 0.3259688366182708, 0.2013565078139383, -0.18398366657435278, 0.07053868043406179, -0.08658722198787298], [0.0883035531982207, -0.0056762746832621155, 0.04344815987778052, 0.21694864067182143, -0.0325863227450468, -0.007673788980226324, 0.11038984071229015, -0.08719902819387858, -0.24481434780388647, 0.0225032548811478, 0.05633468018179634, 0.08957797498822005, -0.02909038056425374, -0.01813393957217623, -0.03596267636179181, 0.02415924917141541], [-0.3257399848744227, -0.18570718336181333, 0.29397852379408373, 0.38856752375461523, 0.1732881733512603, -0.01739284073969669, 0.0514754256567128, -0.09550080059711985, -0.19089510421732706, -0.13066100066415032, 0.019612291302993787, 0.2255171291066561, -0.17855948956994386, 0.08739272384606642, 0.011979542394993856, 0.19991714042181677], [0.029522190729942534, -0.021803451195638878, 0.0027893579879635926, -0.14314546730199773, -0.03298200060614527, -0.0269563369954921, -0.04899342741551813, -0.0023703068534868944, -0.016506763171788678, 0.19812978183009392, -0.015277737619527857, -0.01499576851426991, 0.0803645123090981, -0.05144670381821466, 0.03773060334669561, 0.043338148661865784], [-0.23214176519811192, 0.23395019136248613, -0.5379119550196056, -0.1585031334466028, 0.03191357512885723, -0.05576434326471071, 0.025572438762496538, -0.3281224208869078, 0.023526941882393303, -0.004815670707604837, -0.00450298005706113, -0.02351903288246644, -0.003002712597139582, -0.1579288959063299, 0.038807964969281405, 0.13600499675056332]], [[0.2379191985062569, -0.07254049235790401, -0.5826588046362112, -0.2258340790491162, 0.010250667574777805, 0.05567667996378637, 0.06283806845273962, 0.043373702273335805, -0.12025882641652848, 0.35483932813555263, -0.005174816869221137, 0.2703451237236718, 0.012728531734463939, -0.23807499663604792, -0.06770090012229059, -0.1345054567698213], [-0.2018700559502415, -0.1315339966441825, -0.6805421173604745, -0.24482158718762428, 0.15554914757606464, 0.0486320376657765, 0.21144899179617713, 0.03825969094332569, -0.07778962151647754, -0.058478815169554166, -0.08749546824742523, 0.2062042385127737, 0.00987801872811125, -0.21709257017102912, -0.15644710797426847, -0.1112119190348618], [0.06944269191539561, 0.027816645348860167, 0.06126209791948431, 0.268931113000216, 0.005294355864480613, 0.2641454408372314, 0.0015043851029707908, -0.045628941004988606, -0.23248787292671164, 0.06144295598261319, -0.056325931497273406, 0.0724941457636044, 0.11941391289497402, -0.15656800868693205, 0.026707223467440193, -0.09617220249264329], [-0.11594140314376401, 0.09528016861975042, 0.2216168386698058, 0.4142283141780826, 0.03374511049987201, 0.23236481535764217, 0.1335972272873292, -0.04005624834026435, -0.39045830468830933, -0.05383210069144684, -0.018692932857429578, 0.0805057974353341, -0.10857666226871268, 0.14414436668547084, 0.07939576031743135, -0.07744356254395866], [0.015204398024092281, 0.037798260126867676, 0.04370738240252371, -0.08686159045174767, -0.03743879137002542, 0.025666651666056303, -0.0492319557674246, 0.0843324372813431, -0.05347422529668812, 0.023924633787127187, 0.12997667475854238, -0.06978198632674788, 0.0014693063550548775, -0.021935818085151226, 0.00733724627825009, 0.03707176429518578], [-0.17964868095538358, -0.07264978190236991, -0.13162627716878547, -0.23159804169169013, -0.1150505970289638, -0.04451341737886466, 0.014764912500454336, -0.011894337007571767, -0.05456915281570844, -0.12650357853232966, 0.05930499366157127, -0.18513421244186082, 0.004385416629134499, -0.2832953687336443, -0.06958013139968147, 0.06449416904146497]], [[0.25171211028151047, -0.020377146351466233, 0.2712911515950545, -0.08201865043818173, 0.18377572525751132, -0.05548468177880558, 0.1003710862258353, 0.04820772391661734, -0.11021291225884873, 0.3578982048858306, -0.19294720924555608, 0.049432460487148416, -0.09719792994109508, 0.03613661654967525, 0.007081279252599821, -0.10238302592179455], [-0.2637512611648012, -0.20502911170773935, 0.1583641106437657, -0.2358477487981086, 0.04219370296792059, -0.08890952576931445, 0.045667749214857445, -0.11016890649473375, 0.03924027450199139, 0.12112150463963632, -0.22642070133958553, 0.08408810854745057, 0.036941018498915075, -0.0702298852023418, -0.09313670673514686, -0.028972279593402366], [-0.08059784354558648, 0.018535769304545306, -0.05215911282201911, 0.10766211333039338, 0.09691348599508917, -0.3145846839298769, 0.02012267485817354, 0.010887094365656214, -0.1938909338890767, -0.022472682562166366, -0.08151963488103414, 0.07648930108387436, 0.12062759203911583, -0.05046635223326973, -0.029264470580670426, -0.20245307741453739], [0.002714215162624476, 0.013296882299136819, 0.10489478630849529, 0.07611199319740829, -0.12575082458098272, -0.09746664961153052, -0.06647472403179662, -0.0018657464494564887, -0.11227474089732897, -0.17143349457897208, -0.010930244533721888, 0.09782121800698768, -0.07204895160884, -0.013290316681091215, 0.06545478260865348, -0.23826041069572385], [0.21802810847810578, 0.019572478764400488, -0.05309827504455142, -0.0956930294794973, -0.04185368977332325, -0.026266883478296556, 0.010565962779569246, -0.025348164039681383, 0.008520947122427186, -0.06018385252191727, -0.03079085472659147, -0.040143544831058246, -0.010907400582189112, -0.02717918490929642, -0.07177113942055315, -0.04182604895608914], [0.05682948873932747, -0.1629232749124459, 0.18004482689116597, -0.11818082236814172, 0.07648623118270327, 0.19164597180884899, 0.011846423306754346, 0.02090018948807181, -0.00353678725660273, -0.16683893623648516, 0.059140347350882194, 0.012856724739306512, -0.07406782620039724, 0.08596424389274376, 0.14924504712203765, 0.017693430084119555]]], [[[-0.09724887562699146, 0.03622498446508231, 0.18824743674471556, 0.2619071369056494, -0.20861562054934163, -0.013555328381617066, 0.14359086515842548, -0.2115138276921636, 0.10111555580863314, -0.19842899170200293, 0.21855841630661738, 0.05173487244907974, -0.09007405014945974, 0.0821678308897921, 0.15797001230542296, 0.14405735470544537], [-0.05142307238762104, 0.11934611124068419, 0.12670995251691405, 0.04052838380706036, 0.006691914876669329, -0.09392803942518375, -0.4059162741717904, 0.22679465984200642, 0.1012890490305205, 0.020765292144546716, 0.2859550661071547, -0.1605904847348182, 0.11177543592898159, -0.023073531925718194, -0.05451506999739115, 0.07797513563049176], [-0.07080266425644949, -0.07884318022842106, -0.07576026918980684, -0.1087017173624791, -0.04535069672808626, 0.17145750944206148, 0.008802363672132354, 0.07604734445356953, -0.0633883444528724, 0.02437479195717996, 0.14344217376680332, 0.09644836617937441, 0.137381923189022, -0.023514573292535253, 0.0739436794204358, -0.058639548343311323], [-0.10897516115641795, -0.08846755656864416, 0.02123483955787665, -0.016388707760426613, -0.24811638360388483, -0.08170924456507862, 0.08248388716355778, 0.17081639338366356, -0.2180942600342888, -0.011766136463797497, -0.0034256840328624094, 0.03614913869894699, -0.1973655981237612, -0.010195049598155783, -0.13049539408414268, -0.0016609902334155952], [0.03721859747319137, 0.05510977917704656, -0.017060664226969495, -0.030736702694170403, -0.11246661195860022, -0.028093585337343862, -0.09648977486548453, 0.19023037426699133, 0.008826706890056178, -0.05938275271813828, 0.009063780378002815, -0.10170275810123888, -0.055820307904800116, -0.002600946233251626, -0.06593892482268929, -0.01597079265998975], [0.11145650848563152, 0.12336594519642448, 0.1310112061214067, 0.07016728330506385, -0.1268412071305684, -0.08744958439113307, 0.10486529671824825, -0.11013370831259127, -0.08607064575004364, 0.044764675290022184, 0.014769474090642037, -0.02517632799346714, 0.04096410166695859, -0.02868955148754271, 0.13964188834345972, -0.047006720609289745]], [[-0.10370787082741377, 0.1811564711081132, -0.10586851263107816, -0.07524550878847587, 0.21368503403589903, -0.08941563634407126, -0.022041585062262906, -0.1967747550272652, 0.12434888105780194, 0.12590497189753594, 0.5152694224902231, -0.06278103720281299, -0.177455164736823, 0.013474002505941482, 0.09449786578539755, -0.03884371434301565], [0.19057322936137214, 0.04975936256252157, -0.2354774889147194, -0.11589687993686616, 0.21372300091352844, -0.02581274010949435, 0.1252184674240573, 0.24394932789096474, -0.07066293304581678, -0.01584089449795298, 0.15813287914803215, -0.11686016610654322, -0.04402269811069269, 0.08994119197972068, 0.07287382891311871, -0.10651653535469363], [-0.06890396009323722, 0.009640250593388314, 0.06272701398222083, 0.09426224215797051, -0.01942113395242694, 0.10345741849898683, -0.054020276103728095, -0.04881981724156554, -0.034114793694488804, -0.0521370500586456, 0.08190498869215572, 0.000411029700280025, 0.10003008387661207, 0.007159152062112378, -0.04875695314425968, -0.019710909309611332], [0.23854262960257316, -0.11807675710083493, -0.008101383567137391, 0.1452621887497058, -0.056901556998842424, -0.13284759339243846, -0.026577496996045485, 0.07693647191796635, -0.18670484776301588, -0.06132255523450433, 0.12032621066255514, 0.01185316815991927, -0.07918292235729787, 0.00853743698435918, -0.06513401354500895, 0.056244353903609975], [-0.13924396917020826, 0.0814658976834771, 0.006209858049721303, -0.038443427724143636, 0.02602774872954576, -0.019865878168543738, -0.07796993705347115, 0.08090892442538132, 0.010442385918883102, -0.0053884894531623035, 0.17172009534856666, 0.0057182350594049405, -0.059378825362071536, -0.0390178401977169, -0.04633012518940491, -0.08327814218584358], [-0.1740192256563763, 0.1390719793952908, -0.10467908864134542, 0.12403410643227678, -0.08061634441039733, -0.0951811668535399, -0.13826744108963646, -0.2633927579983727, -0.09487218448833358, 0.10020992519341339, -0.11100065145223183, 0.05683031882708588, 0.2104721403220088, 0.12434858823029239, 0.13555613855382773, -0.1266983651777257]], [[-0.34694582880868896, -0.21116182978028353, -0.7677875887260192, -0.15764638212137408, 0.037995725694521865, 0.08241317276882597, -0.10923249261577878, -0.1732021397746603, -0.15312121098070958, 0.07146603294898116, 0.48852510949634725, -0.22017037206059323, -0.03338757629715617, -0.01549178709262857, 0.08102351747833261, 0.0962504495341607], [0.05021286266360966, 0.13607296996141852, -0.6003700914779414, -0.05968271988819824, 0.01980415030923891, -0.0830551659720551, 0.2732670031375604, 0.15548058256300837, -0.11341913923781663, -0.05607358480128278, 0.13516490918745888, -0.08975293706476345, 0.18342068162747413, 0.21978342559927522, 0.023128933937646548, -0.2011996257291299], [0.009189007329524768, -0.07433144598609252, 0.10145877884654857, 0.1857174019958254, 0.0835316975402386, 0.007619099854049571, 0.07679373224261948, -0.03668782026568459, -0.3719725968683974, -0.09674358978563861, 0.052733228955534735, 0.006571961046155294, -0.09615503324931339, -0.050157107810913135, 0.1391231197840776, 0.0355328855344999], [-0.43463573032097247, -0.1467429163883726, 0.4488289181413122, 0.22072672326596224, -0.042964521327011014, -0.0519383598383219, 0.05926854813302342, 0.08403194720434198, -0.30735494207553304, -0.11240235929468435, -0.035498862150410204, 0.03667634373255041, -0.10243352853107139, -0.23058275292855285, -0.0352222292589912, -0.08487096313638347], [-0.009628732115615149, 0.12296474940106855, -0.022749506865784808, -0.1620548789913233, -0.10668448226793795, -0.0357706463979392, -0.20869999342056317, 0.015902603191631764, -0.0041877841801896045, 0.0037094003586701156, -0.0011769509440152086, -0.008497764390897155, -0.1181524363487348, 0.027966332329552066, -0.0673129917057471, -0.042459541492951766], [0.1505177240811621, 0.12424447535491462, -0.31691198499948253, -0.15238620946438058, 0.07761574979565508, -0.01213935152690718, -0.004983357596137261, -0.16538640342356334, -0.11100571084963848, -0.01589296305562342, -0.17831839691747498, -0.07289649451616821, 0.07065064985273549, 0.15274063273571034, 0.016330644947007974, 0.14664514466887202]], [[0.1637282781278759, 0.012486854608050582, -0.41957403430284856, -0.14894540712859194, -0.12705964446526444, 0.022636715262739155, -0.29102920915415986, 0.04041556578789243, -0.10539632945035945, 0.04131715673593414, 0.09716439221908238, -0.2608516988157941, -0.05303526532421034, 0.10005806157136767, -0.039370877994771306, -0.07268996962668402], [0.06275902661814012, 0.1407045970716503, -0.19572170730797517, -0.09337669239082208, 0.1295850913138295, 0.04078610270528333, 0.38612310732624194, -0.06896486266649246, -0.10574185766349367, -0.026812492004992503, 0.19028297008518527, 0.10307144604117256, 0.028550867411872086, 0.09486141278194546, -0.035535935721846, 0.16370623488572975], [0.03331503064465095, 0.015772609894953205, -0.032407065939016905, 0.02570215816105715, 0.13098181904736533, 0.03874311875440927, 0.22211259284389903, -0.0059385954019583655, -0.1278324408993999, -0.05010835857268463, 0.08438587467949057, 0.030770790701894833, 0.11958844219849571, 0.05341491561710695, 0.11593256796370627, -0.002739189396035811], [-0.12140200770611458, -0.041935921469895235, -0.26369726180779485, 0.17744270054869613, 0.05322403377382446, 0.07411578963073677, 0.10713923321580586, 0.16592696701823093, -0.38031604585923295, 0.026993352226947417, 0.22847648756812022, 0.030104326752100938, -0.047662873211308875, -0.12379545762263004, -0.08484042294180928, -0.08591682838833183], [0.21627322805824065, 0.05287351912527505, -0.00075783340754801, -0.10192648795575446, -0.04170759765218941, 0.016697482657095877, -0.05584604659643697, -0.031587981661934994, 0.04820197481413704, 0.07133481582103424, 0.13941342521691838, 0.01506542867976358, -0.14842876733185764, 0.002201634325580578, -0.0901004039024916, -0.041527100636693966], [-0.04331708690045793, 0.1007716634179515, 0.02284739404370867, -0.28850708156375177, -0.04856573133270474, 0.02214621399854148, -0.030074236471829906, -0.06900721908507032, -0.025922131522829277, -0.12249961010357877, -0.05297446146673653, -0.1604210736654674, 0.001474537221960776, 0.04107700964664647, -0.13167284124168832, 0.15347012839522076]], [[-0.1012792150344163, 0.030539848773042028, 0.4362941302724944, 0.010656079571953183, 0.19775518802948883, -0.033523422923749636, -0.11631227123050981, 0.06294344662389069, -0.12552894277919685, 0.061178727549835686, -0.16700428194030728, -0.3920180540039667, -0.09789630003010807, 0.03841952149365396, -0.045378896012181175, 0.12625588138753327], [-0.09317325393867826, -0.13092925974027694, 0.22286061318476788, -0.13584456526699318, -0.03605548653742424, 0.02175884462938027, 0.5917485931799409, -0.3076264346550592, -0.028265155458679414, -0.05915939590835521, -0.0750155592638216, -0.0480226481686931, -0.08007373882236678, 0.04272398556661698, 0.0014383752149509654, 0.16492654452505126], [-0.047186370977043327, 0.0220630031595281, -0.008418660873896325, 0.015659348273548163, -0.07924393950402657, 0.059968704204545406, 0.19853233292851866, -0.10609855366865147, -0.22172094805313158, 0.047365429286263055, -0.14158274721188985, -0.1556573750432269, 0.06262620366995474, 0.05271022850484605, 0.0640359231360671, -0.10991953971144522], [-0.12063631665670495, 0.06620020599471035, 0.019568924307834225, 0.02510395178565981, 0.06008386551806889, 0.051385774905519904, 0.5114587666344054, -0.018115014130914694, -0.07165131622049975, -0.08051282995135726, -0.12649291751292643, -0.05854427652277958, 0.018898434840461862, -0.07371914966036722, -0.0681466937623112, 0.20885864140340693], [0.06692931011814104, 0.02921603574122248, 0.058526224981518556, -0.023556017684598172, -0.107454429243231, 0.005692783700699903, -0.02695135971546583, -0.015574026220993764, 0.061031329667075335, 0.03407456849839943, 0.055948900766788476, -0.08436252674628941, 0.023332420795788504, -0.05570909876463011, -0.07974098160121426, 0.004284556322864551], [0.09826775132957474, 0.10449918617471944, 0.10905964420367062, 0.04319571749116314, -0.1538908451897684, -0.19995238590324568, -0.0627667333491233, 0.05149350437335312, -0.05515306983087479, 0.036921865995911726, 0.07535445179325294, -0.09780720073161644, 0.2688691367913513, 0.12959162537570257, -0.014142836480682094, -0.06225014860041253]]], [[[0.08046208441962742, -0.04074867618330513, 0.286804597422508, 0.1677938955242591, 0.16947960205546161, -0.04119595378099907, 0.3117106096061902, 0.06941412789406527, 0.09475010393713298, -0.2958729990777843, -0.08223740880903956, 0.06596859570212618, -0.15996374167269395, 0.05922839700371405, 0.045461844324878264, 0.0015142147087110417], [-0.12777175144669045, 0.08203859925488557, 0.19406312113263394, 0.018714322552511636, 0.16381796980091867, -0.13435633559265459, -0.44925598615357004, 0.09946847676535867, 0.26830508877290604, 0.008008763854212024, 0.17900766455974584, -0.2450167426037378, 0.15711554708441428, 0.037376853999696216, -0.20398182253097102, 0.13634928322637047], [-0.07037445716913075, 0.009776032463493681, 0.007009108085335034, -0.3181560116671515, -0.1278772005092635, 0.0788721644670201, -0.0744358583768505, 0.011013975456890965, -0.1764961388169035, -0.10479155701253663, 0.07648444873444105, -0.16091465005373548, 0.05509387390697541, -0.049044652241501535, 0.2571298077518508, -0.10659207560169973], [-0.012688263698182519, -0.054108521576767085, 0.18956337011841787, 0.018202879566434817, -0.01140742068815471, -0.14791544723672392, -0.002990304540761341, 0.13520745592833536, -0.13835448176202342, -0.21410453091385287, -0.24798870995474195, -0.05523160849718125, -0.10163652093294072, -0.21354541642755548, 0.019137189314630352, 0.06329635241288231], [-0.10343393009536397, 0.0004560994504676701, -0.058951042208927565, -0.008618417154009007, 0.14159496709552122, -0.07547511260057926, -0.10256821551694253, 0.06793166898665952, 0.006468716733632709, -0.05609490930820722, -0.016630707452853877, -0.10671854399303346, -0.033795837406171564, -0.048134848412429786, -0.07624030333687042, -0.014410111969502079], [0.26562191921540723, 0.15974785360262728, 0.12623328915038334, 0.07225625856331132, -0.06237926385017706, -0.0007115843587357051, 0.05776123001384132, 0.1270111380993098, -0.06906001932329359, 0.018637918605742234, -0.056970656433600886, 0.014427474487638184, 0.08583657136043737, -0.15679898060191477, 0.20473473961936434, -0.1730321047073367]], [[0.015488353125636536, -0.06041314260188947, 0.15223230353701872, -0.08339416152635384, -0.031137046026196106, -0.08196333177729608, 0.066140518173799, 0.02815079849355996, -0.08146994266310635, 0.13045260572346906, 0.059338906082871797, -0.13557138090394588, -0.010617491768731828, 0.05417404465845817, 0.025593152467167563, -0.125973954523103], [-0.08166864140611003, -0.06699412144892575, 0.25374965801233823, -0.01827446274572978, 0.14110447547371843, -0.16713001718207243, -0.18913937747992188, 0.3371755951277102, 0.14590047052219576, -0.06317411353956646, 0.16951227639996339, -0.26276666070503313, 0.10035776828642783, 0.16861935118595586, -0.037954326361907806, -0.06456966117139909], [0.04762641832595486, -0.1292499260398346, 0.057419198329141746, -0.13213630632847612, -0.02019839143054905, 0.07584975147510137, 0.018453900000801667, 0.027149562283518627, -0.15002981330482382, -0.012578398215364897, -0.01566407886183912, -0.024309129601891973, -0.09107724046000133, -0.020929517811220898, 0.0901077555730468, -0.11019371889317688], [-0.205370763311258, -0.08208415273654397, -0.13927158009785234, 0.09712834886020778, 0.0648674527861117, -0.21751622416799896, -0.1674593915728606, 0.1568324843917877, -0.10480203785958289, -0.02913415567683917, -0.2557141283238913, 0.05511294691904084, -0.04868755637547977, -0.2208119950736474, -0.01719838330922468, 0.1453101756018304], [-0.06642491675433218, 0.0877976790623169, -0.06585180199019007, -0.08173786241870491, 0.08812876555319496, -0.016739612060612627, -0.18240011004724485, 0.14358920643263107, -0.07476857070638464, 0.00593105762273241, -0.008308007881726236, -0.02045895145065534, 0.010154523416720048, 0.03945275884255886, -0.14240954689362784, 0.009881735847559274], [-0.032442668351983145, 0.009562980275716032, 0.026201168897323615, 0.13340974122066854, -0.14330935587691224, -0.13671644687483037, -0.0073909786175468655, 0.06726276333998024, -0.06272397706707485, -0.015567466255697465, -0.2048079568249834, -0.14443616829991207, -0.07781142303596414, -0.02578097873668812, 0.2288745893550246, 0.1606212493345284]], [[0.0717200673923543, -0.23656545937260523, -0.04923652120642519, -0.14506677813350993, -0.009116411173852581, 0.043725397595529555, -0.15591712050852227, -0.04459570281255106, -0.13404627605252417, -0.025014431438790605, 0.08300042029668094, -0.2786555906033011, -0.03866136593920433, 0.21977830684954905, -0.06545804774912369, 0.012876368592762763], [-0.04162972534655593, -0.03245301532945899, 0.12699112259482762, 0.0294041348248842, -0.06580746380518884, -0.0036130376161500975, 0.08851182922918069, 0.25674081634468177, -0.00013774083941197246, -0.07293302312625534, 0.056367291390067784, -0.23110735933968973, 0.17154305728394753, 0.2070051931630693, 0.016901958779333412, -0.09571566496908397], [-0.005481182020093961, 0.00573354734874368, 0.02589363343708563, -0.0679971441708116, -0.002839522248573172, -0.002065777764070197, 0.11965532271197919, 0.02006462290619481, -0.22516175578766345, -0.007488608553028664, -0.07451577161699488, -0.14446228779578563, -0.02763079541671671, -0.04385669919935705, 0.13546482137041868, 0.028038958341911467], [-0.17751760917995055, -0.006663971242576548, 0.08616822123499498, 0.06017876441239884, 0.04160415029271424, 0.022305500955139765, 0.24864613981410322, 0.048071395759454974, -0.17151197232079907, 0.18493467753220477, -0.21839434011113013, 0.0789344273015328, -0.26452245075556136, -0.16143358247758666, 0.10360685290135528, -0.3024940388379907], [0.14204572105667362, 0.1697430890875107, 0.024398138164248993, -0.02358666583443352, -0.03313301400038695, -0.043742585868083, -0.043900067001326454, 0.03840909747003833, 0.02656026134897618, 0.04638879401728786, 0.012333277196030418, 0.09110303939452255, -0.05273477151378683, 0.03115210051499161, -0.052447630423416824, 0.038555309537971], [0.256035390281365, -0.10545893799594017, -0.1406720012435779, 0.17710865127755415, -0.07574852214364361, -0.05539776197196796, 0.04460698043860232, 0.12526806477726202, 0.01277643837375704, -0.03230947696803618, -0.06470778524433903, 0.028993854782370997, -0.2055196606124241, 0.23589217443807883, -0.04607477497748134, -0.02450377408251143]], [[0.19746220918959134, -0.10068667581040595, 0.12813701247296524, -0.17715172648499972, 0.12044867473388243, 0.10080884247083972, -0.40398503664417224, 0.012046819148077082, -0.06248466555198322, -0.19744329358422025, -0.08911131510457139, -0.21860330103059059, 0.06350308489260548, 0.2209585422494278, 0.13080011254330648, -0.06166984566870045], [-0.10093946297026817, -0.01714234235467367, 0.1568761371657039, 0.02420137378417355, -0.04238544490676475, -0.08436023872931087, 0.26439278867147825, 0.0561887525903441, 0.05410070350237918, -0.020789163536976595, -0.11662364230513521, -0.11143358903516935, 0.15943490149412595, 0.27068158599170794, 0.1317846274574336, 0.18950288041140112], [0.0014961474126309582, -0.05506218794088505, 0.03666883210824384, -0.007061072154653087, 0.045708709053431426, -0.02626963092338924, 0.051368670357610786, 0.015867677865254462, -0.07496787174075882, 0.01238899898599283, -0.08188006572432739, -0.16815003456111244, -0.029321187917815038, 0.002730581307783112, 0.2777214576996568, 0.00407240345675169], [-0.018546987788440744, 0.02085667715964945, -0.14995035119094155, -0.03501803610755697, -0.09680221365016921, -0.14846519412347958, 0.2807414338143337, 0.10649451026550805, -0.10422278466359577, -0.03292909279494228, -0.05950352682357269, 0.09790717899635784, 0.0754833877738272, -0.21605897666714197, 0.008094106967356934, 0.19037937486620998], [0.1139673377316182, -0.01606277611175421, -0.1323443019509828, -0.09364961779306757, 0.01355994912325667, -0.04439909759202615, -0.09816699785636197, 0.025384999852948904, 0.08661643401362386, 0.05876612477900491, 0.025433881093445836, -0.0026506941371882333, -0.10642260069868834, 0.14211356352432092, -0.07674013634717795, 0.06289888788452057], [0.03777447573010936, 0.07206769440501687, 0.05941098383039519, -0.04937460342731267, 0.04104089103319717, 0.06986330084875773, 0.15341324754424143, 0.07264703795289658, 0.11584605523386454, 0.07503521302452051, 0.015020851599915983, -0.06721532746762676, -0.011639743273759853, 0.19530167903700746, -0.2636498014937584, -0.16552877751548228]], [[-0.10244770655421932, 0.014521207489317147, 0.360733884342438, -0.17933821504951236, 0.13834135040601808, 0.15118023518954923, -0.42993355602133715, 0.23405497565092703, -0.1570050311239844, -0.06934134605231791, -0.539138160786352, -0.5228269874241557, -0.14743562213388342, -0.03935869365175682, 0.09438332345664391, 0.1593246325245537], [-0.09417462280273009, -0.056494037713198844, 0.18061640568380927, 0.1833267743823785, 0.24811165293051193, -0.10812382858726068, 0.40419132609689334, -0.05878815331263447, 0.05620569506078515, -0.03221916632079582, -0.24300900407610973, -0.09492076755731972, 0.2678944786778464, 0.15316428936768478, -0.30170884519507524, 0.09969446854872606], [-0.10575047467755654, -0.004490592025318993, -0.014472574543462938, -0.15031060138139585, -0.015762217361734405, 0.033585063248470076, 0.10109911362366412, -0.07686360156613875, -0.13766210004673166, -0.02776871669474895, -0.10135568110207513, -0.10620266935063406, 0.06054141165209928, 0.0029773173438093574, 0.08647365842478852, -0.09917273423225245], [-0.085878463453349, -0.26641573574369826, 0.04535020346722564, -0.233017331446955, -0.10598162312349327, -0.08812536162332217, 0.18234982714315112, -0.19912264868551188, -0.10292539945633312, 0.027502178232665438, 0.1317208899432241, 0.13725294117140777, 0.0013980519107743932, -0.11207505592991933, -0.10706426817439942, 0.1622980400881658], [0.03384192167576629, 0.09130902236079677, 0.020055713400248493, -0.08692172666472267, 0.001779144216357051, -0.09352806568348677, -0.05335249001319275, -0.20163912848714236, 0.0057268148803405515, 0.14133478267274335, 0.17946299565896728, -0.031201369854526036, -0.13828569319937653, 0.055023752921277494, -0.10288264788108584, -0.07860253583049372], [0.10701842355600835, 0.1897090658152361, 0.11183680839072285, 0.1541991200971194, -0.19584049433952308, 0.09419958228266828, 0.09564551657268308, 0.2840834916544221, -0.035440336090907375, 0.0072635764100642455, 0.18943858937922137, -0.13402448311803328, -0.11284432838100246, 0.17315981087411336, 0.181868169102279, -0.02996430602525003]]]], [-0.22003081150829473, 0.13655131526268868, 0.34408762538802, -0.31717511587124186, -0.7545085547761242, 0.4857546895382743, -0.9226421858122229, -0.16583916413336774, 0.13293289907181674, 0.10558234297850501, -0.18590518582548773, -0.2343376381313893, -0.280731459065016, 0.3021879658673764, -0.33168478467593626, 1.5360533172237967], [[0.012729920565318001, -0.0740528631582645, 0.05904412712319012, 0.03600006101233365, -0.03534727326965756, -0.027608021745336456, 0.12728327648219542, 0.08254242312251739, -0.045422238706866555, -0.05616897893910448, -0.023532895403786107, 0.09750558008284826, 0.10821150594989057, -0.028467981313651053, 0.07124924592884066, -0.014902723556182978, -0.06498699193399701, -0.08041753764517685, 0.12501517011799512, 0.029828819126910322, 0.08357497050192397, -0.0025393160256479796, -0.12337627781621707, 0.045568715121130234, 0.049755697108307725, -0.01772882112877593, 0.07771383713065427, -0.12011034817221855, -0.06469202781814445, 0.035158222821035874, -0.05507443452647973, -0.12334224505180731, 0.07349593754813499, 0.036440086687893315, 0.09828603070102902, -0.11019217967545193, -0.10118288163522914, -0.005085606648327304, -0.031444614202876184, -0.0375227677747435, 0.16407496948847583, 0.11649632896226304, 0.08451245468831989, 0.08000587164290397, 0.06097615535728751, 0.06169835170556745, 0.10333702899812595, -0.05124276344710892, -0.0384142478113725, -0.13968561906477914, -0.06892671739092722, -0.06943538234405212, -0.025105992442372046, -0.0026132811185047575, -0.10547626082464498, -0.02824154597978133, 0.026938900397405874, -0.05456005992378693, -0.12185939926399762, -0.08084313686142663, -0.06137150254671913, -0.14654813019148857, -0.10244930044421004, 0.03811359916768115, -0.031667730576779664, -0.03082980788210371, -0.03770343025223571, -0.0816035783932951, 0.03790354824386859, 0.06021932338457479, 0.05995834453585643, -0.08766423978309307, 0.018871368159023388, -0.04775255156544929, 0.010920266375094833, 0.027331099151230023, -0.06975063127772577, 0.05915647992029376, 0.09967938272848409, 0.04693845832775394, -0.03820249886765577, 0.1469766514481649, 0.1551828557248363, 0.002534612133366819, -0.061052929888836954, -0.07824539511957058, 0.12810462696642527, -0.12321407375673353, -0.04392453047769609, 0.025197890206908453, -0.02534000596453961, -0.1063090755850724, 0.06069379488450949, 0.01505615803592938, -0.010510299069514048, -0.042998969992854366, -0.108258738797754, -0.015503247823796024, -0.17011305653506706, 0.04826211561531985, -0.08161673801026807, -0.00829657721387549, -0.02520253316034434, -0.030610138896819232, -0.08256495185431809, -0.01896917009898673, -0.09782364872070101, 0.06899701299481784, -0.12230517171992696, 0.021838200543955973, -0.01935045758041394, -0.001828762072183663, 0.05561913502285764, -0.004332122936486305, 0.016591432496151186, -0.044114356192878915, 0.10754771244809484, -0.07080333890504442, 0.02697944058265382, 0.044698238076297844], [-0.08526352114084303, -0.08620729349299248, 0.06254705781725409, -0.13594464709501597, 0.07411570295261356, 0.038265632357046546, 0.12826048176053886, 0.12781555416747456, 0.05585092784322252, 0.01908582106431941, 0.03148057365990726, 0.03128911078814473, -0.1318526978970549, -0.03662627656101489, -0.00048802802076628376, -0.1312528110757959, 0.12425763985623971, -0.005029675250125246, -0.025898647145747015, -0.15274166503876233, -0.07138637471433891, -0.15215329514752976, -0.02031472976117446, 0.060294927269182265, -0.06085204070483982, 0.1885901570649983, -0.04919475659734306, -0.03922814533719809, -0.060336518058928, 0.021988542001686047, 0.142735708352588, -0.04309833096025883, -0.025849165489987003, -0.01212432835515952, -0.11823752605608125, -0.040218868437852016, 0.058429667476339486, 0.04836834357548804, -0.045876347918910404, 0.10343559338498719, -0.034880476249270806, 0.06870246781776909, 0.06931469221394512, -0.07000580109542867, -0.04127347939494943, 0.009151836090675467, 0.04222032002069459, -0.006992545179512717, -0.0033430784956375486, -0.08795839636049306, -0.16641662286101297, 0.002551429722219512, -0.019397051111300675, -0.06624223838555424, 0.06952812552355993, -0.1238874292183854, -0.0609940486623456, 0.03305722711465808, -0.050340257723600665, -0.0526044525747877, 0.015751373557855934, -0.034240059532182454, -0.010358565530073915, -0.04037862502271491, 0.02697141021001241, 0.02667309323894314, -0.03156314272421977, -0.13698966787171332, -0.004993652785088144, 0.11841189184980729, -0.0264303989491319, 0.14986562737395356, 0.010571900113732956, -0.04785333391936691, 0.06976002617182563, 0.10572708840799204, -0.13950309927297563, 0.13528149875436285, -0.019184663177832025, 0.01764797265161986, 0.08387076841750601, 0.09466919325464845, -0.018549035872321568, 0.01465629811473816, -0.02664081732785259, -0.030471356139141193, -0.008040079124332562, 0.084850855708025, 0.007513465278383816, 0.013580085059270471, 0.020678678446951964, -0.08082510558564715, -0.034427022336537945, -0.013718203632257129, -0.13385782241052796, 0.08392645480409501, 0.03200889950862585, 0.023007165228619814, 0.05799498485101981, -0.0035899188320022094, -0.020278555541767496, 0.05130858596555432, -0.1219102543770728, 0.03609635455732517, -0.04106017021827286, 0.05480784277430659, -0.1073506839435835, 0.12799600653778276, -0.004835970466489894, -0.07628461359608919, -0.07997696618427592, 0.048584406292445606, 0.18748280063785044, -0.10578916665799827, -0.022631720628035163, -0.19069894374221252, -0.09832453204663263, 0.022282002612292687, -0.08607602586215116, 0.05379227823404977], [0.006209661424547645, -0.09509797636446832, -0.05384457494973769, 0.019806595291012332, 0.06730262614088586, 0.008748087808048094, 0.16895138646817975, 0.060487864872966736, 0.06658525695657026, 0.00403301548800842, 0.13582789694136357, -0.08249568824106192, -0.013211663704478512, -0.11020606865037592, -0.05142405240650313, 0.005086923300811568, -0.06437231926368946, -0.08721246804920144, -0.03436739845753158, -0.09010034365417019, -0.005970759617937859, -0.00945170782441502, -0.034806362253711545, 0.012224232681912783, 0.06182613705422086, 0.028162914719507798, -0.021153882768462, -0.028550029100455603, 0.1868071752136399, 0.1776587389943545, 0.00536683187158468, 0.1275142414316629, -0.015553664121733275, 0.012615802480067374, -0.07572021545302861, -0.1046457206495117, -0.034969764313736405, 0.07716344134544846, 0.028872787303210815, 0.01734196724057874, -0.03270918038509588, 0.048527153096485, -0.0640011864053574, -0.05476013305189912, 0.009363206928672629, -0.07257514699264, 0.018291044067665792, -0.08176000499394663, 0.045393232759184866, -0.02171889324818356, -0.00784752410609911, 0.029468799292937702, 0.1253422134474538, -0.01544313885621528, -0.10176395246769211, -0.05326748595916769, -0.02372572602209059, -0.03872170916262125, 0.038666928927703015, -0.07170078769042985, -0.05729065582783819, -0.07339723376996488, 0.08415453790226124, 0.015834499552174496, 0.05244269789120822, -0.025839487656910628, -0.010698869425401873, -0.08290842441677211, 0.07796558077046774, -0.008561465263876963, 0.03881890345737658, 0.1390202800117289, -0.12283122168785737, 0.033667011422737515, 0.02974198904354684, 0.009459839461538442, 0.04336144179409458, -0.02379632629689045, -0.09435259903824271, 0.07292107218885993, -0.0301394510135341, -0.002068644644425109, 0.05149244535838212, -0.035856784676830525, -0.11476242189189968, 0.007882630005058388, 0.0589603798360009, 0.08380043575443417, -0.024575744282738853, -0.0424782509179996, 0.004504759718661606, 0.056847687992007276, 0.05098021053759669, -0.03505580602911202, 0.15536976822892196, -0.03689962200649542, -0.04069345641119973, 0.10943943003097453, -0.05992049975292848, 0.1460558307552247, 0.09680985114459247, -0.04962138897842189, 0.04224338129193766, 0.020491489229698442, -0.0884403091759084, 0.06072459158261719, -0.06175983995698261, -0.10228453814268045, -0.1076092230112441, -0.08269853223016281, -0.1452151252694636, 0.02966509282464442, -0.1365547475526072, -0.07622392112227272, -0.02346921271200975, 0.03239367410558255, -0.04418475340732057, 0.045542768993092474, 0.03253133386359118, -0.09552143765310196], [0.029984634543920835, -0.10347797941122391, 0.14168640770481797, -0.10726098551725452, -0.025018135094490176, -0.03128917043747665, -0.05500664534916611, -0.08362583695340049, -0.1267290476511068, 0.051762036360145126, 0.006190564397333856, -0.008931342678181322, 0.0010298497680567866, -0.1000142736628447, -0.07675686366991616, 0.019070680332627453, 0.03981283020599428, 0.10204581592060818, -0.033536407278930175, 0.19653966873396794, 0.22258296990550683, -0.04976512518237538, -0.01690223672501887, 0.09703294160339401, 0.025617617733077934, 0.010654770516225048, -0.012826233230507704, -0.04655922255237323, -0.03181858953385404, -0.10033612427622937, 0.08289789697125113, -0.054261521799606506, 0.04636823797192428, 0.005830210249152729, -0.029390383602826836, 0.02393786926741273, 0.04798123142812473, 0.04586702414891132, -0.16661908049021001, 0.11461074585937112, 0.1250395342404277, -0.02763159506236172, -0.06266545979121904, 0.14279391604936076, 0.06422054758975784, -0.003728066556631217, -0.062398339300673164, -0.06182074170671841, 0.11544779369279193, 0.10147830254153471, -0.1553169315095274, 0.08059825617926943, 0.12034561918450166, -0.08484289144583908, 0.0768709563830238, -0.09275561714747689, -0.05756592463079059, -0.10500802733939761, -0.09726941929104892, -0.06657158840054443, -0.03446104160392633, 0.09471704503874251, 0.09056221491564954, -0.015946232323839078, -0.08794700040780626, -0.03501187360333111, -0.12450447011792584, 0.10395190074852757, 0.1333039855303377, 0.061951805678454736, -0.051347033874319145, -0.00030145459931200805, -0.024792210951855697, 0.10112138504034424, -0.07452795152508081, 0.1642634056218843, -0.056823953857699186, -0.03775724120214319, -0.1143140408155575, 0.05269100450371388, -0.15592478650617153, 0.20419647217723766, 0.08535085033256087, 0.07069993041072366, -0.011343644923140186, -0.12869138149854276, -0.05104355942652666, 0.054041553079629295, -0.04311261843531, -0.132433776514605, -0.1151483516583561, -0.10450105407322022, -0.09404833096736492, 0.0731436111018968, 0.01602927542394824, -0.05032232791094761, -0.0025084019635829235, -0.030242127907624233, -0.023055029450587614, 0.065937243479722, -0.07356349575184339, 0.021823319762574234, -0.1512331537494653, -0.027256511185268135, -0.041448848793539765, -0.17870766456860804, -0.08514399967189731, -0.11130305704708882, 0.09475813998422672, 0.027756249260060387, 0.019968438562372737, -0.07415057781015137, 0.03675918842938294, 0.06012200966453149, -0.009766229335354742, 0.023737817933709354, -0.04402820846709373, -0.13972808155459965, -0.06914390548051753, 0.08609124514055644], [-0.016520586594632704, 0.11971075381651339, 0.08143178487104755, 0.01076769195550757, 0.28363895034521946, 0.03700273463583242, -0.0592163224116718, -0.07814619963142687, -0.06000880082081705, -0.0019006725314585995, -0.0281849564179047, -0.10797905709986906, 0.005964094086764593, -0.05546857637115754, 0.1195943161821927, 0.13258194787480138, -0.07605638627320899, -0.03918840992000076, 0.026155996623590975, 0.23457714593198664, 0.020083663783878502, -0.010217683639261729, 0.036167563054516454, 0.01153649741011502, 0.056016000509758246, -0.036971579780941316, 0.05840301589462951, 0.054688759654491645, -0.0499507874973235, -0.029234210692533947, -0.08709321790338545, 0.016227285166776604, 0.080886698221639, 0.042389119509520796, -0.07918327192516583, -0.0658593748795057, -0.08951726671900666, 0.09486941154314403, -0.029576296816430755, -0.057854025811746056, -0.1782478285514864, -0.039235795245755455, -0.04963720212474451, -0.10990379245213962, 0.03939717670590566, 0.033179605795280114, -0.07532431899087265, -0.016891130079941447, 0.0067582509806225575, 0.0783694037374368, -0.09184544067355502, 0.1903203105181099, 0.09234816094429285, 0.07769467865986031, -0.0934161697769362, 0.013076418054765893, 0.03092846331938782, 0.03075405623952084, -0.07450464601242093, -0.11942391090222519, 0.06290722518063986, 0.08808409442071478, 0.027519369286194164, -0.015826879583234803, -0.1400986677665336, -0.04856891085584737, -0.08509585919670863, -0.08580438859620046, -0.10969356055710386, 0.08317521440776209, -0.15338643870653648, -0.07033976363527908, -0.05688674645509039, 0.20517877968438522, 0.02396673569807591, 0.05147966548077364, -0.05282199052605532, 0.0018853837768028322, 0.06898699683035359, -0.1490793421264842, -0.054175680504272086, 0.013402471354516393, 0.03988178538777251, 0.02983059936522566, 0.0007266439372409897, -0.00904653311759055, -0.05537235203208902, -0.04401098654716209, 0.06898693274797713, -0.06162099011667825, -0.14080918389618532, 0.08178946712111368, 0.015011685495877761, -0.06400765686257297, 0.13115871685962627, -0.017911430286992238, 0.07091114102952682, -0.10625514854761586, -0.09033028131295757, 0.045070231073949654, -0.02002593937404191, -0.08251497280162363, -0.24381671248669562, 0.17664896762960922, -0.025833650460818067, 0.04204983615131576, 0.19978979870580177, -0.04032988209540152, 0.05644543692522495, 0.003030332652826707, -0.15683121325952942, 0.1293424439737966, -0.0019844043177840724, 0.014283670320237371, -2.6322776518740134e-05, -0.1053975368603583, -0.08933803236151447, 0.1629244670159995, 0.06495694667863798, 0.11661483107179649], [0.0478879095580918, 0.01351414300682824, 0.07268647340408556, -0.03837509714465461, -0.10475114766088106, 0.022591908174407982, 0.024671343825533862, 0.020983429046435142, -0.05321684640363278, 0.1114087477672722, -0.060296796062236965, -0.07293829901822824, -0.16716927930349323, -0.011276868932524577, 0.047717814701710784, -0.02356076416687238, 0.0372516988182529, 0.13103880320318942, 0.041725764493513555, 0.1377441776499942, -0.13086530209951233, 0.1060516303081526, -0.015945321165942473, 0.0022738639927997093, -0.04272603078069501, 0.003971667632904749, 0.04376374072499822, 0.06015232154844672, 0.0025993277527426055, -0.07759009450271874, 0.00044912664086288023, -0.033840809580768225, 0.012777990642646779, -0.04058259193145243, 0.0249750423253096, -0.11376406122628502, -0.13142210928929138, 0.03356103394276147, -0.11707831471495725, -0.03023772136317539, 0.01393270833598413, 0.14078452753276308, 0.03740385008780115, 0.0193970372667955, 0.007935676026849161, -0.0035994673125273706, -0.09765325387847634, 0.0395751514120841, 0.06296316107129922, 0.042965873729019576, -0.029385189467519987, 0.03539619711911147, 0.00021332151956618547, 0.06794113149745672, -0.010973574510426194, -0.02305415178368379, 0.14273550269706792, -0.07070942278540034, 0.0401327368258997, 0.1634262597368807, -0.004293097215768207, 0.024124882593864222, -0.12700668866205533, 0.02063112488424617, 0.06888871507662207, -0.00995418975249714, 0.011446391146411205, 0.02742548961676693, 0.021851948921304716, -0.11081575929941198, 0.037375016713773065, 0.010461246124897045, -0.10469245642509957, 0.12963642543740536, -0.06078885072175463, 0.03941400987994762, -0.003095401327378112, 0.20667724469146825, 0.07815812963111186, 0.09264929151836149, 0.0959606372986252, 0.03935121387428095, -0.08919546444360309, -0.0564651542184681, 0.12229210581383045, -0.08728495115384749, -0.017508818418112904, -0.06632124848125193, 0.14910869708078478, -0.04528834769688557, 0.09770355348991441, -0.022286453213977996, -0.05218224846618187, 0.09248245527226504, 0.012860679493043795, -0.13423576222717187, 0.031949429052279356, -0.03648702010941733, 0.004535624526470291, -0.05629810118260437, 0.04743108341186295, -0.03654121499141081, -0.033974702132229556, -0.03964257842425011, -0.06194561324166054, 0.004626780037998887, 0.12701797210231244, -0.020230297429675883, -0.0144382897959026, 0.053712364635648574, 0.05995867407016049, 0.11715314723212145, 0.0793245038662613, 0.07597679289187827, -0.07167055770059984, -0.12702012199760343, -0.05849822251355171, -0.11915602747868151, -0.031293738056268665, 0.054299591495230455], [-0.13856144965326359, -0.03862270988197107, -0.053933478253148384, -0.0337217156603815, -0.009008384388544672, -0.04037380358650954, -0.09388771772487083, 0.15550430689597494, 0.002103592465685885, 0.07597390048381043, 0.011881632874472681, 0.08537252072207087, -0.10884653985082353, -0.01424672129295956, 0.005224322310863882, 0.05796824910644596, 0.14776858147115612, -0.07086518800418863, -0.044911655049948256, -0.030124009156154253, 0.040725083659207656, -0.014949991767348765, -0.0646339110861796, 0.0937506858577676, 0.1644198998534033, -0.0724466054494988, -0.05590079217655714, -0.029181694674441896, 0.010737913986432568, 0.14590359547441284, -0.026612715181818215, 0.0557402363932271, 0.01602496299528764, -0.07556039909186489, -0.07858449509429764, -0.059284529425585826, 0.01793977777168703, 0.17738808116471524, 0.01125404500030551, 0.0053703690200661135, 0.02460212670200349, 0.02573293356252941, 0.0032501744471548823, -0.022385354142513417, -0.14111087159650038, 0.0868880914687332, 0.12136607205545676, -0.016434722978631116, 0.06035354963122011, 0.029732552080713147, -0.14023705234230716, -0.017511229435906907, 0.0014239041767038726, 0.1735750366165708, -0.02933574313648432, 0.04144007001596054, 0.08569753972369207, 0.1603861477593386, 0.011853034333164576, -0.18090985832693832, -0.07286210169931812, -0.12485651720012139, -0.1910145970260479, -0.059540820842543245, -0.04458026169298448, -0.0700461866100179, 0.04622567923256315, 0.14589118617856764, 0.08903438213019574, 0.0771518389037288, 0.05983297626353882, 0.054545280957076614, 0.04169811194072211, 0.04065542093598394, -0.16980160562238086, -0.03010615778504636, 0.006586000111904425, -0.04125777640837513, 0.08245326431907242, 0.02177083595049036, -0.01615637190811634, -0.0064250694211814945, 0.12245834870081605, -0.004052528938725185, -0.09084500000042298, -0.06106694275528736, 0.10101151360890875, -0.12556216560362907, 0.05339873864932278, 0.018529216475070838, -0.18684648529662418, -0.1409626652218025, -0.0017069916547772389, -0.02322892387094696, -0.06122362061011257, 0.004281231755761164, -0.09566607724376941, -0.024956789205643693, 0.009541529327157907, 0.0671318556615478, -0.047211585664823474, -0.004096869150365168, -0.03846315141515284, -0.05962877716543344, 0.02286575856815168, 0.024697816932114158, -0.11005269489985946, 0.19245136694109458, -0.12361959511708916, -0.17960982288934524, 0.046283285657706924, 0.08069238258329177, -0.008641086283135497, -0.07103897145014025, -0.012770406513716206, -0.036506386788461215, 0.008490873957813476, -0.035206002006930394, 0.011639171515643133, 0.050136832922068844], [0.21794908472137706, 0.14632910686084766, -0.014063941696682156, 0.0006960163823849065, 0.01218071962292858, -0.1150980905598288, -0.010986543407043478, -0.12832168952693987, -0.060713749817271005, 0.009824185910845176, 0.0386518271768526, 0.09467406260883561, 0.04189159632595764, 0.01672059413278268, -0.03701601833038787, 0.042537257001333525, -0.10349261470122441, 0.0675679654465296, -0.12050385581247171, 0.0028992856249320637, -0.020341530896142282, 0.0361732285362444, 0.02686927350586855, -0.012480675012208866, 0.11259208331724348, -0.1298708740268473, 0.038499758963177776, 0.10660220144740987, 0.046535042604361816, -0.005165248922797117, -0.0800328347760883, -0.14935303068568764, -0.04861497965845113, -0.0405639366309168, -0.03977192691006251, 0.040453437882846374, 0.057956663598583286, 0.0011713613111200248, 0.1885361989427628, -0.07766507691088355, -0.013054102275727057, -0.025351064570568235, 0.051219878168583005, -0.045381914505408565, -0.09444169378217848, -0.11258640432076543, -0.0380825948310238, 0.03802511144645856, 0.020591632939554204, 0.11414008309118533, -0.043950238193171134, 0.03721355079680277, -0.009106754733064309, -0.13982849424498706, -0.10991910923317885, 0.05805913055469813, 0.01310766375982216, -0.10221486610819902, 0.15535869218998322, 0.03605113977805604, -0.00877570937144594, 0.05458356000399097, -0.17140649629678065, 0.05921650317680867, 0.07673064776800972, -0.030841707176485624, 0.0599145798432447, -0.0787243177459403, 0.023133755828892082, -0.007597466973463842, -0.03976126057527752, 0.10172825917116508, 0.029188824953061996, 0.005392988835545213, -0.10390441966614247, -0.05739926745394305, 0.03507150409490084, -0.025328515349709823, 0.06916699996219329, 0.012092402920210089, -0.045715179006420685, -0.04774862549629725, 0.07486148915723571, -0.03485710757553034, 0.08164239193501752, 0.005281426650092188, 0.0367260069508682, 0.019429489430998002, -0.023296369172819888, -0.030883323603905475, 0.08121043589660323, 0.07143164413447531, -0.11430402265574498, 0.005248439878984278, 0.03974138045074384, -0.09177498549562538, 0.06538959921320296, -0.024559580572055522, -0.14595877555699854, 0.06749063333390733, -0.11974091175397689, -0.059574255890137116, 0.0019510949210000178, 0.06371718002924864, 0.06250619128555421, 0.00595995579374056, 0.03453550529867242, -0.029082237371769497, -0.015600274834452265, 0.04590655839718342, -0.01770559637274926, 0.050240031796593636, -0.07785454370780141, 0.014676900245106251, -0.0034585978680696807, -0.06447517025326434, 0.01921439128482785, -0.046199276871656404, 0.059447160223784296, 0.008169253169139386], [-0.009231519627577118, -0.12079221975425697, -0.09351330284953165, -0.004746252234366062, -0.07631501208074731, 0.024968741981947706, -0.07607621883168593, -0.043107439770573755, -0.050912748209700154, -0.11987186012250838, 0.08378544735726037, -0.009717461917002849, 0.08174072515255919, -0.024430158955570675, 0.0466809641934889, 0.008530062221646236, 0.18692349633618868, 0.053256607602815934, -0.013001506636650572, 0.10242637000358587, 0.09205821567121131, -0.10799693808820565, -0.0178732041347596, 0.013644401277353047, -0.05195892458789695, 0.06874083804906159, 0.03798092571407726, 0.011663922854060819, -0.06052645256358338, -0.17633472307379444, 0.10056375785916546, 0.22705381607689323, -0.01620189113032106, 0.011308793955772245, -0.07231141046615427, 0.030487083169467844, 0.04222806532944178, 0.188674370017476, 0.010542474555490474, 0.010853743001386034, -0.055113007969963775, 0.1861798715280081, -0.062183005076654044, -0.16520187480809853, 0.06678893721354699, 0.04421585324022308, 0.027245630071687104, 0.1321446217519143, -0.06894512591090393, 0.11086601612238983, 0.09847990212934025, 0.2014128444151639, 0.06944213908195812, 0.009330094894683163, -0.04852868323410144, 0.10889184459794127, 0.038489759661760825, -0.059405637003333615, 0.009354355903667129, -0.13886146402286195, 0.052106672952133344, -0.07172722522171643, 0.03677569066967114, -0.05428007813816851, -0.1027246931561883, 0.019898367223289155, -0.1024864472344229, 0.03482645067486798, 0.040606537832381294, -0.004612715865143915, -0.02996184159889192, 0.08536929716127992, 0.09616933595226841, -0.008539433972003213, -0.1969806339406709, -0.02629721840419504, 0.1395013881290059, -0.12816173227630998, 0.05253099048183864, -0.0757131601093301, 0.01879380127678365, 0.0012213375267913157, 0.009097824182173713, 0.1250849118977764, -0.0353109111748623, -0.02511914690601411, -0.026773294332987762, -0.12175987629977093, -0.11075867342012687, 0.053891215732471937, 0.009477086535418578, -0.0274759005192595, 0.03530748268238336, -0.15878188610934219, 0.014564078552010898, -0.01192689269411697, 0.008806010918265673, 0.16320058515904287, -0.03311896002301214, 0.01247489679882586, -0.07713979204980674, -0.04909868241898347, -0.1353147185502703, -0.05180392561274191, 0.03016323863278285, -0.15191016969888615, -0.025739743558700918, -0.14150762183192908, -0.006060647116574831, -0.034877563529785896, 0.0746831798173059, 0.014112483063929633, -0.04113898541631481, -0.07711871924072383, 0.0781673616077357, -0.014402809090018405, 0.06452351075542188, -0.05382407775140632, -0.0043316979333615085, 0.12854156990258328], [-0.1776882091184138, -0.11304926829305205, 0.025784525390671737, 0.03060032863569018, 0.024631628063431124, 0.0185579127823057, -0.08798641213341325, 0.041511857804947414, 0.10756441664539379, 0.012300057858274876, 0.15551872924806212, -0.10625661681643299, 0.08490984496713064, 0.09608888152872033, -0.011471200388878791, 0.040610584583554495, -0.07907816540950445, 0.009108171411788086, 0.002570623281920652, 0.017867388779247782, 0.040567815204525286, 0.028298671211474374, -0.1288269188048527, 0.016195059729377657, 0.0033892982217264603, -0.14940707436792805, 0.005759698191147249, -0.08483678797442618, -0.044338612375025024, -0.049651744541948345, -0.06533969010734066, -0.027786633874219365, -0.017678539459505222, 0.07765127303247155, -0.13581602073544605, -0.022482079879201238, 0.010661774875447184, -0.12099731702191843, -0.001478888548105324, 0.20202704210279915, 0.08391887221129612, -0.10076260608551306, 0.07101651876086824, 0.12117588953846961, 0.05717680334352335, -0.040156244121283255, 0.1016502021471721, -0.003972839070436357, 0.03403765836742724, 0.1557109233357539, 0.0493645467570364, 0.10468582416602708, -0.19264985804266038, 0.04773001963000795, -0.029220836423015047, 0.14079583854573524, -0.019011234964459525, -0.06905383267782125, 0.05525800825451777, -0.18918759470284255, -0.09193086692722446, -0.07334787403184516, 0.04771521251867602, -0.07389017288277666, -0.007679115717233498, -0.03961548497152456, 0.15464119012832223, -0.03413748726579509, 0.12128122056713085, -0.04596615081869736, -0.05528839952950883, 0.10679553791622202, -0.006606040651513916, 0.12245326625914765, -0.08672914042716945, 0.039157240411991416, -0.013169664429800644, 0.04913012549424828, 0.146022286485654, -0.18067822680139284, -0.026761599827226347, -0.05659924996863679, 0.03779285919102813, -0.1132989870757014, -0.14509706648089069, -0.0326022715664712, 0.04773732055105875, -0.07466254680650203, -0.12125126921602372, 0.12507946308904805, -0.11838811879015416, -0.07607602440466202, -0.07952613898533942, -0.04081143688400396, -0.03180019237297962, 0.07670124112273281, -0.04404324492178307, 0.014014810836557765, 0.03590046965979681, -0.023205576731819503, 0.023207943711508854, 0.03096389780528023, 0.09906325996692446, 0.04121842837376614, -0.05911376997127626, -0.037905115822698676, -0.038844172530769765, -0.01800465399982938, 0.0632536320326316, -0.0007832664170492479, -0.0392713755020842, -0.027310528653600376, 0.006338957087252566, -0.01254168096774618, -0.1018707869956157, 0.08803228428437193, 0.01782257493575682, 0.1314423290367673, -0.01868821910691641, -0.03730764819500058], [-0.11759335443148344, -0.10363299504832779, -0.030195126268455927, -0.0061251931348505146, 0.01913775064303158, 0.06385015269185901, 0.07794864699477352, 0.007408332196095763, 0.09711957051662455, -0.033769121512317264, -0.0035955240981572884, -0.06173854118646202, 0.11580719643272547, 0.04671468526078298, -0.1263585977556868, 0.043078015364911695, 0.02774550365694488, -0.018818814547257125, -0.032997807539731326, -0.08780052603954644, -0.024102264377805722, -0.0977331498517416, -0.16562562093766667, 0.033650516070562034, -0.028717109708910334, 0.05266225382398516, -0.09711737999795111, -0.07733118993898658, -0.07953488787131732, -0.05300825787425109, 0.04875955701143019, -0.025350809900954674, -0.1180652889122651, -0.12143766178346109, 0.04118017239147736, -0.038177994066947774, -0.1377405432464562, -0.02741620196412963, 0.09830599064752002, -0.024665473161558135, -0.028779396686604234, -0.09715985983704528, 0.09965465608151736, 0.10905901692609245, 0.01850179862202401, 0.18070288745119956, 0.11638071843082938, 0.05262382889407686, 0.03116746451530468, -0.09953212292866644, -0.10816628202255366, 0.06782132407654264, -0.048007339649615656, 0.07439350095901105, -0.08256638641298893, 0.05380213991734186, -0.07139007744198116, 0.08794546153793288, 0.011210566855023255, -0.06307519936793074, 0.011630698485589496, -0.013841581278446249, 0.01212744495135695, 0.12538424363461356, -0.06943152858921289, -0.025193999078027635, -0.0573823591530473, -0.13811760844301077, 0.14798386179700887, -0.03146406367711521, -0.16890538665424262, -0.11073254301150683, 0.02007217724551577, -0.046464769332714526, 0.04587415367110941, 0.10108282848788093, -0.008504318231400552, 0.00393644371451568, 0.021812803336756063, 0.0627249526955827, -0.012268141785768235, 0.05631882151051833, -0.043083520883069736, 0.0734356897638712, 0.10495273134046015, -0.019776813390332635, -0.04335536359350189, -0.006175311671409251, -0.16131863743828373, -0.07319915007204618, 0.05954748483154588, 0.022628514759530684, 0.0028437131407974114, -0.0576354528662806, -0.04003662600727455, -0.049772611745663484, 0.004108367555901064, 0.12068550859125253, -0.0703023066906482, -0.034965970944587144, -0.04036547460190723, 0.0062748461234120026, -0.07378379412566119, -0.07904295317027023, 0.00776882841359214, -0.13789245941419276, 0.08528441309627888, -0.11718529422502082, -0.025774321329870988, 0.028600750644994122, 0.09096875646992336, 0.0022352192304054557, -0.08607074934490193, 0.03615476584562072, 0.02192061181983788, -0.03484092094150303, -0.044456589307254525, 0.10808281195827156, -0.0392488688252992, -0.14338550602532127], [0.07755394581203921, -0.08471303939294583, 0.14558457654252296, -0.08685498683551991, 0.03232991081595445, 0.0767467519019417, 0.06923620329748248, -0.007618427461764146, 0.014177580663556632, -0.15071847358855953, -0.10274810499642917, 0.0005010004823584879, 0.1219047106269328, -0.10568724260806153, 0.0438054202729842, 0.04422518235853399, 0.13454461093088574, -0.056372658704125764, -0.05211355455930201, -0.07940784057750384, -0.03355894639570699, 0.06610236741480917, -0.03160042396637067, 0.0673957234967607, -0.025096370796151297, 0.11420990656837486, 0.01798419333946322, 0.01212062387004907, -0.053073167329116495, 0.004578746267190505, -0.048590101954310475, 0.03918400785756502, -0.004083988639363028, -0.026974416510320575, 0.04936707774588281, -0.0685417054385387, -0.012332219164202084, 0.044789025501213234, -0.030972672461225485, -0.12776517654920252, 0.022663382383382093, 0.01975021337097869, -0.01699666497939092, -0.026921634107312006, -0.01287038727244504, -0.11624502306459614, -0.1207168246389024, 0.06551708413457755, 0.07541635864103471, -0.005004502951396305, 0.07002131927065808, 0.007059285331648462, -0.051305428565044664, 0.041598553110206764, -0.003501564718913947, -0.017427302673032184, -0.08005737417349364, -0.047967312434229976, 0.08368888201675212, -0.13286815284504566, 0.08517564473392056, 0.02672073257006282, -0.0708640563374801, 0.0870010263099203, -0.05526192262691785, -0.08002539089715364, -0.06118490597238384, -0.09850620461709288, -0.14755519248219048, 0.06633695985199622, 0.07161177255511159, 0.05747959300500531, 0.031060946866516895, 0.1351094533183906, 0.07111076770215635, 0.1058050044571258, -0.010675598914401339, 0.019547381519566313, -0.12946329518566901, 0.045270480323380734, -0.04378295438570004, -0.04284188705890945, -0.10509511529223096, 0.04762508127036351, 0.038770147113341126, -0.02550203378204874, -0.0993699685258661, 0.029363554544138096, 0.12959518706661338, 0.033811861880621144, -0.08878671514679203, -0.05668673414944288, 0.019834311386667143, -0.023954174891323583, -0.10241312003671132, -0.030654712782712857, -0.02820137549528906, -0.027242774009250455, 0.1617734971979009, -0.03870186775223778, 0.1079060011494368, 0.05123964058024916, 0.06308663800790847, -0.001748205913543508, 0.10671661608587527, -0.09155630275033753, -0.04510163112334208, -0.06413595315974693, 0.05612275461522315, -0.053651319729810416, -0.016443057893341415, 0.0811197514410297, -0.01957432490857346, 0.04237128341586712, -0.12275613141399555, -0.11454002020740675, -0.14316408103113906, -0.041507937492076735, -0.005384967684149365, -0.009791790885507407], [0.020682628983703353, -0.0012474024491643959, -0.049303165474741555, -0.008702779401557885, 0.023164721018829364, 0.2668505123845384, 0.07128748471798964, -0.0007974434508029363, 0.04669496223709779, -0.12145443561970386, -0.020642854991583737, 0.07575853422860232, 0.08398800307927798, -0.02019919841123759, 0.09091786122520074, -0.02357483478439761, -0.1328006059973539, -0.001520370774701267, 0.1121105048933, -0.08326403609666168, -0.07612579821832406, 0.029327529421528793, 0.16841931487861161, -0.025522861162785876, 0.010772398520395108, -0.04776350410585932, -0.08909496912991087, -0.037781783320493326, -0.0830589073906053, -0.06503143718072613, 0.05403173857407506, 0.08729937431316197, 0.06004962509989319, -0.19580079454085283, 0.11375964309628943, -0.009721981589137535, 0.03249006583992585, 0.08165822102121736, -0.03138652068529837, 0.01883777678153834, 0.0013608649938683449, -0.03284794711895321, 0.0020691053258180218, 0.055322165417247854, 0.07940159094996162, 0.05600497387470788, -0.006273933516092688, -0.036411578244833896, 0.028564328078235005, -0.0882248299411751, -0.1321229462366937, -0.00899235961734026, 0.08953380244409917, -0.14444842031046348, 0.11948320587694707, -0.03317008078376815, 0.12737894928050278, -0.05443124094631527, -0.007476884538155572, 0.04383235242176457, 0.01143998989042471, -0.03136770572184334, 0.06380436318431332, 0.07062623874224992, -0.010404047137488211, 0.04029518333041033, -0.12482962843065218, 0.10659914669850787, 0.11094321343202058, 0.04782975440372435, -0.09461889976360222, 0.08656228375628351, 0.12898959025648873, -0.13589021624209713, 0.0252898765508651, 0.1243372947757084, 0.06437848575098792, 0.09933011206643014, -0.15745467281622919, 0.030422265630251334, 0.00700154608776139, -0.09826590547618795, 0.07171297089610774, 0.0033773890707787567, -0.00268938176820965, 0.001678000393282394, -0.03046070206641168, -0.048941117447362494, 0.16769575145032015, 0.07683370861651508, 0.14532849416897303, 0.11506513194490488, 0.12442036911618251, -0.03966400575565085, 0.003046055257901837, -0.11978727820157717, -0.03265747515748559, -0.23033615807189253, -0.02167523369151128, -0.021687791529144015, -0.16316623972871303, 0.011653844757478408, 0.21164412930442986, 0.048793035146271535, 0.0933320618181906, 0.0015299874012177674, -0.019877782484593792, -0.18232719053226676, 0.13286085042144388, 0.1505958517583704, 0.03778549244244022, -0.019534273503843947, -0.023413393951359947, -0.022973721595306775, 0.05372517334062422, -0.02498929331824752, 0.007552257343364654, 0.09019781776022426, -0.03821587468636164, 0.04853931717911308], [0.06735323015181753, -0.0063886451346355224, -0.05453927437335564, -0.045212531451327684, 0.16043297328627296, -0.032448664156997084, 0.13584468743643635, 0.03231044559159438, -0.01936969901930962, 0.13825401003763435, 0.03336463772538794, -0.028374302848506658, -0.012678974413982974, -0.00915920782152731, 0.006447897337274432, -0.045520143000182874, -0.009461694176707228, 0.035330508874193756, 0.13668507670151644, -0.0044137158456468, 0.032740412491340694, 0.08848560730606382, -0.08038979297433037, 0.07360573461647382, 0.15519923100110594, -0.010752429627756313, 0.0744311856404381, 0.09827198359937925, -0.01839918595015422, 0.05431608700838547, -0.05782015228943266, -0.015468271277149453, -0.0808392891755792, 0.2566470930858527, 0.03650909468182241, -0.02257987764683441, -0.10102797848779406, -0.08407039183613631, 0.018094609865010713, -0.011400349113134936, 0.1195082639113479, 0.11004090681132732, 0.12955758321824457, -0.07286607668233874, 0.03825396390937722, 0.00649001192777494, 0.00043052213550054657, -0.005318435939123948, 0.03767747148705111, 0.06320221618684972, 0.023670405851989353, 0.013424214769524356, 0.1519989945490354, -0.11522852764769437, -0.10234988932245496, 0.11711031177747105, 0.0840967182115686, -0.0421096726574638, 0.08985669532028695, -0.1578196337789008, -0.04456790771522305, -0.008600111424762111, 0.10417010028184888, 0.02648131555050725, -0.12848483686674586, 0.010386211569646897, -0.0036338164937514046, 0.050804453965770616, -0.014826438009828873, 0.05719018840276354, 0.023674281639492558, 0.13503431943738983, -0.024454680255613547, 0.10070208615169546, -0.056694439462973256, -0.012584153890455994, -0.05337215689909387, -0.0807675409030381, 0.05673032168270125, 0.035769178179566374, -0.03131371861230805, 0.05584391510027307, 0.07863961561305303, -0.07034150521509529, 0.048901976230964254, -0.032724011662617465, 0.08283150730079843, 0.01892518456660971, 0.18467490836536582, 0.027371763724849684, 0.013304425125525604, -0.10953058841829974, -0.012726681410627516, -0.002272463922373473, 0.0492337566916878, 0.04130807884599789, -0.05081753305756425, -0.0024437445134720876, -0.18431493103313284, 0.035738361368562586, 0.0803213623500222, -0.03523381246609753, -0.1054418526079048, 0.006984020805276816, 0.01591103641080172, -0.15867803849611464, 0.016920491573034428, 0.06396098984995367, -0.09884871982222566, 0.062176973969005456, -0.006309664601052889, -0.04462567748745802, -0.011388913338167692, -0.05382392375136469, 0.11743931358867417, -0.0649148232729346, 0.011064489221874738, -0.0001697437875099962, 0.02117886179350582, 0.030252101224582908], [0.03026894347283634, 0.03318972456032028, 0.00022679627092866828, 0.11832671101059876, -0.02932452629073084, 0.17399270650764112, 0.07145128438900607, -0.01907712673485511, 0.09318603485322514, -0.005244931831904053, 0.10980787617509864, -0.021607781574136144, 0.04396455465676535, 0.03923884818065375, 0.0901987358023109, 0.1015225716936867, 0.021925912576758657, -0.04241664814480038, 0.007966752274429513, 0.033216420460335065, -0.06467204771626386, 0.004497848205622751, -0.1425517770426638, -0.01970340454105947, 0.043737446396102414, 0.05932488918663288, 0.06157184687365927, 0.09966673487160155, -0.16796341929378128, 0.2152065140840131, -0.15906342716892088, -0.038734106671765973, 0.00458412957263449, -0.02670885837121554, 0.06966029692332112, 0.05813851898652209, -0.025624485769856285, 0.01791234790680683, -0.06483916839638333, -0.17707354642310152, -0.02156238580794086, -0.018707373470547243, 0.04558460094244491, -0.09489226262596995, 0.02427547701977632, 