[[[[[0.10636460933386442, 0.04623193138684071, 0.7667877805450372, 0.3177557778161568, -0.28035821771947317, -0.04403432371948612], [0.5732712348168983, 0.35391431464859885, 0.5551628043792085, 0.042009696186630856, 0.7050978160011816, -0.4934067488874939], [-0.6968839862467762, -0.05311872586065753, 1.0394033175146824, -0.2029060702170448, -0.1294278927092241, -0.08289120344632925]], [[0.36287246849146987, 0.31714748014994415, -0.026566180405430163, 0.11967615201728583, -0.26602746319525333, 0.8983517968925329], [0.8407800054926837, 0.5709007660329811, -0.8279122159765564, -0.25220005921524524, 1.1058170177981885, 0.8713034608231633], [-0.5432824510520786, -0.08641164057077176, -0.7919398692960251, -0.5257329022721473, 0.48560118469058, 1.5375191383166458]], [[0.22891798494972304, 0.054743866758126467, 0.09336178111692163, 0.17833564297010562, -0.6301090269937163, -0.24391335544727136], [0.4207456555279691, 0.33215171451482134, -0.2863400396894844, 0.014628002446844037, 0.15786345571458107, -0.6023375874116609], [-0.7493436936207021, -0.32068120882744733, -0.10045453393006018, -0.13583439099616476, -0.6348344735313437, -0.40457281385964927]]], [[[0.2095802854830181, -0.05447280217042724, -0.8226847933872894, 0.42690269116937535, -0.6736528222188146, -0.5012012399277835], [0.7321847894611505, 0.19289310930035372, -1.6940878941459994, 0.02023744323632927, 0.5770635615296735, -1.0889081278545094], [-0.8746603162705372, 0.07392683798928175, -1.7387160715707144, -0.25549986999486873, 0.29743610794083286, -0.7499801339665069]], [[0.3527228417378834, 0.15185585858223893, 0.8747605112182084, 0.34040223935708436, -1.602768165707314, 0.031227365029540505], [0.8059446724138732, 0.2883520454249405, 0.37397853639445183, 0.008523478346608495, -0.6045526924224179, -0.2118851761683647], [-0.7426054920222835, -0.012842331135111396, 0.3181222697680812, -0.37780902846616177, -0.9969707815852011, 0.43030472316235924]], [[0.25367124056654305, 0.19950817843479476, 0.4138729006825993, 0.5869949611392112, -0.08325562103499237, -0.21196760064493064], [0.6682688187694266, 0.4179573809226281, 0.196171692594522, 0.4542441340024236, 1.3476082739881712, -0.5189022178820447], [-0.6895422179375539, 0.06250166817320714, 0.09106025643714896, 0.250692317856247, 1.1147932650384167, -0.13129315378786513]]], [[[-0.00926940527103293, -0.04875687254422644, 0.9018416421866337, 0.2906305549655056, -0.5578029710977284, 0.3073159886580676], [0.5911639592625147, 0.08980169255820752, 0.9193790672867607, -0.07695096214920595, 0.412845236259749, 0.06815881505770326], [-0.8225158185891446, 0.20489525282382098, 1.0234313744543941, -0.3249594638895922, 0.029325489088710518, 0.38847976546985]], [[-0.003374790912292087, 0.0996255871786159, -0.02622631572607809, 0.48533902258155653, -0.41035894783133897, -0.13299081736630966], [0.567312231012786, 0.012381519668767008, -0.7197543530340214, 0.2106936144901321, 0.8072509321316589, -0.39927879314268766], [-0.9244095721058105, 0.15778371052326776, -0.9406110518080721, -0.08723989192866075, 0.8322580673618408, 0.060332550685667515]], [[-0.16415754607604352, -0.06724315913723632, 0.031125105735018883, 0.06589928252934033, -0.886343525149475, 0.026670002547555468], [0.39404073821059843, 0.21481483064775972, -0.13314446075979347, -0.17299590103836732, -0.10431813854005915, -0.004847982538379428], [-0.7141143275675274, 0.12893418837356552, -0.24823271212393594, -0.333139748711703, -0.42716511677881225, 0.4230120325677826]]]], [0.8999567698211576, -0.8528750860612095, 0.3599341105421941, -0.14851431836623902, -0.20606123684953542, 0.028005038037269746], [[[[0.02491723547853355, 0.20006870366319235, 0.34780228843356936, 0.4706837286133729, -0.01953450894059716, -0.04170191071338223, 0.2268402584021502, -0.016405576003168085, 0.21941923232918714, -0.15417140827901388, -0.3881415193744522, -0.24671377809077447, 0.02011941286677207, -0.6110643510542574, -0.21930779817016088, 0.12905080160166274], [-0.5656901944725532, 0.1223738126999273, -0.16723453796560783, -0.018422712481598796, -0.31899749492220586, -0.19460750316866543, 0.004368312347092525, -0.10127502121235127, -0.37158018628023687, -0.1456166380264981, 0.06067846266782243, 0.38160553484536025, -0.017814649164729714, 0.1998104803376951, 0.20392897525575565, 0.006023190026800854], [-0.5967587931546107, -0.11539402836232279, 0.2106830286048481, 0.014304334712530493, 0.113077282200207, 0.08197041718897138, 0.15704282767339942, -0.06605620226829868, -0.19157475301261298, 0.12148358476678442, 0.3507824927498853, -0.13922033448737192, 0.09229725666200755, -0.14348428178741762, -0.19676783945827192, -0.0012192260197171126], [-0.2841357370349496, -0.04738438210109671, 0.06510936780016616, 0.22852630468393037, -0.12231407511391555, -0.09238544444782594, 0.0494177144223042, -0.14225989802233216, 0.14416378535949365, 0.11835235246055481, 0.007153093067002312, 0.009703492353218254, -0.1512393753260827, -0.0841254330554991, -0.013272096123584586, -0.11634358799399397], [0.2690333561916203, -0.15060633047657276, -0.08029094966731257, -0.09139439630498164, -0.3929094485696721, 0.14601320533082904, -0.040389613462188084, 0.1684992789002819, -0.23077687125547974, -0.14822949408565916, 0.17442476830937073, 0.06310669160311075, -0.02649168062343804, -0.010004036328626325, -0.0403426698357215, 0.13701645167741358], [-0.5193856376769156, 0.07726549650834069, 0.14813241978476951, -0.1002272808880269, 0.07596701519777337, 0.257182093361687, 0.06683657182050746, 0.017630454984232585, -0.20042190139517588, 0.222341430355739, 0.1293701136824278, -0.023223074428942937, 0.027076323365652157, 0.21812853021247028, 0.10153180322303956, -0.2755312110203451]], [[-0.08945607264463512, 0.3101132746345865, -0.12283114039871498, -0.020923170551179572, 0.05538712699183899, 0.22620071814983675, 0.012128822742947624, -0.1583423779176572, -0.058241981073759844, 0.3849508598449436, -0.2094725252942058, -0.19165597576056453, 0.008878430676742774, -0.746455471114333, 0.19576044805865486, 0.5919904189726823], [0.02581221006147041, -1.314037748715076, -0.23724570029069333, 0.1140285884089059, -0.3683963659225118, 0.1580357183917311, -0.306774906050175, -0.1968682165871837, -0.46375111667085744, 0.25292009505648455, -0.014426358174648268, 0.9188042262733622, -0.09162212053929193, 0.2850322488511636, 0.040130627079020355, -0.46357878346030806], [-0.4594117145704326, 0.2245028898997549, 0.14019573276148634, -0.05512662766677262, 0.13466518105924913, 0.23807393964695342, 0.24647222492322893, 0.020477701979385556, -0.27279474872612275, 0.3537746832036276, 0.09550945050781982, -0.17117798724484154, 0.15998617694201198, -0.14378470793134754, 0.08759880347257062, 0.05104763032444272], [-0.12051925360292783, -0.2253985673375924, 0.04846761975531459, -0.10523527313960153, 0.017189174550681634, 0.20580261886786855, 0.0047562641581217514, -0.22759857132947706, -0.0420548951339938, 0.3530176991880433, -0.03950860750549595, 0.05648420140904976, 0.02155853648809321, -0.09751873351114426, 0.040710217555178674, -0.05316343010347267], [-0.040213247411732746, -0.41731920708944636, 0.006776677732630943, -0.06747448878153639, -0.4601082329962601, 0.05258468509603092, -0.21187066540397795, 0.17373184942728642, -0.06011190943156957, -0.4402377247296761, 0.03256463683946982, 0.03451466859242834, -0.11126422137383662, -0.18713198259185804, -0.07879994093680255, -0.178978468952973], [-0.33827725917296997, 0.049309523853620994, 0.22271536146428622, -0.04566330049249172, -0.033385688779729646, 0.06758816351011483, 0.02843563449003897, 0.04493895905500492, -0.32262079504593294, 0.05890051716189419, 0.011231724566752446, 0.08650419056769476, 0.04250590470403284, 0.013014036592473384, -0.06591871207571333, 0.005308890123413802]], [[-0.10469011122714258, 0.22132306531462628, 0.03232860087882747, 0.5742869322391935, -0.0891686730380472, 0.11545309168704342, 0.07589289103028228, -0.015142636870034313, -0.29297273016376685, 0.33442179467823296, -0.11554530080123204, -0.017893379265929377, -0.026748136999193227, -0.011851359296799337, 0.2183415338150638, 0.20059595358231627], [0.1519664628494897, -0.6906730398803744, 0.25568872312432545, -0.10126665179790342, 0.4682491560709517, 0.42332442771363127, 0.11973624930591527, -0.3108312280676779, -0.33100975224665263, 0.19616208028231272, -0.031179482945432525, 0.42540570919418547, -0.3739916575296012, -0.07227976011419042, -0.15655928396626223, -0.3414647424812982], [0.08789947566582001, 0.015540528012260862, 0.044730087377033746, 0.026622970270562787, -0.1651458630763306, -0.03444096598162998, 0.12830060324567014, -0.035604595575662965, -0.36544962644785156, 0.25886107336038394, 0.23864637954218024, -0.0532199169477908, 0.16379544068357477, 0.03420796426244681, -0.04028670322223964, 0.03684613292893632], [0.059213825112519936, 0.18710475553987244, 0.04836397173263381, 0.16004841371198752, 0.06729332635854585, 0.0261072930954714, -0.007018578873913598, -0.14576499305692375, -0.25514414102695326, 0.22921154867165752, 0.026097020403857283, -0.013520825247185116, -0.016608318664507713, 0.005097689918626779, 0.0929366784044405, 0.0467762020687525], [-0.13672154797850872, -0.07820048150338663, -0.05676644758376667, -0.06463165578469195, -0.11409456095819717, -0.003799729526169403, 0.017081741845011888, 0.12047641260626707, 0.18881659331593165, -0.3284610054395014, -0.06392752569754609, 0.07068032899161339, -0.058701637101814856, -0.0088008762988266, 0.11127108111611489, -0.1982733080344036], [-0.049457237694409246, 0.20354284258262106, -0.08574304685109828, -0.09559472731987298, 0.12328307027603354, 0.21000904926901906, -0.042449597482040996, 0.08601155228908705, -0.14542839821505937, 0.1253844892377232, -0.05926320390825606, 0.08813574482824249, 0.0878300042500743, -0.04516148733578417, -0.0012076120476642545, -0.12515496337568693]]], [[[-0.29929238657270096, -0.03406127901053574, -0.6122220789766897, 0.035776735903952084, -0.13538277732171555, 0.30150861147813907, 0.19184226324820888, -0.13248707838178683, 0.31701708955581004, 0.005377373116559065, -0.20263383933710583, -0.4376024391508572, 0.17357219899903678, -0.9085783280317316, -0.03315759262103751, 0.0798021766267279], [-0.6559320465081228, 0.05797852090201912, -1.0839972574805372, 0.1424436269781337, -0.6116473727648255, -0.10402237135066117, -0.5036860819827249, -0.408539181098578, 0.18434690083404587, 0.16643869057364422, 0.2717904368612283, -0.5087356035676721, -0.041155988784806884, 0.1328848204371372, 0.8254112471848669, 0.175437406893969], [-0.6190275951541362, -0.09283029076815486, 0.14108223272048084, -0.08924914904320617, 0.23808842088677473, 0.2165398596517387, 0.053336212114572526, -0.03161080863804378, -0.09826301232220479, -0.12143299080285984, 0.10615000701962125, -0.16169976611957168, 0.058145759225697466, -0.18725786534605252, -0.06325549315675193, -0.05629304615249066], [-0.39544236853272063, -0.06056671109045555, -0.22972750336607542, 0.052175730765710804, -0.054939063151886076, 0.003993860798914766, -0.09914265459728147, -0.16378946667030214, 0.12943669488634613, 0.024675647578663626, -0.020462723939697478, -0.08826255720586197, 0.13684382379364307, -0.14354694477022795, 0.13177727095338915, -0.2397158343308416], [0.11671499765760401, -0.031434576122474314, -0.11617977985611389, 0.1464745204136206, -0.5222731327067749, 0.0742257965888723, -0.2642938389624703, 0.10677895380406406, -0.29373334770916065, -0.19006122650191723, 0.041714691770423716, -0.18967718110145246, -0.08695833835907062, 0.14661353485374382, -0.14756326911373469, 0.2876211048015363], [-0.6545553224699879, 0.3410128501491699, 0.23234067772751268, 0.029198766904453846, 0.04822849365439267, 0.10934120873821641, 0.022135699384445266, 0.017198684553646915, -0.3340265138457344, -0.09032173381354205, -0.0008993494187424319, -0.13739314320861248, -0.06919332913002287, 0.27314288352286925, 0.13802098462855464, -0.10513177727057149]], [[0.11493912478002859, -0.2002839382207508, -0.4099028057250217, -1.6966053570416386, 0.0033591981521883594, 0.25620196276369583, 0.156616737195293, -0.17320082206942272, 0.24847799072439525, 0.1131743173514766, -0.19251462690883644, -0.3544989126859967, 0.39446504386631376, -0.61758810459089, 0.09772680130873919, 0.4583264891227832], [0.2370933429132937, -0.2776787441463314, -0.10139620718571986, -0.08469793865678066, -0.6320941905582469, -0.0799213399029183, -0.5998340461389016, -0.5314521347153862, 0.4512031008160974, 0.09297100065898727, 0.07055840108638878, 0.1923953694095269, -0.21820953789733447, 0.18642237175827817, -0.12176756332350162, -0.38449586161789934], [-0.48470618368011004, 0.04955833632744369, 0.04650072732953199, -0.4629299966842776, 0.05770977722603564, 0.04312092838266685, 0.1469069933983598, 0.007974833982691398, 0.011153608634367956, 0.25534793627799096, 0.1770148685718943, -0.22566259463944827, 0.21200882660104728, -0.0711803067056653, 0.0729081355862592, -0.03235683815752642], [0.10351220484724333, 0.08563242673023823, -0.06617066952894586, -0.7747952535324416, -0.026973850227490423, 0.09473933577099977, -0.09149400133524721, -0.18388281091326172, 0.07777433201135478, 0.246737442453537, 0.07177601974322649, -0.08831594802015937, 0.17255180210222656, -0.22354820631790234, 0.04577082531387555, -0.08014000155640724], [-0.16967892717136995, -0.10259698815042877, 0.02023097134087845, 0.5164663688873762, -0.678944381231021, 0.02020683245830632, -0.18327539807073678, 0.006691695086359328, -0.33363201724643066, -0.4877279082722649, 0.05020991519173249, -0.14073086642699933, -0.15198299648171337, -0.03314462475143661, -0.16258152316836064, -0.1129551764474319], [-0.4404596894108686, 0.1315349051841102, 0.21658101927718793, 0.20674804374709904, 0.0483321113963486, 0.3275253535399825, 0.14370773213874433, 0.1551679368612073, -0.3021191464723977, -0.03766925055896958, 0.16993254340550576, -0.12121447474556929, 0.09039460661200069, 0.25301840677083337, -0.07187326137544138, -0.21012642164814638]], [[0.33754596873183185, -0.02617886086879169, 0.16439074958787533, -0.23160451636383653, -0.01130734653796857, 0.05110262113325738, -0.01119874025545407, 0.1790532611843714, -0.2570684339141974, -0.10747869662562363, -0.04689950934943177, 0.05009561133102729, 0.14878081942107513, 0.2303827704935305, -0.06486939748274535, 0.03589879920562579], [0.6218497051827765, 0.2352995031290254, 0.343821956546, 0.15884926171576566, 0.43201655749952134, 0.23798121141657622, -0.16188195567488775, -0.45802938386496866, -0.06935256085268264, 0.005863363865843101, -0.3082314452884961, 0.6248898818356287, -0.4033817861154622, -0.28805947364329304, -1.082891091387458, -0.2701338985717645], [0.19639668541189292, 0.13732229242158403, -0.16369387877970978, -0.24958536657589586, -0.06685321999315225, 0.023251173051008055, 0.1721650784966761, 0.14325126613979913, -0.04763078239329358, 0.14206908438238353, 0.16692131849418798, -0.18767403164971339, 0.21425164760504192, 0.16789621321937778, -0.053593343356316575, 0.03156088801904466], [0.2665051019368187, 0.1663589556804597, -0.0029246712354175745, -0.29242485154107956, 0.02232576956627612, 0.07954215049920181, -0.0266429993189293, -0.11311835659429328, -0.13825814434627678, 0.21454879253292033, -0.019179105287011593, -0.001116712173501121, -0.03333970727372936, 0.14760184523081193, -0.09647344567381397, 0.15668100848262134], [-0.1842467365121383, -0.008559398821339635, -0.013007584156043677, 0.1364138862814283, -0.14114269263034251, 0.2427828965881452, 0.1273486450868613, 0.056345016293221584, 0.0868597248711676, -0.4533647668771865, 0.14238990039650376, -0.12670453623812367, -0.03332156637444808, -0.2056725132301957, -0.05365203526127243, -0.14302617718269753], [0.03869797250479342, 0.141220361127285, -0.03404644714582014, -0.032107299855718446, 0.10406281867880529, 0.283704244273818, -0.022921793377919237, 0.14903527677529346, -0.006267701722159937, -0.0012366206786591314, 0.13276236460869753, -0.013499887993144012, 0.19906598995662192, -0.10059472610484474, -0.0752836894362854, -0.19310018341483612]]], [[[-0.11683874713368975, -0.3340332265049235, -0.726248585829714, 0.4993678490832142, -0.10827319049679235, -0.08746432054987997, -0.11277528318258608, 0.05165411607875281, 0.23504333580986111, -0.18695544516974086, -0.19581350898846528, -0.012740795703646668, 0.10925474729402047, -0.36078889033098893, 0.12497828103581884, -0.21909777511626513], [-0.4336140076235094, 0.1932935917758587, -0.4628034957587458, 0.016773171432037975, -0.027134801916968924, -0.23223340510613616, -0.7014477278443885, -0.21004211979894796, 0.23520716643202916, -0.06734698909161164, 0.1728307568664969, -0.514487041533554, -0.07888444109457811, 0.0002989276357011411, 0.7685770655576926, 0.33469759076811284], [-0.3894501295780203, -0.09352415782591869, -0.007158842435527311, 0.010418360372647316, 0.023652160095498146, 0.05067337782960616, 0.15123557420371048, -0.0676683812411792, -0.0480366484933012, -0.12287945543092375, 0.39840635583097467, 0.18189118481129035, 0.002928166013773479, -0.21024201540117277, -0.16606612249900576, -0.009088895616218676], [-0.1976715588169204, 0.00562571070316507, -0.24983203637567725, 0.21243756857844487, -0.09563147668899129, 0.08226342370362925, -0.15331279408843823, -0.05364783304529199, 0.12495797645021445, 0.017044705681717613, 0.061736877593654274, -0.08976836777289234, -0.03945953138425538, -0.13831271877665177, 0.13926903719469289, -0.10837766019530318], [0.030431731174691976, 0.06511270903212331, -0.09537357631309863, -0.021713984792397237, -0.1363145861967538, 0.11825088399404352, -0.07318238925098366, 0.052952823417719355, -0.16314200497275047, -0.151792518813191, -0.1216055344232276, -0.27448059165034316, -0.07529161659375011, 0.10499877662653333, -0.09687335428017989, 0.45126649399552854], [-0.49317574580211676, 0.07352328976440625, 0.16153133104812256, -0.15586193997435788, 0.27074396071563167, 0.01203578861573113, -0.06364012118527951, 0.04852671428303202, -0.19160667305573242, -0.05891691673134779, 0.07914004198985135, -0.1707110899784994, -0.02493541759701441, 0.19815525475280676, 0.11325511117601147, -0.001247929174671727]], [[0.21688097202229112, 0.09619155766685712, -0.3549993139701979, -0.8906524980602871, 0.08875371097294407, 0.07052547999660874, -0.18563787694853248, 0.01670454406826066, 0.1026684872534947, -0.05138579933513203, 0.015058576269587051, -0.19569743109583282, 0.23680713726630145, 0.07273691905763392, -0.06611461403032326, 0.05549068221712599], [-0.07510261250842785, 0.489923285071108, 0.16889633420157593, -0.6714472934297357, -0.47390236759308996, -0.3127800488385553, -0.850234684564402, -0.4943272238523306, 0.503319098199572, -0.13661092601781819, 0.2891493849344004, -0.8048746331689209, -0.10053580017855507, 0.158246914774057, 0.029090191325528945, -0.048094185298483874], [-0.3470705251382464, -0.04320472531068942, -0.0365361760927876, -0.013253556521711361, 0.15721276358483752, 0.0812775580666126, 0.028439193077208123, 0.10699689785850823, -0.07866184432077442, -0.08682850685592118, 0.18664806970942102, 0.17618303638984267, 0.018446960555285528, 0.007785191586919644, -0.12269954612695526, -0.15202038048931701], [0.04027837045559251, 0.1511716445128559, -0.0034450558113244124, -0.39673612847118644, 0.03392633616516611, 0.01750687824853967, -0.1571642418840825, -0.12949591655488127, 0.10313382121666903, -0.007279876650155883, 0.09830841822651894, -0.13228159963129388, 0.00791049167120241, 0.024750935829544435, -0.0630159055834371, -0.12237642931478108], [-0.16248344952127647, 0.21686243450656453, -0.08121530283279932, 0.10966470024569182, -0.5569146228120142, 0.16691624174448433, -0.17038593596618512, 0.1520901457981855, -0.005059603359189881, -0.1965744555388744, -0.144250936698898, -0.3282522625582098, -0.15343207016102337, -0.19747490656092034, -0.16080368184323585, 0.21319524892075412], [-0.30093390262566366, 0.08427362369648107, 0.0831862370414623, 0.1807384919168391, 0.06319289977241214, 0.14523452277988144, -0.09134919795828263, 0.040329076392513596, -0.19713548308226994, -0.12123381813897982, 0.07809070372053797, 0.009106729494379158, 0.06722159460555865, 0.2259181835176533, -0.10028616787274512, 0.04197968118406751]], [[0.3579087610450968, 0.10416049867619952, 0.40993162202014527, 0.13556972562599484, -0.08289393562796729, -0.17733536991602084, -0.178386337910941, 0.39573604571682836, -0.09178746146798135, -0.21151598036650468, -0.19122300281978194, 0.10383048762086466, 0.07737062189083878, 1.0287662583573216, -0.3591400204504847, -0.07612416179906725], [-0.006241714539053247, 0.7752453523172361, 0.39787864652221466, -0.014682215083222074, 0.2451221800761861, -0.06216579208454539, -0.1732635542422843, -0.2764220667366002, 0.2461338989728103, -0.1452538427907748, 0.08408769460562053, -0.31794054675083283, -0.0724087993185901, -0.03911564725311068, -0.9862939666719226, 0.2408246640900007], [0.1212720425899627, -0.14022561327185967, -0.04887781458622293, 0.04045956148516577, -0.10086031271309079, 0.07662300846922498, 0.02119134302863574, 0.14685609007110048, -0.23710681874502643, -0.215405122667296, 0.26683573407624744, 0.19689160087573043, 0.1803793867411074, 0.15932286421978484, -0.06590010458159683, -0.07667144244304304], [0.009141889063549659, -0.01028069675873037, -0.008016240296931624, 0.05774423061945552, 0.04908255880099581, -0.029438790295497678, -0.10728413635965087, 0.030950598955143856, -0.12181501341989345, -0.027447073888436143, 0.07214695375249788, -0.09130970634532326, -0.021851583176794052, 0.16947435363738872, -0.19779887851793662, 0.0456949982408568], [-0.005951281458152549, 0.1698604691995792, -0.051138561636676745, -0.05679726985745524, 0.07860270127471365, 0.11839929058850626, 0.20447931639695854, -0.0039359005715226365, 0.11841599984817143, -0.048008285799377645, -0.001711357638651121, -0.16666229351678039, -0.04954288218518361, -0.1903682043319189, 0.01757391124042828, 0.15653587882219125], [0.2954522578217761, 0.17337706457158372, 0.015810348984699935, 0.04558604523533401, 0.06991795169807138, 0.05926693479064144, -0.08075676724019674, -0.07938586398605053, -0.06570796479104013, -0.002212034474549864, 0.12720933398342582, 0.026480833396304446, 0.11569567507634002, 0.047100501446377945, -0.05634298864787887, 0.040025453368266586]]]], [0.771153022280937, -0.2813884330168246, 0.8358612115311709, 0.7198095393636822, 0.6722574497871577, -0.9226373031519313, 0.18137425435297164, 0.6216140728462048, -0.03127687445488621, -0.052959975488909884, -0.29531552812934775, 0.6261431328520646, -0.1941286547750289, 0.4930048743141284, 0.19546371688044453, -0.306799213900244], [[[[-0.0887853677640071, -0.07434631461737255, 0.08272685656413169, -0.1720884038669744, 0.08958748701714152, 0.20792926014816193, 0.08698008981643639, -0.06723838200411188, 0.07053210402569546, 0.20552448626142988, 0.03552593484903997, -0.0015719079210114034, 0.03700714242424596, -0.023854875871857764, 0.1682611744061058, -0.02084001990617316, -0.0016250390117364436, -0.03091885258319384, 0.09463360064850848, 0.014030378878463692, 0.003684107192718761, -0.12879734264590703, 0.0005510542438669733, -0.14601405830203965, -0.03846262251017098, 0.1975303430659896, 0.11834743564209106, 0.0205785389916925, 0.30479188875054164, -0.00401077843442846, -0.1328669392839364, 0.04939257773151838, -0.03862107902781033, -0.0463341573029239, 0.08215851989017518, -0.10674757055891737, -0.11459618113508677, 0.17397285425518674, -0.06304689838739197, -0.08946971168335603, 0.10228500238818253, -0.017087893118789513, 0.06534883508134615, 0.12514788508007757, -0.1070842947635709, -0.0136852663270196, -0.00014665627823644097, -0.02502581180050914, 0.14270280956951456, 0.060316036257670104, 0.19478606499462137, -0.2868201999751107, -0.016788957767577654, -0.12148150862019173, 0.07120154886963068, 0.05536069418114581, 0.045579545131667544, 0.05960561505802979, -0.1131649051543409, -0.083230128087224, -0.029669132886001794, -0.08966331799008548, 0.10826330702893147, 0.12274661538620234, -0.037944123467002405, -0.09556028783067305, -0.05993515971257291, -0.004456013551660301, 0.013928369800230845, -0.09756827174826857, -0.1204777291612831, -0.03299984701210806, -0.10523676107579774, -0.07462257854490624, 0.07814222021871184, 0.07430236565503508, 0.020205903161715215, -0.15369862241431617, 0.10254279298649363, -0.1070407964280326, -0.06502065465401358, -0.012197646269427227, 0.06016607908205133, -0.10709803896049834, -0.061886745522514976, 0.048484114193349345, 0.08271165464940557, 0.009371013875540218, 0.08917807112446663, -0.054982786592495114, 0.025096735336107363, 0.042088385864559937, 0.06069342719984688, 0.012605410808052983, -0.017803037144867122, 0.05126822506151392, 0.046312706883911425, -0.11989906453190434, -0.07506079732066266, 0.07657783336241451, 0.05776594126781526, -0.04848737528293784, 0.017210097737297442, 0.09160331877944908, 0.10372519825333083, -0.06870753434084254, 0.10324765297089482, 0.12738235161304146, 0.009465206935913587, 0.06331683086187155, 0.06859072330763596, 0.016766311504677972, 0.16466613635204175, -0.11193505795304505, 0.02568983460527509, -0.08213038424007751, 0.16110489334136974, 0.08360483416446092, 0.014973858095761447, -0.11849727692532973], [0.07741726996240965, 0.08769963455940831, 0.14121954175862217, -0.09760962744228714, -0.12196712496508612, -0.010368939470695707, 0.02579735983555507, 0.14973290364247013, 0.2093820289427096, 0.21158858110825443, 0.04327123507866135, 0.006219885132561752, -0.017255325664254143, -0.20493494246962127, -0.16228710636180468, 0.12032299706061526, 0.13371893337938748, -0.09988701267041616, 0.021961190084995863, 0.0675661825623323, 0.23322790566258197, 0.10671269631680566, -0.0067039992429532265, 0.19200773780315025, -0.09589308454627711, -0.1458805639345328, -0.18540098978223343, -0.050099441438120645, 0.1291979685121517, -0.08069986754981942, 0.06853469578077216, 0.10346904075202115, -0.04285574145713355, -0.003876821725811716, 0.022671749943901046, 0.08743546350718039, -0.2664733866590705, -0.11565604951193094, -0.100945140429936, 0.08984218766588214, -0.00518005751514912, 0.05910758865149678, -0.03661898182910192, 0.1515861677251154, -0.042217823083384294, -0.0398282344868897, -0.03783620823845309, -0.011356355492206741, 0.08516894316523545, 0.13211429655007106, 0.023537960476711656, -0.1077353104977206, -0.2079160131283828, 0.04433270951772259, -0.18092479148209703, -0.020432844805107826, 0.09479267678701504, -0.025074252157942074, -0.01139537670303301, 0.009149746256514314, -0.041254354110261765, -0.08118874814340193, 0.0864308595927107, 0.05401098094716991, -0.09453243269237273, -0.04790294898500801, -0.10209607341915629, -0.008908897385779335, 0.12126860978118961, -0.05463583456100557, 0.08481237009519509, 0.042756599028918235, -0.03740940831739503, -0.07923374721901391, -0.04203597416760978, 0.012413566627039716, 0.08349590167469363, 0.0838730365738633, -0.14282933547432047, -0.1601440890570097, -0.006943772774907075, -0.005524762342610963, -0.07913862936718383, 0.03738550047235813, -0.00010155045401527966, 0.1440742951474923, -0.13867765772093424, 0.006660144251011126, -0.15425833283003682, 0.04761037762362417, 0.07257006922851987, -0.13996965972730158, -0.09868458798710614, 0.05012920242521368, 0.0062311020218784085, 0.02710142620082813, 0.17949255653577117, -0.028715854797616343, 0.04401007888002262, 0.32249519361404805, -0.0731685739612143, 0.007007094212966939, 0.0845839628174884, -0.07770299546922657, 0.06431888060845703, 0.27962550448307444, -0.11723568780776461, 0.013166346518991168, -0.07511021068794296, -0.19430722429959388, -0.10703328028007757, -0.14053466167669385, -0.05428534940720715, -0.10946791413605983, -0.004169378730611369, -0.2915619954660642, -0.1102116265550252, 0.12126595802238144, 0.2043144117714165, -0.02494232974721772], [-0.1078891885548027, 0.25016838752302384, 0.0692482173602183, 0.20530899207557732, -0.2743678242372738, 0.12754923987316724, 0.023044917890046864, -0.14689330497196054, 0.006982356421060563, 0.1678159702972628, 0.03109895174639765, 0.007312801117698588, -0.2244515918925672, 0.08198881569832409, -0.11137429086766551, -0.05916285239747883, 0.0817761164276353, -0.17383623744657334, 0.03473447341731285, -0.16503253360302586, 0.03685936264402757, -0.003542389465662273, -0.04145855687277748, -0.035412581268015726, -0.002592645790666744, -0.10621366653372602, -0.027044082496317838, -0.12468350156697461, 0.07758988967200132, -0.004416788419191586, 0.10360570332348736, -0.04661697283423617, 0.01308471468202054, -0.12867280845646725, 0.03668241852680843, -0.02515742734841736, -0.22749567526251477, 0.05079476733069289, -0.05710816867831443, -0.11522556905493847, 0.1359590165881756, 0.02296793796384328, 0.03565910048633821, 0.005148579611040894, 0.15329653498000692, -0.09299317274865852, 0.13646086788934392, -0.059758794056151227, -0.06909606839415111, 0.023188686193402776, -0.0919342981593709, -0.055208277613288975, -0.011791281295235696, -0.20907098090258294, -0.10115418808287378, -0.13990748678491902, -0.022549476526469384, -0.03507719649640538, -0.00039402367041585214, -0.12351378035613432, 0.1448160218981966, 0.07744855835910647, 0.23090151358250666, -0.10481955259973771, 0.0077028834752387206, -0.14051425012383925, -0.01277197069808285, 0.21416511800860763, -0.03874171940623948, -0.13927855524678373, -0.1795138437682249, 0.1824860359658002, -0.0457566257842548, 0.02436630712325961, -0.11737503978441165, -0.051669011996138464, -0.09893220073154194, -0.06609466843325172, -0.11835612338647049, -0.29708623535273276, -0.060333140103525536, -0.10250878945040375, 0.09990656593035797, 0.055996198402881774, -0.0575649960786345, 0.11093114355750396, 0.04794797380840918, 0.19518243054280068, -0.03202762053439639, -0.06176612594150462, -0.09343627380289307, -0.09503124747893471, -0.19812647133505526, -0.011583845092696514, 0.311701021854706, 0.05326927898902034, 0.026763696146273924, -0.026970191971508673, -0.17204146558716715, -0.03758352712351141, 0.08196767835230387, 0.08649689577013238, -0.11619910061139863, 0.24068638707555268, 0.009042732190209145, 0.09612499315833523, -0.014469776651666445, -0.02212458538246787, -0.16758925473715025, -0.10543245839610606, -0.09029324407137355, 0.20244643215559535, 0.01690883770189628, 0.02842813627025771, 0.027542503191924365, -0.107351947712733, 0.008857994933237898, 0.14364694682803122, 0.14096851809361238, 0.026912928405472183], [0.0596516707022485, -0.05701652361356319, -0.028818674495164807, 0.058679820902826384, 0.12326967238644536, 0.2478961112857192, 0.22677102972650134, 0.1845453353717159, -0.06704056083673808, -0.046396385629522585, -0.25732456150614685, -0.19425022008260978, -0.06697826001165035, -0.1721082887438841, -0.16985476630820434, -0.18811028757792528, 0.030373196479839507, 0.2149724561182051, -0.1670788093974957, -0.1940189465516213, 0.02320409858705276, 0.007910085306038829, 0.1386151498163739, 0.06734532491549348, -0.1441473371798981, -0.16661951223717275, 0.06629162192010712, 0.10303253543030569, -0.053765297376555075, -0.057239190449902194, 0.07589315429999748, -0.013700349992974559, -0.08148473059180394, -0.1007402072211116, -0.08079832285237716, -0.15012513165426802, 0.14134778490800748, 0.19551287544134646, -0.13749595735737546, -0.20605323774673698, 0.15565443531349898, 0.24174319002402705, 0.09712028694683479, 0.023746171666370528, 0.03172798096533054, -0.3258183524612116, -0.01761132467415359, -0.12690392407670903, -0.10746754857515854, 0.06468223751398887, 0.07054474943172094, -0.14692835479210503, 0.14451057680838467, 0.054634724491898774, 0.01937405077158841, -0.20948472423957562, 0.1284635429416439, 0.0871816836799036, -0.17396425752231415, 0.22895543788807834, -0.16031584822395475, 0.6033921372864248, 0.08684801678039335, -0.19058021812258708, 0.09754705559801416, 0.16143098290520116, -0.03648378308220818, 0.14299091384700047, 0.07134322803772272, -0.07141198449773914, 0.018559230385979376, -0.3504255213312352, -0.15182201494444117, -0.20324510131556303, 0.10048840284784569, 0.18392150040156577, -0.005943594337035107, 0.004665822870095183, 0.011842942617609431, -0.19541050913724126, -0.20633121035331084, -0.103112586844321, -0.045937480491115, -0.14422708339205453, -0.0328890002375699, -0.21373443701924255, -0.07917368049231825, -0.05395017549968923, -0.04077587715238949, -0.22446658094909536, 0.0939330520876744, -0.2532586625586251, -0.13999716336167672, 0.085041264391349, 0.008330260411328198, -0.09774137671852902, -0.014166998266162592, 0.3071341863909741, 0.1122381709180994, -0.007899200778341992, 0.11063009304658462, -0.02033385117846809, 0.07062612170559496, -0.02008961876648753, -0.027057613232361125, -0.13408587329751545, -0.0007998012988596144, -0.021970537509289553, -0.03885938781857174, 0.10768341132189471, 0.05889903524879344, 0.0029650321240858694, -0.14074908602604227, -0.02206002615570976, 0.05400056570303476, 0.13415031033753208, 0.0398253614614945, -0.05093687624685741, 0.045349440466872705, -0.025503555922172627], [-0.04399534876327783, 0.09971392271179866, -0.06462004452501073, -0.08631539614202975, -0.0988603781957662, 0.10288244150380528, -0.010772086172101566, -0.08681034530767014, 0.09730088017116005, 0.046519132944617805, -0.08401715708140961, 0.08800940799279833, -0.025794658919757088, 0.10309099210918991, 0.08982498771452624, 0.13324959306851172, 0.02835688107578031, 0.10372737207885728, 0.02362531275910362, 0.2530276761078643, -8.842179349721169e-05, 0.12345031897013119, -0.1597600629902942, -0.12561938681455384, -0.07034917131619946, 0.1800090702622538, -0.03416696305842443, -0.034818059638380326, 0.10032256539881727, -0.08537093967679135, -0.05230039178813699, 0.016398430345350268, 0.10620216576196936, 0.11021250051848444, 0.12117851105182398, 0.03540527860576392, -0.023643519198155504, -0.09684189003769987, 0.020344148769472683, 0.153356952139647, 0.003959559872873299, -0.08439498234863163, -0.24466349564959278, 0.23895961813869104, -0.02381887820290269, 0.1277193930383664, 0.1527473742798513, -0.008997658882777268, 0.05744928513458144, 0.2472951802800084, 0.055605884088675075, -0.07586799022565252, -0.1364830009578889, -0.04339933080105656, 0.09028563616135132, -0.05004622360165052, -0.08668078389294766, 0.11136292031260267, -0.10039418866280128, -0.11505979843561669, -0.005902234444987411, -0.008891579814359112, 0.03852500069295043, 0.010644350321556521, -0.2371110693026776, -0.1768378500152509, -0.11023757823171615, -0.028121668557529567, 0.08464855058830373, -0.010975443603387976, -0.007046301370913034, 0.17234847384528157, -0.08029360954936476, -0.0644423803778686, 0.007180925541449818, 0.05803295119387333, -0.10053658788042497, -0.09585748097655807, -0.09163795394013097, -0.005401168410527576, -0.03681765566055049, 0.15470716014083713, -0.05203657626919296, 0.0027688412565583264, -0.07801425399922779, -0.08061033536476145, 0.019465818664896564, 0.09107359538899264, 0.11666127845038589, -0.04139290376335396, -0.1328823960545046, 0.080275140043252, -0.06391539798987006, -0.06513264987318777, -0.030010273046747183, 0.06369788078460228, -0.22950914637975303, -0.2777740673886914, -0.07522534030777982, 0.142159008644601, -0.006657776796894521, 0.24221413925912386, -0.014375996098290924, 0.015341598324666843, 0.0032189084900136424, 0.045593401353432546, -0.031145090291879795, -0.11248674524642509, -0.1197771590115837, -0.18455205422167162, 0.037422468991918936, 0.023948027545830072, 0.22269454461347002, -0.06262414401082671, -0.10386468921402799, -0.15853806476195215, 0.04120806550843305, 0.1751083956882898, 0.06849511773902486, -0.1274647497160456], [-0.03824678938138528, 0.1745444566079911, -0.08425490402825947, 0.16637800549867543, 0.07878111361060819, -0.17369260466888128, -0.07501219719160741, -0.07298729005209696, 0.09209596846430969, 0.05049639932787974, 0.007633648479573871, 0.10471180642790273, 0.04748418369761393, -0.14890015820644384, -0.09308625650286788, 0.043333954232643794, 0.10209439753433655, -0.1645093921415062, -0.1323948016358538, -0.05617914400129647, -0.15839046862646747, -0.1282247289978521, 0.03474716821639543, 0.037487923935423335, 0.18957979955736423, -0.2475026065984424, -0.08327953546624332, 0.11990748383452483, -0.2421530876876075, -0.07782822054177709, -0.06884359371355676, -0.19037078477013997, -0.03319549584648079, 0.08053119917445095, 0.13345664892405437, 0.053846082068484985, -0.420291160889279, -0.4189302591554664, 0.05971778851207117, 0.11440408640325117, -0.16803414789634824, -0.23215018672386595, -0.04343475175769251, -0.11224445228212761, 0.01616192444036758, -0.0501845259856666, -0.38946810580499247, 0.014459751482549296, 0.03538725581197926, -0.010978580648129151, -0.06451577527338838, -0.14803090476683972, 0.06244604238315915, 0.04228154579220314, -0.22011238254585527, 0.1817946913318958, 0.17838620955894458, -0.03180678412529989, 0.15624193121282337, 0.042927958303735615, -0.11785523336648983, -0.13648884489145766, 0.10898190188410027, -0.15090875358363512, -0.2654225988530869, -0.07905804534657421, 0.22913474091636657, 0.05439121754620337, 0.0732546321463489, 0.1559491408327027, -0.06276948151387646, -0.052607755673423684, -0.16663132557020216, -0.08234786739737114, -0.21814963014609673, 0.05157830135796077, -0.0635240573282301, -0.1612468994266095, -0.3780401872647212, 0.11113184828639516, -0.2640306445141036, -0.1392452194217802, -0.039711387318690554, 0.05076601497890674, 0.11603208571000038, 0.16802859961036265, -0.08450254579145736, -0.012023833809133853, -0.03596253991827501, -0.026185272033219742, -0.026766133146273165, -0.21290303698796184, -0.13562900823236443, -0.027611523583411787, -0.059733394785809545, 0.028364761596253382, -0.06595579790904581, 0.1092036815219388, -0.1726129444602171, -0.1248041334838593, 0.023941818852022307, 0.051720849805925374, 0.09431978702081492, -0.1845076993524737, 0.08229038867244269, 0.10117682825395846, 0.0535814031983477, -0.10547788109733694, -0.19459609064364797, 0.009416903308296589, -0.09141714700844797, -0.0947253018373522, -0.014203853049071534, 0.009158853145271784, -0.10252117130348594, -0.08619128537173003, 0.061694100019066424, -0.2265945498291467, 0.12720563074210298, -0.17583139395982758], [-0.05660995199515292, -0.14247248336529075, 0.10966268880623688, 0.016363089095606194, -0.06983968799083899, 0.06501112153808265, -0.08683712762738609, -0.20811889631754568, 0.035196518446617885, -0.07914897971335093, -0.14091968169309763, 0.019480699362827376, 0.05007508296771776, -0.1017933311451919, 0.0025807966659163813, 0.0037715306580015876, -0.1357073519381419, -0.058446413370171896, 0.06504543861648117, 0.0478224468284958, 0.04872795113359654, 0.026334850002971845, -0.1725264494912831, 0.022851712736779207, 0.06726164460569795, -0.07614620212217649, 0.027573449018804798, 0.031961822087899015, -0.004331429927801622, 0.06689528262149808, 0.08789156506084353, -0.04131368545198814, 0.031205490422345928, 0.006780950171646885, 0.046658432884888544, 0.10642538061067872, -0.13584725139329196, -0.11795012180368226, 0.058277149215862134, 0.09730578571923097, -0.13278378482138678, 0.15112487041644704, -0.10341172610268626, -0.02374084614571327, -0.0788185912805829, 0.09730398217727596, -0.17732677468659214, -0.10511469432739406, -0.04777107439825848, 0.04996828967991366, -0.04868153223030057, -0.013263897876123242, -0.05726772349253087, 0.027536792457826993, 0.03972188702394557, -0.04084134241803749, 0.049540347045691366, 0.16060456307061546, 0.025408551678795802, -0.027160196229616178, -0.13777183913640334, 0.1202355078891466, 0.03426402471882258, 0.008856868694749869, -0.1154146224192014, -0.15857339826726982, 0.020760716866187842, 0.013715437860894297, -0.0646364996443323, -0.07094126381635901, 0.17952593451158683, 0.03431256167026574, -0.1374957893386769, -0.03858907183491751, -0.05463897020112021, 0.08159537794361582, 0.04299159373772175, 0.02776863272090598, -0.11632059485892624, -0.0953588034156812, 0.029114291766661082, -0.060575622976575476, 0.06881886497048093, -0.04215391664866494, -0.06894614861448653, 0.0124449488963041, -0.08977764162861748, -0.08900763761132333, 0.055425320060125564, -0.030686663978827623, -0.016524780323631527, -0.13286001099071468, 0.0446007725792643, -0.18477856708681978, 0.0416726963036457, 0.017218623188534593, -0.009096896001025392, -0.05990020974519312, 0.019329998454839386, 0.06688391503454702, -0.0206646406129406, 0.050236125442695706, 0.017156758999772526, 0.09004544239618034, 0.0897488892503189, -0.024349676461581614, -0.04255237795966731, 0.10424105448546041, 0.003863178626649924, -0.12677977911287164, 0.03450759124435312, 0.00033186016827132424, -0.04991334751084384, -0.12465224280093525, -0.19792355921757726, -0.06506930452875288, -0.03067894326837597, 0.04595102554300192, 0.17836328946939262, -0.07152278832995553], [0.054137302562550546, -0.05193276985796292, -0.08835713156182774, -0.06206368221480439, -0.07424295733523824, 0.12082266632130605, -0.048210202106198835, -0.13053678829293672, 0.037289277480586865, -0.10804223153527864, -0.1902823167649408, -0.06728781421025831, -0.07001217321666317, -0.1605926327335821, -0.0001973919420351072, 0.06644311273318208, -0.03406191397160092, 0.09676246206725012, -0.07850629062147685, -0.014222506198260954, -0.19697777050540788, 0.054492842886545406, 0.008308519275501395, -0.02975340619594912, 0.002135131179980409, 0.008035122586220307, 0.037197002687741475, -0.06257814615111193, -0.10442257093489977, 0.035495354373979895, 0.06355758300524465, -0.2582781483217657, 0.07966280744219091, -0.02071528720492801, -0.0519192607745081, -0.04513017275274081, -0.009044671506667634, -0.0779087573379375, 0.08430881959877014, 0.05944528025757189, 0.07982200711600179, 0.09667271594877178, -0.08536512061605835, -0.06605556920018245, 0.07427475700628272, -0.14208760569705725, -0.0726959918509781, -0.1962290668296614, 0.027266426954276616, -0.024158517476459588, -0.014671984057890537, -0.09119089932754666, 0.05543781883409629, -0.005500860632068949, -0.024195668918520177, -0.06988314294065867, 0.020018621870176084, 0.03099481881928916, -0.07952593005406806, 0.054011080988807324, 0.040252697018334824, 0.17048283670528336, 0.06353621856417933, -0.0831876855083611, 0.11237085884542823, -0.11706827226314315, -0.08714878270442245, 0.06109941300185356, 0.05105536565304486, -0.013151455265714434, -0.06825010098085554, -0.018814887781876403, -0.022193486490549183, -0.013711476678117193, -0.004317727686524204, 0.19710546305048918, 0.10334297966389562, 0.05555827234990116, 0.054577936575747936, -0.08411274467276621, -0.12343467743522357, 0.05602438720232456, -0.043259569606621466, -0.08014940213321635, -0.1804619414731747, -0.01868777516588714, -0.23935278220046516, -0.008051815482198542, -0.09595775275632568, 0.03454748445182082, -0.07825288631674601, -0.3831004277243724, 0.05733164004345708, -0.05376352272916426, -0.07520632593647482, 0.1396265569671578, -0.0623670541215897, 0.043185651090482544, 0.1110093739805999, -0.13461412463381636, 0.16664495903354945, 0.1463212448069695, -0.016066741012953946, 0.039147691574347145, 0.17557986842766926, -0.012093914100984555, -0.07490967473563308, 0.037852682469068935, 0.03650350651550577, -0.10759209458364195, -0.002450106312071846, 0.01876180872735422, -0.25198505469635174, -0.11347092700892797, -0.02414503273629604, 0.067432678127388, 0.03150226609696008, 0.03701507324935803, 0.04804670573865031, -0.05293251886732977], [0.09439535016687306, -0.08983741969290765, -0.17283681217134472, -0.057012719275238655, 0.08226448148123507, -0.1372457193474389, 0.1090945457197265, -0.05376438209514111, -0.207467708548504, -0.18663685502272592, 0.008455432593461173, -0.0132918179680437, -0.25791904261799825, -0.150450836094315, -0.22266129609529892, -0.21517694370283916, 0.06351347075132852, -0.09924238114930606, 0.02976990429950217, -0.24372032444723757, -0.00695844429330647, -0.06948401629693145, -0.051634981833413314, 0.02681649244958516, 0.029813964276572496, 0.02588953293125078, -0.15935588424513333, 0.08282275332430382, 0.10120792250784937, -0.03725594915420549, 0.013545228794969189, -0.04977714429285818, -0.3890300508883524, -0.13382851748980049, -0.07963595000298793, -0.11130018781352852, 0.0032298906401069015, 0.05135463099525177, 0.14401604181178973, -0.11148230293904997, -0.2583724784875121, 0.12491615381247213, 0.15885346898749653, 0.07582144646131299, -0.13751938300896854, -0.07231083896138712, -0.04563467568183412, 0.07173033092851408, 0.06392807253360953, -0.042307770449628655, 0.027365184560121086, -0.18140645711900566, 0.09028996394148911, -0.1650471244284618, -0.09733838975310542, 0.10233438115948237, -0.11291354605961385, -0.0022930776324067608, 0.037934372233052675, -0.12030249564642902, -0.003718737938652198, 0.09919178647572455, -0.08782254511825408, 0.062057435003960194, -0.27591335380140564, -0.03029145224481, -0.05624916312112933, 0.02859675031785934, -0.16477411577980802, 0.023355833687465386, 0.029649626180532334, -0.08431462252838336, -0.09568422186710097, 0.013201636629583036, 0.13090139704486609, -0.09567643336979127, 0.3141422215338117, -0.18747426838266837, -0.002967535978622698, -0.08721967142448275, -0.07569617616211002, 0.01852782442679191, -0.05435500619288469, 0.29022544364251973, 0.11800930349629071, -0.11678298288148972, 0.09055609952915541, -0.025992963821920272, -0.12833533673763142, -0.009626761217124764, 0.06184216647127939, 0.19407324405887727, -0.17013589805158463, 0.0909810401821678, -0.03407064002333347, 0.1348520399642965, -0.22613749013702708, -0.107125762820404, 0.0010036639936968333, -0.1101223307089999, -0.12676027652992986, 0.05893693440272922, 0.23845047497578364, 0.15221333992739974, -0.06948740509185994, -0.004358759022590912, -0.11370628289228775, 0.1064735302517382, 0.045494261996342884, -0.13729667226585163, -0.028123436929841504, -0.15814107457250556, -0.04507277948116168, 0.004107416092835401, 0.09132372512280147, -0.13572335114515094, 0.18954997193422884, 0.03155736095280494, 0.07994698301747287, -0.08515567048334312], [0.03438411346035554, 0.031480093734229386, -0.409529133221592, -0.08001798438657844, 0.2972191713645322, -0.11977866589853174, 0.05314387615734497, -0.15384499719706324, -0.28239823921728796, -0.19811109640422644, -0.06141153683385134, 0.16370518853122426, -0.0826919633996355, -0.16227795711102652, -0.1513707764737679, -0.13517188172245326, -0.07931770969826603, -0.10672091255386504, 0.012093964201994824, 0.040792379167931776, -0.057043510317909545, 0.2049185814844586, -0.005166018663550903, 0.10476125351546733, -0.012083270096890517, 0.09034674517836198, -0.05911460656995704, 0.05683133934442124, 0.0390954137766308, 0.07666769362345587, -0.011550306930856435, -0.05044138386423365, -0.15072130000960604, -0.06483963011525593, -0.1104013997027566, 0.019893784557530336, -0.031306076680502205, -0.04372424024849239, -0.09821184472995778, 0.009042721554097886, -0.18265760430283343, -0.13406723565162865, 0.21478292088786743, -0.08362176951323336, -0.05134081983940183, -0.17587479609937393, 0.08125181839172578, -0.03544276742507065, 0.14827037046946065, -0.2945172170411942, -0.05053795638946313, -0.09203063901048161, 0.008742879542254943, -0.13838960891690957, 0.05740161682460572, -0.13498227848635247, 0.10195139695019766, 0.15628031007823193, -0.06756726982428643, -0.007895836245618614, -0.042414826320586595, -0.09495950671258524, -0.08361917012803655, 0.0763793805838681, 0.04279600569712714, 0.15283287799064524, 0.10448633179298676, 0.020972772399926145, 0.02306764516966028, 0.12522456342095997, 0.0025994848209055115, -0.21101642095320644, 0.10714015926454262, -0.10993874511323451, 0.019448383574278198, -0.16305218050433873, -0.06866899566032413, -0.2422470331878303, -0.11722699546725694, 0.1654188175950341, -0.03227961843005029, -0.012235159623649437, 0.04879027404499439, 0.02558682974594093, -0.02053706535222227, 0.20507890828457864, 0.1408512012444854, -0.05525095557313938, -0.2528509227693412, 0.07569684141714622, 0.0696233926947849, 0.03820753456959842, -0.03179857205926519, 0.08172750837531922, -0.02526257136123997, -0.0430946888579192, -0.10322568511933218, -0.02021172325996763, 0.024631847654692958, 0.05523232928693944, -0.10801677147709461, 0.010093903866759154, 0.15234438729600308, -0.011024988558948545, -0.09412639338711053, 0.029295637848398844, 0.0018699866133804544, -0.006349055758437245, -0.06920128537055545, -0.09972437553979231, 0.33881551746296196, -0.15041906606215355, 0.021602981713429403, 0.019543519029809418, 0.036152140118913136, -0.14315610814172772, 0.033015624833088654, -0.13522050637719213, -0.09870551451998309, -0.0003177516297362534], [-0.11525722047254446, -0.14552954535749257, -0.20471882217233733, 0.027795369616087216, -0.2466520651261978, -0.10036088107909152, -0.3272156230661518, 0.13648202680595206, 0.011343039475161588, -0.06165053400663738, -0.02797656185806935, 0.05560536991738147, -0.16523223542907908, -0.0696954153955527, -0.07578192971008735, 0.10441026933948587, -0.03526374819558667, -0.028512462998434854, -0.10437133822761885, -0.14572080243175473, -0.05640694438775103, 0.1543135751999344, 0.021417081280541587, -0.0542759207683167, -0.02130133605883167, -0.14635544752888285, -0.15077428407471363, -0.015913619207091386, -0.3197082163920845, -0.0820599861940766, -0.04813786745086069, 0.05045915834642107, 0.027709634845828314, 0.13710048135961497, -0.11879726789273931, -0.16273633795522202, -0.23532619609664765, 0.10933516023148565, 0.09889460315136013, -0.16354793169923276, -0.09514809073912464, 0.05327272432145341, -0.07894891428881456, 0.05438613377503576, -0.13800453332008406, -0.09944441423583686, -0.034264171933996466, -0.012612755570344027, -0.08042022588764913, -0.00554108407775724, 0.02569990925698698, 0.11981869314380345, 0.02704061622457348, 0.019427215407173154, 0.094253061565169, -0.06916094938212412, -0.047733135767033266, -0.02372035536844395, 0.08453657682050113, -0.10769374377785912, 0.0054243501249787145, -0.012653179949623502, -0.12173120600142799, -0.0857539447592936, -0.22976874850422482, -0.12697107246024356, -0.07779659779183554, -0.11635608989707132, 0.1593931870327352, 0.010242743503123016, 0.07168732167574915, -0.009910605407286511, -0.06432049987462593, -0.14804116369338205, -0.3774993343787176, -0.07477391416852476, -0.17855878905904382, -0.1586088884972875, -0.24089694222600985, 0.17848596605515651, -0.11896431855495677, -0.039028721878095994, -0.0988720703370781, -0.0061213238416949894, -0.07807749286594896, -0.07728554277169158, -0.11537409029902777, -0.11320571875679618, -0.08170175161796005, 0.07338879781712651, -0.23084191361458126, -0.3102965888952495, -0.04885744158783248, -0.06593804279001676, 0.024231574236221576, 0.04905252397707026, -0.20488779857637388, 0.019110326671565033, -0.23616156541396457, 0.082579344450777, 0.1881272420753303, 0.003725285482651289, -0.05419393309941853, -0.15177626071721848, -0.010287242862422335, 0.03118552565916076, -0.09896139688188453, -0.15351133476537374, -0.21384354333383004, -0.06366455711692211, -0.04992240478198808, -0.18552427327543214, -0.20111358516773345, 0.019286701425331412, -0.07460499463171791, -0.0922434947552435, -0.13948996312548365, 0.14339050444615734, -0.08088181936400914, 0.09593808388078726], [-0.0042840215034039035, 0.15437966666282824, 0.18023718467413785, -0.028451248141111003, -0.06460317235567806, -0.16604668925252036, 0.019111334537201527, -0.10540060533382595, -0.18743678660049007, -0.08460727747566617, -0.04765992603351213, -0.15289842590825767, -0.20484295415178388, -0.06220390131664445, -0.18199918629897327, -0.060694075982770684, 0.08630220789975504, -0.057776234848366824, -0.07880048597687858, 0.0019180377023695304, 0.1001050114997866, 0.2114243507416876, 0.10681708635014898, 0.09086690352998017, -0.01281961964665057, 0.01696441243555853, -0.007626378198229457, -0.0945552315394264, 0.10393691150647831, -0.24824629031070194, 0.027132831231168605, -0.07008788435273594, 0.05333935258982413, 0.12628509017714257, -0.04180404596812739, 0.10906003595023159, 0.09781822351926209, -0.0870351056356015, -0.11684658161959273, -0.02141772748171425, -0.19965477213698687, -0.19703602911687776, -0.10145612648173179, 0.07219153550177057, -0.0012411488736305916, -0.015303418106621487, 0.0819778816049758, -0.11601270012528885, -0.12192778725657974, 0.07016185561465424, -0.08128028923130282, -0.2496846309654498, -0.04848068578739463, -0.11521618511560304, -0.13658020312971464, -0.10177256726892797, 0.08672011413577278, 0.259569612056393, -0.037346227483881646, -0.09090886341645593, -0.06987052925638489, 0.07036612200827887, -0.07990306131797734, 0.18430591591909556, -0.1517434983216137, 0.016464893391644378, -0.20804797365787295, -0.08160871196888435, -0.21277784327903704, 0.21539948945187445, 0.14571851664729787, 0.09430044774138137, 0.06335589170098906, -0.1730928777846558, 0.11086664818273542, -0.1393676136918599, -0.20223199055411006, -0.06730443467454185, 0.04667509515404674, -0.10596094497950506, -0.15886294081618307, -0.019319783411639483, 0.09766165637475238, -0.010880526547396926, -0.13133325695122736, -0.19149789837733025, -0.18070132292955046, 0.1104931719091524, -0.10674188186217642, -0.005365908655479304, -0.08387332909301294, 0.02150214293706303, 0.0064114839368485015, 0.005000801451787748, -0.04244267474350024, -0.15758222669629493, 0.1912630368924062, -0.06203010243955946, 0.03487162457838062, -0.14634188931236072, 0.057164993181866595, -0.04382698229477988, 0.01829491678969403, -0.17422690918062136, 0.0018750868461330954, -0.03159916900248315, 0.028406156462290725, -0.09346406758022224, -0.019470073884974296, -0.11895632273574759, 0.016850270927304213, -0.10803421068602823, -0.15122092329347095, -0.037283220125758264, -0.010112928337212059, -0.06913326680651818, 0.05395199423316228, -0.2779490086561175, -0.05814965023808401, -0.05195082791628505], [-0.019694647335376004, 0.12344527714365093, -0.08018086592149469, 0.052469718573570474, -0.03402662413024107, -0.1096010024302869, -0.34808478651234664, -0.13268578468403716, -0.07278753728043258, 0.09592337357359415, -0.02666400291797443, -0.051985206907865775, -0.05293149452595869, -0.16801136927648933, 0.019228985280174356, 0.13179946129298106, -0.114754946591451, -0.05188179036998566, -0.07973552202293957, -0.00839924107949106, 0.05347041081543218, 0.09572156004491857, 0.0097579880952507, 0.07221736402498456, -0.03877180035691771, -0.003734757653901942, -0.014340016348279958, -0.00135059222089227, -0.08266134281406007, 0.10683915191029321, 0.13041024578304067, 0.10721360933895202, 0.17380349211028548, -0.047057305089415, -0.09154533297226435, 0.013911278607678407, 0.08078840980978179, -0.29018652901402353, 0.009929417862348522, 0.2100513524679417, 0.050540472346435675, -0.12961797690246604, -0.05889026653296785, -0.03228521571243809, 0.09556908641846981, 0.1588871133859521, -0.09220619811769336, -0.017593659875960385, 0.01126171341180674, 0.005273783210921165, -0.0569924899694973, 0.0467217783538653, 0.026907741128292813, -0.1345292222734721, 0.014498811062976496, 0.06760807281106751, 0.03553807004430191, -0.049586760559019054, -0.0988917935286928, -0.13170236513950195, -0.05348659123810951, 0.012572080883424203, -0.011328982257167648, -0.011375417928473039, 0.0011385562364061997, 0.011257838602405876, 0.0724329026592111, 0.07932802929542472, 0.018026999372770566, -0.05229598228980327, 0.05141464602092656, 0.04246590252172439, -0.037497941367756624, -0.13454262412579443, 0.1641660871810029, -0.025686697582528117, 0.004046759616759421, 0.021463342894570015, 0.061599531293823624, 0.030627958815646613, 0.052030272651350004, 0.017499436536622216, 0.027636775590849462, -0.10125241417301734, -0.10225450547998682, 0.026387773698123788, -0.01939726590971698, 0.0574158980686493, 0.089988181348632, -0.012565348252067609, 0.03564067302747033, -0.10867689233653122, 0.013959970949490691, 0.04456798088130545, 0.038999851953537286, -0.02246653251072625, 0.0050898367225777515, -0.08575106817292132, -0.05514298463601596, -0.038424752337915744, -0.115950180594435, -0.0850089434339754, -0.10548213744480726, 0.03093751845150593, 0.09001499517938688, -0.001702716056706915, 0.11943296520131706, -0.09249874471263157, -0.13420358230099239, -0.027559943425779, 0.1195069569763932, 0.10977623859756715, -0.03555544445772731, -0.04590733015668246, -0.18210464179271127, -0.1762872888039798, 0.00773340159127333, 0.038361322979053994, 0.15386059911263528, -0.10137298894634476], [-0.15722103398246898, 0.12032889469300109, -0.09668851183307477, 0.16108322701956454, -0.00954216690858463, -0.004352921575982787, 0.159252414871231, -0.04677813894131486, -0.07421372611973791, 0.008718266399891098, -0.07665408321067141, 0.007711579666833462, -0.37295065438788116, -0.04488126541251577, 0.16791439943018985, -0.05250110404164675, -0.08726541155751477, -0.3202221161257163, -0.06495424347935809, -0.019776744960560182, -0.11861151271956061, 0.05864039074266595, 0.09081108871852578, -0.15294085500503518, -0.1016059383258196, 0.10871987625186157, -0.0015779623406848224, -0.007075586077954393, 0.1653237685737836, 0.0379516425500046, 0.15293431069172225, -0.04752465574877106, -0.07055378140617048, 0.09121593324938203, 0.11462045248615098, 0.09155250641299457, 0.019460514826572094, 0.2991720714688375, 0.02491932741305071, 0.0376056711005731, 0.0571731685559758, 0.07112254888499941, 0.20105692923688026, 0.025277234506920435, -0.03248170236296499, 0.017944568430700438, -0.0004835649764687478, 0.039244683584293255, 0.07409468814805194, 0.01853675971191566, 0.1247912531433336, -0.08420450244124522, 0.02380679758915762, -0.2972546895414337, 0.08631392296586912, -0.07991259775730863, 0.04197723664618615, -0.04271502075081096, -0.1215152180058234, 0.020944063675973044, -0.06488062053330479, -0.021950051841469392, -0.17289584811053973, -0.17346101194566027, -0.1219535442112791, 0.10041959818022048, -0.09178772772324215, -0.011097366641413585, -0.06070184697333545, -0.09492128690941862, 0.038428995315614, -0.06238867492632519, 0.053774662785914105, 0.03245586769287872, -0.14062780008291173, 0.1707649996732424, -0.0019776575616718716, -0.11144703864778359, -0.018833678202067522, -0.14105411777097962, -0.07424599216030041, -0.26193041012536866, 0.0479468662747942, -0.011585409516874392, -0.19081941199352173, 0.02524735181677023, -0.06107226967260716, -0.08666766672876508, 0.005977213595702984, -0.08037160782232548, 0.08267007382602724, -0.32250620872620434, -0.045891101352275046, 0.10213114781714758, -0.11727788064901255, -0.06648817363392671, -0.04307094111044319, -0.12714817507763818, 0.04560391161694648, -0.03051902139821597, -0.023047799401857805, -0.08123632396962455, -0.14959366857564102, 0.06728555225305106, 0.002115876500904282, -0.14423146498668177, -0.14337700278889304, -0.04053467421022296, -0.003163008143993642, 0.029632321757289037, 0.12809833392052275, -0.07767482722938687, -0.04676382591636574, 0.20880960252177974, -0.19029700377649386, 0.10660625104085356, 0.12271732099754923, 0.015760636615121275, -0.08317020618314308, -0.08220961570247332], [-0.22925966550687882, -0.1383549319050598, -0.10080242758345186, 0.02619633455571096, -0.028573429846865377, -0.16771575773905764, -0.04483285722888055, -0.06628882509359232, 0.012471176877156995, 0.04520293304246484, -0.052768968979957885, 0.044058743746736, 0.07563142289607645, 0.020004812781357253, -0.14179492182944792, -0.17495107553746722, 0.19874133224550528, -0.05881546754049774, -0.04480956095707454, 0.005225125899283878, -0.12962824797390782, -0.11736908289364148, -0.048426646611086345, -0.08281161446279506, -0.05360320952647457, -0.15335238100106596, -0.02658666482912104, -0.14598983120408104, -0.013929932355539049, -0.08800880164370539, 0.013468433763441772, 0.06085511247010786, 0.052233299368271806, 0.08828818142356663, 0.23069159953358576, 0.1671974313872893, -0.3760312837137662, -0.06790987138398603, 0.1410742511289451, 0.0008949568114072677, -0.003911413732644522, -0.07668102501270274, 0.13547196704149353, -0.16190617661121573, 0.023827724728558264, -0.05157924995191743, 0.09747320448185655, -0.08871202603347977, 0.06660616990006786, -0.04262333894252019, 0.1614591298416717, -0.11913619053595363, 0.10148983493750333, 0.1064981173562759, 0.014076790905321797, 0.027525487494478813, 0.07819137819095964, 0.09464715097664651, 0.02978949064024819, -0.08817845131245917, -0.1771416544982102, 0.05127600975850383, 0.0009558598998450163, 0.09846055734404023, -0.028760291952688817, -0.017682983875784576, 0.022972372528325978, -0.07227269180691692, -0.20862015903833175, 0.06705628397555463, -0.08317029111539566, 0.029862281656055416, -0.15550497020299914, 0.012802521692336278, 0.1382016951415777, -0.13779401821635257, 0.12076393904776743, -0.07340104003166048, -0.10005720650226, 0.2172119764986273, -0.036956143352088126, 0.21494879578697687, 0.1192163607176758, 0.21258101927680442, -0.059067053920043154, -0.01658758649087706, -0.044915105670974016, -0.0006498471274622579, -0.0014292194950337963, 0.05229890486501078, -0.09891859249166161, 0.11690459577423373, -0.020374291362792927, 0.008996845432046522, 0.04009123358616586, -0.06016657632851672, 0.012905014665399417, -0.1002557289605316, -0.041951319418325694, 0.07375278461556392, -0.18768808494076597, -0.010263559918638582, -0.08068862707013473, 0.19770414381500798, -0.010782823235189948, 0.05098756253325843, -0.06396257860073472, -0.09576641295507347, -0.19730977374000688, -0.13291068868582456, -0.15350760791706483, -0.24637039587160897, 0.05733640887184195, 0.17323237111550652, -0.07592322187225355, 0.0672107613213567, 0.1974624147132999, 0.03182575695943403, -0.019699354156995343, -0.12419118167553586], [-0.05955211796386212, -0.03641233672081431, 0.11819626024026808, 0.04949494011466223, 0.03005232394633207, 0.16072858952971408, -0.18711862601489562, 0.23623580743894443, 0.11076745914515716, 0.051669522896402226, 0.020485222634060885, -0.08730799299401686, 0.08195786530416337, -0.12379488480221362, 0.16490424822474342, -0.03529959153983907, -0.07618808966659357, 0.035539781342915924, -0.022553124314178292, 0.024919892403375367, 0.04525626174149972, -0.05480980591325827, 0.013500443035688052, -0.06077120184326667, -0.09111370178344202, -0.035823825877139885, -0.0052958494069049655, -0.16378361449931703, -0.07816207186445776, -0.004764817925891053, 0.19742184311090333, -0.0592026892953951, 0.010946554046377769, -0.10121434475561387, -0.04186964205143568, 0.09011070323882482, -0.10408765783787399, -0.021711745835422052, -0.02221214329211168, 0.10587826052651518, -0.1208816487546043, -0.07110686247828071, 0.0844753190204479, 0.14262201233994531, 0.1692134785356435, 0.00045584861990187144, -0.14510888794939877, 0.04539641750785448, 0.013461265246520616, 0.0333055662114473, -0.020732554654212133, -0.1277914924388916, -0.08146317816891607, -0.031113745183557435, -0.08888791383897614, -0.044362870708918874, 0.001321489911869948, -0.20044333455422514, 0.029021059189547147, -0.02478397626281794, -0.09572008171181398, 0.03805190716986959, 0.08543154288751578, -0.0305173117552753, 0.10602489028236073, 0.1050022556014092, 0.008678822363229022, 0.08267436034200848, 0.06195269175325089, -0.022001060686213058, 0.09822678269194708, 0.03975335638507078, -0.0577378839864916, -0.11319191803562878, -0.03859622862531744, -0.07700235965998055, -0.03504195372644279, 0.017424818101072513, -3.578055785987802e-05, -0.10271105978781542, -0.05061641866537359, -0.06683208254595958, -0.014805546184279216, -0.16310804191882908, -0.028405927001250116, -0.05876544305818677, 0.024722313568573365, 0.037704054442455524, 0.03778517801856529, -0.05952848525303191, -0.008918519892144806, 0.0418228489548004, 0.0727825251025255, 0.1816676766414935, 0.024059003167411372, -0.11064906979563126, -0.04134651571348056, -0.13277735562402204, 0.008153981704067108, -0.008778776303526557, -0.14257804338133373, -0.09323295144770899, 0.044056031814751734, 0.07394186070673818, 0.015481872300754948, -0.02708240406564062, 0.07787542974449276, -0.04977581231253199, -0.08343196645437743, -0.1566724345934745, -0.024713960645807935, 0.04012573582579999, -0.04296731685741079, -0.02568819450376721, 0.07649669513594179, 0.03255596208101946, 0.007950400767115525, 0.1519621134823111, 0.07642585908906054, -0.16060442721685522]], [[-0.28279394057129476, 0.025117039803272505, -0.00260580110606134, 0.056689912865031174, -0.16378067110422498, 0.016083771211755832, 0.14346363161149808, 0.14023695905191966, -0.24580544769250665, 0.19938787466153357, -0.16342172104929492, 0.05301276650797814, -0.0023211387072402134, -0.03693675482184148, -0.0017962258138446397, 0.09322850142635922, -0.2112258686794844, 0.031518576255565214, -0.09116387728060954, -0.08720374726925727, -0.08146186990194426, -0.19447354129585914, -0.09507745393722973, -0.10001717163550576, -0.043488614865267006, 0.08049866965737225, 0.19349096814712471, -0.17623545474137567, 0.06412294525732283, 0.06988303613335207, -0.005672947437548942, 0.056228784151261535, 0.060958536272690135, -0.012687554795323722, -0.11011586175922167, 0.041722543717248595, -0.12491026750967672, 0.08983537265728543, -0.08426944484604752, -0.11409519855539879, -0.021507789710956692, -0.011048749545349935, -0.2331084214696208, -0.033426670245931635, -0.056808999057435576, -0.07114174525273467, 0.06948685162182562, -0.11758237300757277, 0.191559636134682, 0.12402773505470484, -0.033195583467680374, -0.16363257952679292, -0.17296204360020995, -0.028852612012308154, 0.10741101979901735, -0.014465579135026156, -0.09969727063806852, 0.07666211389205191, -0.14780189459934343, 0.03695925335210902, -0.02518307102790988, 0.012817927367680775, -0.06894320967414688, 0.033375668183963855, -0.04798024183306241, -0.04516360977154704, -0.05318337221622734, -0.11236234163339892, -0.11833649934670934, -0.18061146810647963, 0.09830921321709765, -0.08642512873920519, -0.11156632063490302, -0.09515260366387868, -0.23960000860492017, -0.15726886302283355, 0.10541746919257557, -0.08209145406327588, 0.06994203715438249, -0.08184310199432916, 0.054038984350972825, -0.06280223727974393, -0.10534561183174507, -0.30320763583532334, 0.12424029748286894, -0.12289322433321148, -0.05489133273583748, -0.08958920736041728, -0.08324968889489158, -0.010201950643098461, -0.04280707485971364, -0.125322862293728, 0.0014703214322730725, 0.014138900056586598, -0.14225028116802435, 0.029916027207022473, 0.041868409364538145, -0.011100030648782486, -0.06079988049802006, 0.027138818598116527, -0.04436995103692057, 0.09338683714947585, -0.09905047570314984, -0.16289182070716515, 0.07843391031129077, -0.08282247311195558, -0.14318109887347136, -0.09570465689018492, 0.12653483833644566, -0.015422692335719882, -0.0797504061758534, -0.010036646577010404, -0.19314404323892626, -0.0526498968092091, 0.03864080632719556, -0.13962772176818464, -0.06670167779077367, -0.015217173440244768, 0.0011171999291089208, 0.04207571031548356], [-0.006292277908839932, 0.009173791711816683, 0.0941063203489756, 0.045577094965708755, -0.10055781816550535, 0.08417198993560762, -0.22621025579450066, -0.09796661296506799, 0.0930126637549911, -0.01213062561212022, -0.06570797894909268, -0.043248576137822806, 0.12313985108243854, -0.11860258933951982, -0.11631436896295341, 0.05099374898681149, 0.3151446739712666, -0.15670692994634894, -0.04301178874873129, -0.14975513605947735, 0.07541993624815263, 0.16815788481650776, 0.00623456304134737, 0.049367006064303935, 0.11654716546144601, -0.08543513653874, 0.0039783615727727, 0.004129917975148993, -0.11118644490110828, -0.11007624107390716, 0.18476548643578242, 0.1468051958933259, -0.048501263276833115, -0.0985736575844114, -0.04294054252734908, -0.023419336917714365, -0.303251319298493, -0.16942617387579853, -0.00041638795099788325, 0.12039971211787802, 0.06363056688249076, -0.1798484753380294, -0.1924926761278989, 0.02696740552645731, -0.12300211029852362, 0.106861647141632, 0.007707714404613674, -0.10423239331063458, -0.0026992191319670953, -0.004370094006719048, 0.09728073041274737, -0.07836490818522736, 0.09654877745744606, 0.16444112812578573, -0.08914769710453462, 0.06817178739905289, 0.05557251780380166, 0.03578000341808984, -0.15765409581507128, -0.10247240772039834, 0.04478432136719174, 0.026264249971100127, -0.2594570098966556, -0.05831472747551621, 0.2443776056251441, -0.04313889377978553, 0.11525380821370843, -0.11401061681892832, -0.059426415875589854, -0.16957228054509527, -0.18095663474341941, 0.08264794042085574, 0.03709716529098391, 0.09035079129685829, -0.0011874440583653154, -0.004419324617499521, -0.027102314210737027, -0.2244602162771523, 0.033720444395847406, -0.2845620035232472, 0.035621436630445535, 0.10944369281507667, 0.008314462498445467, -0.14251781309146494, -0.23891090683474867, 0.01614445495972604, -0.039324551135355414, -0.10020278454600973, 0.033813763251307694, -0.08009771862423361, -0.05042372676358853, -0.0590865853896521, -0.01323618133499109, 0.029086274311533364, 0.08609049136027117, 0.02492070881163325, 0.17599994357353993, -0.05769548160350944, 0.06519066441635617, -0.01114884968525234, 0.0821633081258211, -0.11587540880213422, -0.2525147957068223, 0.06454782761037438, -0.014225619542325868, 0.03343029975232424, 0.02790401750948364, 0.009430312772855373, -0.0786697990440971, -0.04772267050500912, -0.22171791866767498, -0.09483511930956191, -0.12449842131225028, 0.04383157842422139, -0.06996954972354354, 0.017985531607195886, 0.10319156828339919, 0.0030916333664204212, 0.23389410013079925, -0.08446827095280467], [-0.14212047560011173, 0.012659693390071749, -0.00916993944114896, 0.09830391618805358, 0.0168780486992185, -0.07438674442381776, -0.0804408021807539, -0.012728730759485229, -0.11178121629415089, 0.0883426285562986, -0.09200725824793744, -0.021808729951552294, -0.044281189951048565, -0.1638476736754386, -0.2697545670919889, 0.05411677248768975, -0.0468959973924389, -0.16009401370572363, -0.09280877618800941, -0.059703758840022866, -0.23468888350491268, 0.18668906295799986, -0.11461347892200587, -0.12004688847388804, 0.03279528669435139, -0.018454881657678567, -0.1573839209552861, -0.09159756584708226, -0.07562573176283122, -0.031791160134998636, 0.22008002285196882, -0.07948896372667351, -0.04719315659872986, -0.07066455386665561, 0.1169054276213454, -0.0033669440925711133, -0.21575789517319954, -0.08778618957888895, 0.10572587333419657, -0.02824975811912421, 0.12712744746289675, 0.18265905618645922, 0.14367518327227927, -0.014269961813755274, -0.021533339961908787, -0.1677995072852913, -0.06758211906456621, 0.06991335594037272, 0.016057088551924364, -0.0312782947117086, 0.13345065840861559, 0.020326201125141708, -0.1949546649657552, -0.05942900927822238, -0.05493820893928911, -0.05769889088443754, 0.010312230506007786, 0.10957564058269999, 0.02824411138415054, -0.037541344655444446, 0.1270518126734324, 0.18388514581543647, -0.03482904928413185, 0.05565732482973464, 0.17825712350644318, 0.14838889116167497, 0.06820164629847866, 0.21233393911214102, 0.08119511453101806, 0.10578661969464903, -0.07196323802237199, -0.011215582159152384, 0.05007238900925185, 0.049202755517405605, -0.0337752682797283, 0.059242109168014305, 0.07344247820805289, -0.060056248724291765, -0.035023761949368584, -0.22640236133160002, -0.11516739877856576, 0.026665485654533153, -0.08935367615991999, -0.13728323044765137, 0.09955354838703728, -0.1467007605132319, -0.046138522501234784, -0.15967871248337046, -0.1357391423004626, 0.013394795215862907, -0.08076458541792565, -0.07027952117635973, 0.020972706771883065, 0.1632022557329031, 0.09570959761437141, 0.04996267599045742, 0.04319262961370097, 0.02998426475070133, -0.0908521615357446, 0.13447588318685683, -0.12903845450300178, -0.05432829916562221, -0.25870941442974865, -0.025647008238585928, -0.19705230027749282, 0.23853768792438723, 0.05303124212824688, 0.09438413479302407, 0.053863579720141205, -0.15957930164450781, 0.001042699466116537, 0.025764898395100103, 0.062330061205623594, -0.021990989413705912, -0.23782819397754165, -0.06947355554160987, -0.26269006825833463, 0.12986246559912504, 0.12197455868108827, -0.049263798128027364], [0.018833629819388933, -0.11152675168034794, -0.05750078906241852, -0.02793988215442422, 0.03193331524863372, -0.054881153454763375, 0.14281786446576086, 0.06819177549231, -0.07644631222947526, -0.2548408562204759, -0.4267567684735308, -0.21763446622714594, 0.02493697146920086, -0.22789381713908904, -0.15249920335070974, -0.10953016856865465, 0.11608975592614984, 0.2527805372216425, -0.05368701505693154, -0.07171443716590013, -0.032874283269930964, -0.254945323677091, -0.29879519844054075, -0.16319919648558495, -0.20840133552614853, 0.033826330626877205, 0.09554563948527697, 0.21264556970993517, 0.2590718076563538, 0.042721353035883994, -0.04318909853831825, -0.04925108430885422, 0.05096784194366722, -0.03936926868964098, 0.048556933539594616, 0.03809729799086675, -0.08594090790239474, 0.13008032090206217, 0.6206780498616152, 0.007870557637981305, 0.03943113560534713, 0.2391662407714788, -0.0630880693999979, 0.13535825334108054, -0.02614630352215899, -0.18449137743199462, -0.027859959840688352, -0.010923293174252178, 0.04606619500501159, -0.009726003161304828, 0.08913922827136592, -0.2304294255991702, -0.2086732689685107, 0.04020107128805088, -0.1539751892321238, 0.25838236478064464, 0.2233513272209507, 0.04753284024735591, 0.05636454010188596, -0.0709478379658234, -0.2222868311660109, 0.10057728155915636, -0.2779726065676379, -0.21991724660418469, -0.17356249366039547, 0.08492077082015112, 0.029271790113487718, -0.10204846031856081, 0.028559867393620625, -0.11756717703736064, -0.1014836204054149, -0.12071859095973635, -0.08915225690401521, -0.14831969099291645, 0.11934128193767306, 0.487869281896442, 0.22108145147475494, 0.15827323554414954, -0.17657199538928608, 0.11930930534368986, -0.16202512302207142, -0.09884939696019043, -0.12442362661157538, -0.22986035430704505, 0.09515971724283305, 0.12080254606071959, 0.1063587018774967, 0.09014326951906947, 0.033650386040091046, 0.0514910323759481, -0.016229866584165618, -0.016290252647142404, -0.3432163207131152, 0.03374146060237259, -0.10041119718433103, -0.11985720903379823, -0.15723228076039514, 0.13010391000992103, 0.05206920084926627, -0.053969225735957256, 0.04141979292610122, -0.1397553722159202, 0.13563448041668333, 0.011509503787422973, -0.03119839095612591, 0.17360257165796633, 0.2076372815433662, 0.22911855033204218, 0.12025644723958023, 0.06531346123248422, -0.004415677559033924, -0.06315259255416569, 0.29919043272917606, -0.13181421201619334, -0.0731092388634918, 0.11775921461713201, -0.16072200572682707, -0.07842512742706095, 0.12002557020974758, -0.0760826631637554], [-0.014474613264959007, -0.013530552005831845, -0.00880875675895002, 0.11777463861057191, -0.06346500268545177, -0.13068998557924197, -0.15308508100214643, 0.029632754134784438, -0.02229416559512875, 0.018872005196210857, 0.07741312794148802, -0.07981629009026092, -0.10999950088398731, -0.04075264889458233, -0.05665402586771084, 0.1373614548044186, -0.056762234821939386, 0.02817775787837811, 0.06356578583687719, -0.0038167041541301793, -0.05161751804665752, 0.23800169683608724, -0.013164992127865458, -0.05781853559813877, -0.03702708154530577, -0.030137648120964325, 0.04108917265577154, -0.23503618902601886, -0.13382604115660549, 0.04632054165540715, 0.025762238698927756, 0.04647539950855492, 0.009198205653653629, 0.14517552209217496, 0.03636477494506972, -0.11422405525840909, -0.11183493021887289, -0.08906336225688924, -0.17772318861449082, 0.02349228106203857, 0.039852817360848634, 0.08139263409918755, -0.06496280100651436, -0.028570516036676, -0.18206028338954855, -0.03819039257518594, 0.0259700657356305, -0.2164083773135713, 0.12310772830905152, 0.09922597195436411, 0.04139164842660493, -0.11393597846473341, 0.035739545624464214, -0.1755896010581928, 0.08041580684840499, -0.17497857025534702, 0.1135213286573852, -0.03686791116227921, 0.06122152286926077, -0.10288652566851507, -0.20577155960163657, 0.01872511847135424, -0.12388947763753066, -0.057143050115925936, -0.08746585611360146, -0.01854842119597383, -0.06151382872146817, 0.08913934321921085, -0.0964074920268766, 0.0006054992292944478, -0.0696304426703377, 0.19535961314994857, 0.03105760535728855, 0.004393530650771241, -0.0948836283016856, -0.10881944109781641, -0.10700139665671697, 0.017548806411381034, -0.037664835947582034, 0.06942505168151553, 0.17309185625281423, 0.018874475624204867, 0.02618557790990617, -0.058746434948580215, -0.008848779614090436, -0.1141792320405249, -0.18186192082509842, -0.04558013018876256, 0.052237031568155595, -0.10413088976706085, 4.269195217822333e-05, -0.019157169347818755, 0.062366377636130475, -0.2486929209932308, -0.05761729038123429, 0.11794843339423657, 0.09022421359765719, -0.05593513776035542, -0.07153908260909174, 0.1448561771747913, 0.046730339484640594, 0.09512587054906081, -0.028551605079159822, -0.023063898312146912, -0.08484947867020709, -0.11665710770530266, -0.19909086854274183, -0.20892008346042282, -0.01075613676789208, -0.06755548935710225, -0.017396450842376038, -0.13561756796970625, -0.09003101191527571, -0.002489024041415518, -0.0682898822935362, -0.07813852531448216, 0.11677392393471513, 0.15432956846412899, 0.14264935494848624, -0.17726028893806794], [-0.036081706542420655, -0.012348312849472019, 0.1553079397187945, -0.10909574303680518, -0.016635012168784456, -0.10779381549413065, -0.25206634526511196, -0.02063112003962466, -0.018359445613397453, -0.10666628890471143, -0.0009693312897418695, 0.1200575135758165, -0.15395927428628908, 0.06987703464656961, 0.0947396979304942, 0.09619251695692546, -0.02875875007365272, 0.06073819407683351, -0.1572599657600024, -0.25936288245898614, -0.2905441173022144, -0.15371380852942115, -0.08021569802392343, -0.05206788148341806, -0.13007917250117793, -0.0497754510834669, 0.03709127006046669, -0.0008687109336771536, -0.0717041320521183, -0.021741339777270788, 0.04296859688391857, 0.03504034079378102, 0.035488271550957795, 0.005014798106409032, 0.2572472329269264, 0.07652520100293632, -0.2170957956838293, -0.19020534294175345, 0.13403187714449258, 0.029986285911094788, -0.09737839778865702, -0.31115911008667885, -0.07937111517759812, -0.11760295180080876, 0.08042986203719664, -0.14841280041940122, -0.3322670796370415, -0.18016400794894755, -0.1272572077647483, -0.11067065463151761, -0.19074564114227363, -0.17270627776610437, -0.03574895473298752, -0.058317096883130255, -0.30842188014877325, 0.04171182137734978, -0.044788596572374856, 0.04404034452987232, 0.07494870941327499, -0.2148936821154212, 0.1675872160923655, -0.040223744965173884, 0.008701941365883446, -0.09496332485594665, -0.05963115602353892, -0.025251254071623618, -0.07323336723061093, -0.07581583210077383, -0.09989160925943527, 0.16950315535261656, 0.19612291437219392, -0.08314143097381421, -0.17094724259934857, 0.10320219857928008, -0.14276468627547018, 0.3334206366021352, -0.1515190218309302, 0.04467787162047222, 0.07852889507843122, -0.1947517738226062, -0.12072984555771812, 0.09884174473452997, 0.0013533606328783284, -0.04380931855697398, -0.1646803472450261, 0.030518985710050572, -0.14108216319499822, -0.0565763588197903, 0.017471875922587463, -0.12492209373223345, 0.12116730712649423, 0.01215770715653019, -0.08865699082611321, 0.18886535409239508, 0.039963341909112673, -0.08447772015221902, 0.1562025071314695, 0.044850975687672684, -0.19616873965664583, -0.061361741263888214, 0.06152148468063345, 0.09831579953869085, 0.008026698421532813, -0.006397951298694031, -0.006239452755588206, 0.05167282927619872, 0.029704087129134235, -0.1466542513778111, -0.2261814458771166, -0.20813266912507777, 0.09452728745731338, -0.043243550269601375, 0.10843116669455917, 0.1169196182769417, -0.06978038333967256, -0.10667244758634196, 0.07337873527625055, -0.2589196058658404, -0.06923523792247246, -0.08791905230206636], [0.0332368382479243, -0.12311947713687865, -0.15049603052609176, 0.062064718200558686, 0.04506744675716708, -0.11917576699103295, -0.14350605876686767, -0.08501124066581028, -0.00450675546948734, -0.03285768639775257, -0.05073268369626006, -0.08067252712670829, 0.0572986174164694, -0.2801100961699587, 0.00651294172232158, 0.055148143359022496, -0.00133317235683557, 0.023695146730860404, -0.06964271702751135, -0.009825105310427764, -0.09423698542435421, -0.029839171811292132, -0.06926180171771246, 0.005990195770792697, 0.13342861583079946, 0.12669724791310394, 0.012485898387873264, 0.0600981635077562, 0.05861783427459216, -0.039018422695487574, 0.1144718554820961, -0.20283574329063728, 0.0066496152744661965, 0.0826824989067001, -0.02416001765302742, -0.02623485347079127, 0.005574301434617917, -0.056781297155767796, -0.02472092569462579, 0.09311557365684224, -0.06571461904507073, 0.09359242956678156, -0.045978543452865756, 0.022134850693949493, 0.016415751979144227, 0.07946743086746988, -0.16391323673592084, -0.06602191367900341, 0.17555632465443946, -0.03194183825059739, 0.07721744162918713, 0.10258577807184982, 0.13062239535996395, -0.007127155723251259, -0.07847010691651475, -0.10465587089022595, 0.1203320683260036, -0.07643058047886837, 0.00803524168976052, 0.10142933204521068, -0.023020158378757823, 0.0830699763241156, 0.16896784050383631, -0.14676959305130527, 0.021908485932106248, 0.030299407617967063, 0.13438984866792184, -0.1000954779653535, -0.11370295483869404, -0.0356061864276438, 0.07925885424445243, 0.03679154840423411, -0.0019405655163723346, 0.032675781986102014, -0.08250450667946145, 0.15819236033037573, -0.07204011237948509, -0.12446016238932543, -0.0029285216989904965, 0.1120229117182372, 0.11053031874770461, -0.06401707693761706, 0.06386066527447115, 0.05463084311060937, -0.16005083991333233, -0.03600621293524139, -0.27459800432316644, 0.01180438305679707, 0.104513549833057, -0.1966877030324226, 0.039884866111017735, -0.013873856400202928, 0.008767975792482884, -0.10667607697200207, 0.023645305355782412, 0.222646283939742, 0.008864668276118863, -0.011270110417417887, -0.06690151732858048, -0.040419208947747816, 0.057380646282565215, 0.04767471095855611, 0.05209341375308549, 0.08579810382930664, -0.12136695860231479, -0.1082728741504966, 0.03013391802174473, 0.03785644274127012, 0.04803108982705575, -0.045138723786222724, 0.06119726755340964, 0.0632571152829479, -0.06060135118940999, -0.024659581544002027, 0.0010403741510452665, 0.09988458042548051, -0.12717757142412675, 0.053115029746167726, 0.14339637309799594, -0.08112597928360818], [0.0715731571219366, -0.06352957282353669, -0.2814067276378486, -0.0044865701324951724, -0.0120617386671985, -0.13426646196280992, -0.11333030459770213, -0.005914652784595318, 0.16491600489142416, -0.08199903804405381, -0.0681977886344128, -0.20492931746337237, -0.02516747290794458, -0.022902718222330837, -0.10243403993823894, 0.04677855301261879, -0.14871672241101572, 0.044362971013274306, -0.1062321441501488, -0.10249921598658852, -0.03557657278238401, -0.2005458859559119, -0.014319053455923386, 0.054137004160393964, 0.0010145424136777169, -0.09273316361071374, -0.049073144437120034, 0.03397676517270691, 0.05869353575617742, 0.00457663664887157, -0.1672063074635616, -0.17777005575888472, -0.06413742393048791, -0.017303128466917214, -0.053438329489740685, -0.14880747349895354, 0.09400976173582871, -0.061263827077655125, 0.16171229301869625, -0.06587260482388788, 0.17454067443772403, 0.10808189277865285, 0.06955920618082864, -0.03570428532071626, -0.0002993224555937334, -0.08987576814150372, -0.09486060248694123, -0.08815653009568301, -0.08899375912686433, -0.02263610113508179, 0.022192052043442413, 0.026766646572001646, 0.01155698922896677, -0.12035027327305661, -0.030683729110148897, 0.15434497922637064, 0.09762162718611524, 0.012597199788071384, -0.062097527286268765, -0.07013179581857767, 0.1004061209796075, 0.06672793645668133, 0.0881515537958978, -0.1450166970675578, 0.037049414471460415, 0.1458619244511954, 0.056098870256671256, -0.23325443317328237, -0.0020076894584343218, -0.05742905420084476, 0.018676340747236453, -0.0648620115922613, -0.18564603590347514, -0.033619668120302405, -0.07502404444555712, 0.30693741704879274, 0.08573752376783557, 0.022846899879548264, 0.020166413902573666, 0.09425003979080664, 0.007332568413792827, -0.13836387249728624, 0.10479178271246296, 0.06504511055413262, 0.023830627221508284, 0.046862344044985425, -0.015552898963849267, -0.11768640508095789, -0.13083546367450855, -0.030143245823914942, -0.12714216996120675, 0.07103569104050539, 0.08541277273851568, -0.029600597960627993, 0.007649009218125577, 0.15364645084666015, -0.061810490776369735, -0.08197685902357725, -0.10744697023243087, -0.19725288267158914, 0.20309376475495358, -0.06064300760112576, 0.00649949834700926, 0.015165778738451013, -0.13471881906158933, -0.13390504440877415, 0.04461602743762081, 0.15957300212880246, -0.010033882342696499, -0.07978943593181047, -0.12352001701688813, -0.028217981547190348, 0.03665306835772038, 0.10778769025403125, -0.02412743106258811, -0.11556459496386169, -0.047667180397390395, -0.13464007418371518, 0.04757361296495956, 0.0563696450238243], [0.220418968277253, 0.06893250087107161, 0.035031892628321036, 0.04152917525353954, -0.17420689715109547, 0.11853842194392027, -0.15339887904672242, 0.05178951073650614, -0.17420075960178172, 0.020189621983446183, -0.031778211142009294, -0.10925211308863356, -0.09868354481091364, -0.18108494813704493, 0.012109284016281112, -0.03687048028590971, -0.14649340945497247, 0.011944549666340018, -0.11181685235683599, -0.0722214672898022, 0.0779659003351983, -0.09828519990389456, -0.04063281227703098, -0.04083172493450965, -0.009187346009641401, -0.06478888039620817, -0.020524524994907298, -0.03283754389393724, 0.1394547573046851, 0.049935169390218574, -0.17834767299641624, -0.09672443798377667, -0.05271308798623962, -0.12721289600349092, 0.04734372404968224, -0.03311052398838329, -0.017733434868888575, -0.08242676996851138, -0.011164820971512683, -0.13799885201910528, -0.07313277862186306, -0.09744503159864834, -0.009619743106915551, -0.10837573519504164, -0.10989928622353243, -0.17493803801016775, -0.07855154784382705, -0.07464754196367639, -0.05192021976448821, -0.1622131827974589, 0.019709835025965936, -0.216648786147021, -0.01477465131829314, -0.11073720970243305, -0.17998799484515485, -0.1259891189997401, 0.00945391050580766, 0.04265886656080509, -0.09355951003659485, 0.10029848888226729, 0.0965677866188332, -0.1410870135442116, -0.16965929177013953, 0.0909850863655466, 0.311946823446951, -0.21045027117485474, 0.08792992178978302, -0.02298945165324104, -0.035598497895806255, -0.145373763192496, -0.022613715749633473, -0.01862326831618465, 0.072292498679689, -0.00513990720273802, 0.04210812970789473, 0.05724778713966318, -0.1123540138806449, -0.09121677082131091, 0.05021238094321877, -0.0035686196606401536, -0.025897491167777054, -0.14160858715609753, 0.09294834104502028, -0.2515763866113887, -0.1972481194781325, 0.047148111823670194, 0.017204084887189088, -0.08870667131401949, -0.0743200619004447, -0.13174989109379154, 0.05158790460734994, -0.045047396697142965, 0.07143533705874366, -0.26291229229916047, -0.034770595535469545, 0.15284063542625217, -0.12448968880273358, 0.03663260073036796, -0.03871754596315984, -0.013678189018636908, 0.04372937752823608, 0.07130180555753546, -0.04779699426979813, -0.2360052479837556, -0.22947133455334495, -0.0968366480463792, -0.107979588117498, -0.1658300561322496, -0.00045852656542064185, 0.018485142047532772, -0.09369160822526308, -0.08033005196678178, -0.18869205730836844, 0.05170722487736431, -0.04597424390619465, -0.08002333504354985, 0.049786570209775075, -0.05268390901961289, 0.17377239038292636, -0.1309076296694664], [0.06793060577127841, -0.002236064745181074, -0.1424988893280355, -0.0010983180807092336, -0.026384875703033564, 0.0627233370445141, -0.012654097633633425, 0.16765758954140156, -0.1880078703637568, 0.03516710235555417, 0.009908465946438348, 0.1684937065198443, -0.00789101932071279, 0.032389132757089094, 0.023536459973958913, -0.16069830236437865, -0.11367059510717811, 0.04677173650140829, -0.16365547375242687, -0.022490519246712443, -0.05344592118891262, 0.10175495781258564, 0.13070747671293909, 0.1265322288199461, -0.14203143566144774, -0.005716943928164952, -0.12762505544687885, 0.013485647663926471, 0.1088540466166632, 0.02676145718832552, 0.04099055216336616, -0.03256218339130076, 0.06120554715202783, -0.01953898676404773, 0.019103144995694443, -0.09133707711682076, 0.1361988451367437, 0.015267549932785989, -0.22095065073274053, 0.0734750565684124, -0.03704031672047441, -0.16348540653845933, 0.10203732675615101, 0.06343348680669048, 0.03842035228770734, -0.1421262312738208, 0.0030400131164892803, -0.18928024133336036, 0.03505137696892371, 6.578022842042655e-05, 0.022038684490942796, -0.19484661640124912, -0.10362150604448711, -0.09792408461356679, 0.1048393263031819, -0.05661252745730012, -0.09271941138081286, -0.024562016736997816, 0.026360955241519567, 0.061718750450176295, -0.16652815287036712, 0.0014449323395340533, 0.011961991273624132, -0.07503226913838736, 0.05853158041383978, -0.10358896970925324, 0.04492725347767365, 0.045213899287296494, 0.08682928229121932, 0.13042594530076143, 0.12538132972298008, -0.011884813314136744, 0.11052179078714224, -0.11102763648772557, -0.10276598760706639, -0.06462940306821542, -0.06457072145648282, -0.06915035893942904, 0.037167847963823476, 0.0011251716757808379, -0.04180506062712737, -0.07605223385767383, 0.048278618329891, 0.007199058913446351, -0.025994897989719948, -0.0019099497518428096, -0.04463336147901897, 0.06524489307388104, -0.2560000650236309, -0.0654074777690987, 0.00219583081198941, -0.14848542490999841, -0.015475691295446861, -0.054020217429453614, -0.13899769240562312, -0.25664634809395803, 0.08135148663253003, -0.007970529147081032, -0.036138428642022866, 0.08495301361911263, -0.1224738330477503, 0.1416395719110477, -0.06755809757099208, -0.10478966135042128, -0.05512456619047194, -0.01974534987587815, 0.0747683569348004, -0.041171839340116034, 0.07209968600766206, 0.09061371629376992, -0.08723670947067724, -0.17341640435603042, -0.21280248326027176, -0.13925468555294973, -0.11541583279886006, 0.020990719544862903, -0.013194414045732716, -0.06533746931275852, -0.04285310857708324, -0.07973520122618458], [0.1078042140855622, 0.01538568059832546, -0.06257450761715115, -0.09039980908901252, -0.1151002345268273, -0.017614076124873312, -0.3437198018770116, 0.05905800569018595, 0.12456427367893286, -0.05261441368869519, -0.048320644459607306, -0.07907639115180334, -0.09054341228349945, 0.17454641348739985, -0.07965588022562681, 0.0721404171653975, -0.012880007728994664, -0.0210370412090177, 0.028758448781095194, -0.17659172726595065, 0.14183937967576765, 0.06642669860858584, -0.08006678362698236, -0.13314572725147897, 0.06528244030064607, -0.08970300672833488, -0.06562161187162839, 0.08618481799128495, -0.08381810645209758, -0.07024202339307097, -0.021244619582333243, -0.09309828331150213, -0.07419268249119185, -0.21497260207868327, 0.024290411277694136, -0.1109448721310056, -0.04400555422800568, 0.07285449908665065, 0.24818371564469435, 0.010086162455062286, 0.030075053481089704, 0.06628386048360403, 0.08963018274983356, -0.04253573401627631, 0.0033057571571097726, -0.016405441723067307, -0.0748887611292762, -0.03585059028852958, -0.09993348780998688, 0.0623887349209041, 0.10439900860354406, 0.021515835831553733, -0.1639509602244354, -0.10581411422427392, 0.09149407013892163, 0.06911026808886736, -0.04833728054316598, -0.15292938296289724, 0.14558449175332328, 0.06891622137035322, 0.025733369700539716, 0.29262544337975605, -0.014767784094802096, -0.07428205532144562, 0.07835020870893404, 0.06680986586278206, -0.19369722919725366, 0.1987053305100849, 0.04393996290698305, -0.10574831762614736, -0.08771656254187186, 0.042511787396471934, 0.10680430773721655, -0.040672764919588315, -0.05721200091172668, -0.03981545041282641, -0.09838264554177235, -0.07536743886234754, 0.16546945629258022, -0.1897552657460561, -0.09271068788512535, 0.05043802778526702, 0.03680483773216144, -0.11837606610524296, 0.03826989989581521, 0.03384396291457327, -0.1353606164507222, 0.04903371216251253, -0.08008745752235435, -0.03034212896803498, -0.21938895932101404, -0.20014646596811342, -0.251423586557207, 0.11831284119300985, 0.04220012196489473, 0.21374622675421537, -0.04549859548644188, 0.0010918079245262969, -0.094976148088743, 0.26426975021290683, 0.021058869547209577, -0.08020076414874587, 0.07101270707584224, 0.06256979893789595, 0.12665082195494495, 0.05087516635011598, -0.08573768057707448, 0.1090638628646068, -0.10664744441386169, -0.2274901288167207, -0.014569527800557166, 0.05318984798448605, 0.1442083659986541, -0.10013286708949781, 0.03729037525402728, -0.18977706222145663, 0.30916255635729617, -0.03310988594302335, -0.06759279412180688, 0.10408874287597088], [0.1402651149286857, -0.06669827447782997, 0.17139771767897216, 0.03961863250711782, 0.16823865135596022, 0.021222242182110405, 0.11430600802402623, -0.1009027120950352, 0.03653992219158635, -0.05971632480445317, -0.09559775421042505, -0.11785369895530368, 0.027523063775983705, -0.13094128205437122, -0.07573787088435363, 0.11984907518642682, -0.008927317299110357, -0.03162955602364038, -0.0996552890392949, -0.13514471969444822, -0.07793547804976977, -0.1091438377277314, -0.16011786373853584, 0.05315859685665987, -0.04556326482364824, 0.01932045036619765, -4.234086639808174e-05, -0.20883973831785627, 0.09757438828652443, 0.0686678296262242, 0.054872464341002604, -0.15081841464769974, 0.06962282152261891, -0.12677324128612102, 0.07814639590301536, -0.04760592851748443, 0.04013846934430122, -0.024321381910725727, 0.0667736183739929, -0.12328786438032995, -0.14415286611361067, -0.02034272177162938, 0.0497114643704801, -0.09742927206328718, -0.0861990258420589, 0.08855389012081229, 0.1513994297976631, -0.04594549157622504, -0.0007890490400039773, 0.17817448407275355, -0.1532848943657559, -0.16215266704470682, -0.047446639110440385, 0.015864943521587915, -0.0382170208792532, 0.1617701946545858, -0.0017009872492032758, -0.09874947746583927, 0.04835477694980869, 0.029211365743908948, 0.08686802354995153, 0.19295428660686262, -0.012778101763417532, -0.02144348203264299, -0.09149801036287684, 0.018792050434179672, -0.0015117052146696066, 0.08076960953222807, -0.0036873167853887934, -0.11259279504039484, 0.12166205141023306, -0.07789483269669731, 0.06174725386426382, -0.02604689838163834, 0.031151596653236663, -0.10141832759417518, 0.12351954624143746, 0.020036330249329937, 0.03408600695342557, 0.013101926787866005, 0.08284967588750351, -0.18654049240361015, 0.15960432131952854, -0.30311125906338215, 0.02347965417536087, 0.056918657363942096, -0.16902315464651313, 0.03497281906680848, -0.11336750681412071, 0.04335819556231834, -0.0610925458872539, 0.07003243395009512, -0.04994581868184024, 0.20303911679186354, -0.15537010189605877, -0.08968200952162866, -0.05228761563444282, -0.08018211751384599, 0.04218086462965098, 0.050873261924597346, -0.006235410560570035, 0.1698504451352612, -0.11751415178970108, -0.12424287263586964, 0.03935103818493695, -0.10194602293466848, 0.02743607061411919, 0.03973835670408791, -0.0752153685662874, -0.15941270573745017, 0.11377363754442571, -0.14565954235707207, -0.029345404206582795, 0.010836614602269272, 0.24006196096032356, -0.07891605111275077, 0.0381383435003653, -0.09901646778258968, -0.06023779589179523, -0.15611895967502704], [-0.02248886332491769, -0.10395064203577987, -0.04057983816551785, 0.049913206766485196, -0.08457187533029809, -0.06664818134733418, 0.0700698409743259, 0.012060818385684232, 0.1316243190754536, 0.01116489126583113, 0.040430346859136955, -0.1744479717651728, 0.015088545869869517, 0.15007045829066207, 0.01194851091784923, -0.0015122721349561158, -0.06275299986700471, -0.05567275326479994, 0.018742215132953356, 0.08887443462692027, -0.09060132625944506, 0.18435360017554786, 0.024636613218590304, 0.05188363276763435, 0.0060538966373293625, -0.043048939868477985, -0.023624766198670866, -0.1919111346379781, -0.09843955438015384, -0.0033760085921877843, 0.15800617326685093, 0.05625137448648401, 0.06726399520522729, 0.14619769564011273, 0.030788407866429293, -0.06545937792467997, 0.051601739540039715, -0.01032549163115729, -0.10401327512706574, 0.06161316309848494, -0.05070535664522076, 0.05680921678793836, -0.005935763567154997, -0.007492862489792892, 0.06760731639003063, 0.13033825580391817, -0.05191168672526474, -0.13605005238995013, 0.11961933254510287, -0.015165900849258606, 0.07231141078943183, 0.08973415859197063, 0.053109063389072286, 0.018128091525740915, -0.05298339849803574, -0.05938244287054689, -0.030009742785531247, 0.12652726168839365, -0.01314707374355237, -0.05077320216598129, -0.11402008267662544, -0.2178722064167958, -0.015851421607950028, -0.04676934466271, 0.009857589051564482, 0.018709624482070805, 0.21759029626955728, -0.15031190988359816, 0.0319275145286727, -0.0033145368778344404, -0.058103923024526556, -0.04051301939733468, 0.14745616530937955, -0.06855781581934713, 0.013385215841316992, 0.09762060715730599, -0.0012506833769283026, -0.1827725061665829, -0.0014781088203877435, -0.045793080242482076, -0.003441011776989277, -0.07177446326109925, 0.01319778540269979, -0.11000842917618416, -0.21902870762211493, 0.08810331075555293, 0.0896450326425321, -0.05932996741047745, -0.13688824742991468, -0.022212391496363094, 0.002397125058067774, -0.0028862568561029292, 0.13455234024762894, 0.048338720700063245, 0.05286148220236317, 0.228710878887659, 0.019274840344305384, 0.07333014747563042, -0.17455082932578772, -0.15534690310635646, -0.15016024872571865, -0.241166874350065, -0.07374966652453058, 0.08254371670929893, -0.038784827120367606, 0.016554578184497997, 0.12329798465238893, -0.013311072788280379, -0.0532983621414219, -0.1639175371808668, 0.02342009816560147, 0.0035571375801809846, -0.0879626928737267, 0.14292211616688288, -0.016221843974999595, -0.12396052839482397, -0.06288940672038837, 0.007409595416091128, 0.013021926673680467, 0.028328938734365053], [-0.10118331995344512, -0.32374455778031924, -0.048422256093622364, 0.029325722363449165, -0.03983461760034896, -0.09801578590364335, 0.05488048894812066, -0.060226961765855416, -0.06982803348802168, -0.0863184685287338, -0.05523606876882356, 0.0565374006096599, -0.04400488285603552, 0.009654921876594776, -0.10465466236997836, -0.13540878853696794, 0.054462017388910426, -0.12132931442373267, 0.039275486933940215, -0.07500105365168357, -0.03967409745232042, 0.02046847742653667, -0.0025892605427410265, -0.25052916286136456, -0.08617196805939838, 0.11718330182810095, -0.07676489223824437, 0.007156057506164763, 0.09404507940606874, 0.12640143788516847, 0.11077018802948307, -0.034547973636931927, 0.043260106817629984, -0.062006398011104816, 0.2745920672997594, 0.012775945465754368, -0.014149194568672181, 0.09339243741457325, 0.0489677016213609, 0.04746331987070798, 0.07638712049265206, 0.16750201024515743, 0.04458990924212457, -0.028095751656395055, -0.16994733109296953, -0.051443994359684525, -0.08065578138112794, 0.0012777580925060596, 0.025580261174306874, 0.0773714876665188, 0.06463315931490987, -0.01965254910702428, -0.3084906291256515, 0.07205126715627319, -0.11205156348193111, -0.06473322331074566, -0.0014366261269353954, -0.03154546996864899, -0.002042853997142094, 0.08168582426633307, -0.02934372409661959, 0.13349216925006238, -0.08705654966249456, -0.07770141138691435, -0.027996900331261846, 0.0282703689895863, 0.033849327136352976, -0.07670114176100351, -0.018607440394679722, -0.12008658206457595, 0.12717101907559591, -0.036415401756127515, -0.10227227357310086, -0.04141710840824198, -0.1379582235261505, 0.09084138694803537, -0.02546309831115147, 0.026622721261576218, -0.009673853363606886, 0.017157832154572953, -0.15086890584546434, -0.2227158007638853, -0.07702655239584678, -0.306264298334637, 0.11698543360290296, -0.10803213518696554, 0.021909989238942763, -0.02570249630356177, 0.07308719070511793, 